<?xml version="1.0"?>
<MethodSetup Method="BDT::BDT_em_0Jets_FinalDiscriminator">
  <GeneralInfo>
    <Info name="TMVA Release" value="4.2.0 [262656]"/>
    <Info name="ROOT Release" value="5.34/18 [336402]"/>
    <Info name="Creator" value="mschmitt"/>
    <Info name="Date" value="Sat Jul 23 19:52:11 2016"/>
    <Info name="Host" value="Linux cmsdev04.cern.ch 2.6.32-431.11.2.el6.x86_64 #1 SMP Wed Mar 26 09:39:43 CET 2014 x86_64 x86_64 x86_64 GNU/Linux"/>
    <Info name="Dir" value="/tmp/264276.1.medium/16741_0/7868/CMSSW_7_1_5/workdir"/>
    <Info name="Training events" value="72803"/>
    <Info name="TrainingTime" value="1.09413709e+02"/>
    <Info name="AnalysisType" value="Classification"/>
  </GeneralInfo>
  <Options>
    <Option name="V" modified="No">False</Option>
    <Option name="VerbosityLevel" modified="No">Default</Option>
    <Option name="VarTransform" modified="No">None</Option>
    <Option name="H" modified="No">False</Option>
    <Option name="CreateMVAPdfs" modified="No">False</Option>
    <Option name="IgnoreNegWeightsInTraining" modified="No">False</Option>
    <Option name="NTrees" modified="Yes">750</Option>
    <Option name="MaxDepth" modified="Yes">3</Option>
    <Option name="MinNodeSize" modified="Yes">2.5</Option>
    <Option name="nCuts" modified="Yes">1000</Option>
    <Option name="BoostType" modified="Yes">Grad</Option>
    <Option name="AdaBoostR2Loss" modified="No">quadratic</Option>
    <Option name="UseBaggedBoost" modified="No">False</Option>
    <Option name="Shrinkage" modified="Yes">1.000000e-01</Option>
    <Option name="AdaBoostBeta" modified="No">5.000000e-01</Option>
    <Option name="UseRandomisedTrees" modified="No">False</Option>
    <Option name="UseNvars" modified="No">3</Option>
    <Option name="UsePoissonNvars" modified="No">True</Option>
    <Option name="BaggedSampleFraction" modified="No">6.000000e-01</Option>
    <Option name="UseYesNoLeaf" modified="No">True</Option>
    <Option name="NegWeightTreatment" modified="No">ignorenegweightsintraining</Option>
    <Option name="Css" modified="No">1.000000e+00</Option>
    <Option name="Cts_sb" modified="No">1.000000e+00</Option>
    <Option name="Ctb_ss" modified="No">1.000000e+00</Option>
    <Option name="Cbb" modified="No">1.000000e+00</Option>
    <Option name="NodePurityLimit" modified="No">5.000000e-01</Option>
    <Option name="SeparationType" modified="Yes">giniindex</Option>
    <Option name="DoBoostMonitor" modified="No">False</Option>
    <Option name="UseFisherCuts" modified="No">False</Option>
    <Option name="MinLinCorrForFisher" modified="No">8.000000e-01</Option>
    <Option name="UseExclusiveVars" modified="No">False</Option>
    <Option name="DoPreselection" modified="No">False</Option>
    <Option name="SigToBkgFraction" modified="No">1.000000e+00</Option>
    <Option name="PruneMethod" modified="No">nopruning</Option>
    <Option name="PruneStrength" modified="No">0.000000e+00</Option>
    <Option name="PruningValFraction" modified="No">5.000000e-01</Option>
    <Option name="nEventsMin" modified="No">0</Option>
    <Option name="UseBaggedGrad" modified="No">False</Option>
    <Option name="GradBaggingFraction" modified="No">6.000000e-01</Option>
    <Option name="UseNTrainEvents" modified="No">0</Option>
    <Option name="NNodesMax" modified="No">0</Option>
  </Options>
  <Variables NVar="9">
    <Variable VarIndex="0" Expression="pt_1" Label="pt_1" Title="pt_1" Unit="" Internal="pt_1" Type="F" Min="1.30004263e+01" Max="3.39141998e+02"/>
    <Variable VarIndex="1" Expression="mt_1" Label="mt_1" Title="mt_1" Unit="" Internal="mt_1" Type="F" Min="5.02115581e-04" Max="6.45596680e+02"/>
    <Variable VarIndex="2" Expression="pt_2" Label="pt_2" Title="pt_2" Unit="" Internal="pt_2" Type="F" Min="1.00000935e+01" Max="3.40224915e+02"/>
    <Variable VarIndex="3" Expression="mt_2" Label="mt_2" Title="mt_2" Unit="" Internal="mt_2" Type="F" Min="6.16905454e-04" Max="6.52437561e+02"/>
    <Variable VarIndex="4" Expression="mvamet" Label="mvamet" Title="mvamet" Unit="" Internal="mvamet" Type="F" Min="1.25180826e-01" Max="3.43716400e+02"/>
    <Variable VarIndex="5" Expression="pZetaMissVis" Label="pZetaMissVis" Title="pZetaMissVis" Unit="" Internal="pZetaMissVis" Type="F" Min="-1.99995041e+01" Max="1.40378799e+02"/>
    <Variable VarIndex="6" Expression="H_pt" Label="H_pt" Title="H_pt" Unit="" Internal="H_pt" Type="F" Min="7.02138245e-02" Max="3.11134796e+02"/>
    <Variable VarIndex="7" Expression="diLepDeltaR" Label="diLepDeltaR" Title="diLepDeltaR" Unit="" Internal="diLepDeltaR" Type="F" Min="3.41016620e-01" Max="6.15862179e+00"/>
    <Variable VarIndex="8" Expression="m_sv" Label="m_sv" Title="m_sv" Unit="" Internal="m_sv" Type="F" Min="0.00000000e+00" Max="8.82132031e+03"/>
  </Variables>
  <Spectators NSpec="0"/>
  <Classes NClass="2">
    <Class Name="Background" Index="0"/>
    <Class Name="Signal" Index="1"/>
  </Classes>
  <Transformations NTransformations="0"/>
  <MVAPdfs/>
  <Weights NTrees="750" AnalysisType="1">
    <BinaryTree type="DecisionTree" boostWeight="1.0000000000000000e+00" itree="0">
      <Node pos="s" depth="0" NCoef="0" IVar="8" Cut="1.1456259918212891e+02" cType="1" res="-6.3149621557703203e-17" rms="5.0000000000000000e-01" purity="5.0000000000000000e-01" nType="0">
        <Node pos="l" depth="1" NCoef="0" IVar="0" Cut="4.4187763214111328e+01" cType="1" res="-9.0849235653877258e-02" rms="4.9167713522911072e-01" purity="4.0915077924728394e-01" nType="0">
          <Node pos="l" depth="2" NCoef="0" IVar="2" Cut="4.3325309753417969e+01" cType="1" res="-1.0603867471218109e-01" rms="4.8862645030021667e-01" purity="3.9396134018898010e-01" nType="0">
            <Node pos="l" depth="3" NCoef="0" IVar="-1" Cut="0.0000000000000000e+00" cType="1" res="-3.1177052296698093e-03" rms="4.8601859807968140e-01" purity="3.8258650898933411e-01" nType="-99"/>
            <Node pos="r" depth="3" NCoef="0" IVar="-1" Cut="0.0000000000000000e+00" cType="1" res="9.8478002473711967e-04" rms="4.9733901023864746e-01" purity="5.5151617527008057e-01" nType="-99"/>
          </Node>
          <Node pos="r" depth="2" NCoef="0" IVar="-1" Cut="0.0000000000000000e+00" cType="1" res="1.2546787038445473e-03" rms="4.9525904655456543e-01" purity="5.6869119405746460e-01" nType="-99"/>
        </Node>
        <Node pos="r" depth="1" NCoef="0" IVar="8" Cut="1.7544941711425781e+02" cType="1" res="8.6617924273014069e-02" rms="4.9244019389152527e-01" purity="5.8661794662475586e-01" nType="0">
          <Node pos="l" depth="2" NCoef="0" IVar="0" Cut="4.4027481079101562e+01" cType="1" res="1.1082931607961655e-01" rms="4.8756214976310730e-01" purity="6.1082929372787476e-01" nType="0">
            <Node pos="l" depth="3" NCoef="0" IVar="-1" Cut="0.0000000000000000e+00" cType="1" res="1.3671818887814879e-03" rms="4.9443075060844421e-01" purity="5.7441920042037964e-01" nType="-99"/>
            <Node pos="r" depth="3" NCoef="0" IVar="-1" Cut="0.0000000000000000e+00" cType="1" res="3.3380181994289160e-03" rms="4.4541472196578979e-01" purity="7.2716891765594482e-01" nType="-99"/>
          </Node>
          <Node pos="r" depth="2" NCoef="0" IVar="-1" Cut="0.0000000000000000e+00" cType="1" res="-5.6516346521675587e-03" rms="4.4153562188148499e-01" purity="2.6538053154945374e-01" nType="-99"/>
        </Node>
      </Node>
    </BinaryTree>
    <BinaryTree type="DecisionTree" boostWeight="1.0000000000000000e+00" itree="1">
      <Node pos="s" depth="0" NCoef="0" IVar="8" Cut="1.1456259918212891e+02" cType="1" res="2.7068052440881729e-04" rms="4.9967378377914429e-01" purity="5.0000000000000000e-01" nType="0">
        <Node pos="l" depth="1" NCoef="0" IVar="0" Cut="4.4187763214111328e+01" cType="1" res="-8.9606560766696930e-02" rms="4.9157953262329102e-01" purity="4.0915077924728394e-01" nType="0">
          <Node pos="l" depth="2" NCoef="0" IVar="2" Cut="4.3325309753417969e+01" cType="1" res="-1.0461795330047607e-01" rms="4.8858216404914856e-01" purity="3.9396134018898010e-01" nType="0">
            <Node pos="l" depth="3" NCoef="0" IVar="-1" Cut="0.0000000000000000e+00" cType="1" res="-3.0763428658246994e-03" rms="4.8601859807968140e-01" purity="3.8258650898933411e-01" nType="-99"/>
            <Node pos="r" depth="3" NCoef="0" IVar="-1" Cut="0.0000000000000000e+00" cType="1" res="9.7536842804402113e-04" rms="4.9733901023864746e-01" purity="5.5151617527008057e-01" nType="-99"/>
          </Node>
          <Node pos="r" depth="2" NCoef="0" IVar="-1" Cut="0.0000000000000000e+00" cType="1" res="1.2432220391929150e-03" rms="4.9525904655456543e-01" purity="5.6869119405746460e-01" nType="-99"/>
        </Node>
        <Node pos="r" depth="1" NCoef="0" IVar="8" Cut="1.7544941711425781e+02" cType="1" res="8.5961878299713135e-02" rms="4.9221843481063843e-01" purity="5.8661794662475586e-01" nType="0">
          <Node pos="l" depth="2" NCoef="0" IVar="0" Cut="4.4027481079101562e+01" cType="1" res="1.0991084575653076e-01" rms="4.8750630021095276e-01" purity="6.1082929372787476e-01" nType="0">
            <Node pos="l" depth="3" NCoef="0" IVar="-1" Cut="0.0000000000000000e+00" cType="1" res="1.3546260306611657e-03" rms="4.9443078041076660e-01" purity="5.7441920042037964e-01" nType="-99"/>
            <Node pos="r" depth="3" NCoef="0" IVar="-1" Cut="0.0000000000000000e+00" cType="1" res="3.3135311678051949e-03" rms="4.4541472196578979e-01" purity="7.2716891765594482e-01" nType="-99"/>
          </Node>
          <Node pos="r" depth="2" NCoef="0" IVar="-1" Cut="0.0000000000000000e+00" cType="1" res="-5.5837435647845268e-03" rms="4.4153562188148499e-01" purity="2.6538053154945374e-01" nType="-99"/>
        </Node>
      </Node>
    </BinaryTree>
    <BinaryTree type="DecisionTree" boostWeight="1.0000000000000000e+00" itree="2">
      <Node pos="s" depth="0" NCoef="0" IVar="8" Cut="1.1456259918212891e+02" cType="1" res="5.3559226216748357e-04" rms="4.9935436248779297e-01" purity="5.0000000000000000e-01" nType="0">
        <Node pos="l" depth="1" NCoef="0" IVar="0" Cut="4.4187763214111328e+01" cType="1" res="-8.8380701839923859e-02" rms="4.9148425459861755e-01" purity="4.0915077924728394e-01" nType="0">
          <Node pos="l" depth="2" NCoef="0" IVar="2" Cut="4.3325309753417969e+01" cType="1" res="-1.0321620106697083e-01" rms="4.8853898048400879e-01" purity="3.9396134018898010e-01" nType="0">
            <Node pos="l" depth="3" NCoef="0" IVar="-1" Cut="0.0000000000000000e+00" cType="1" res="-3.0355865601450205e-03" rms="4.8601859807968140e-01" purity="3.8258650898933411e-01" nType="-99"/>
            <Node pos="r" depth="3" NCoef="0" IVar="-1" Cut="0.0000000000000000e+00" cType="1" res="9.6604862483218312e-04" rms="4.9733901023864746e-01" purity="5.5151617527008057e-01" nType="-99"/>
          </Node>
          <Node pos="r" depth="2" NCoef="0" IVar="-1" Cut="0.0000000000000000e+00" cType="1" res="1.2318736407905817e-03" rms="4.9525904655456543e-01" purity="5.6869119405746460e-01" nType="-99"/>
        </Node>
        <Node pos="r" depth="1" NCoef="0" IVar="8" Cut="1.7544941711425781e+02" cType="1" res="8.5310600697994232e-02" rms="4.9200096726417542e-01" purity="5.8661794662475586e-01" nType="0">
          <Node pos="l" depth="2" NCoef="0" IVar="8" Cut="1.2635887145996094e+02" cType="1" res="1.0900007933378220e-01" rms="4.8745110630989075e-01" purity="6.1082929372787476e-01" nType="0">
            <Node pos="l" depth="3" NCoef="0" IVar="-1" Cut="0.0000000000000000e+00" cType="1" res="5.8943132171407342e-04" rms="4.9895811080932617e-01" purity="5.3083872795104980e-01" nType="-99"/>
            <Node pos="r" depth="3" NCoef="0" IVar="-1" Cut="0.0000000000000000e+00" cType="1" res="2.5519118644297123e-03" rms="4.7268715500831604e-01" purity="6.6270238161087036e-01" nType="-99"/>
          </Node>
          <Node pos="r" depth="2" NCoef="0" IVar="-1" Cut="0.0000000000000000e+00" cType="1" res="-5.5170152336359024e-03" rms="4.4153562188148499e-01" purity="2.6538053154945374e-01" nType="-99"/>
        </Node>
      </Node>
    </BinaryTree>
    <BinaryTree type="DecisionTree" boostWeight="1.0000000000000000e+00" itree="3">
      <Node pos="s" depth="0" NCoef="0" IVar="8" Cut="1.1456259918212891e+02" cType="1" res="8.0108561087399721e-04" rms="4.9903902411460876e-01" purity="5.0000000000000000e-01" nType="0">
        <Node pos="l" depth="1" NCoef="0" IVar="0" Cut="4.4187763214111328e+01" cType="1" res="-8.7171487510204315e-02" rms="4.9139124155044556e-01" purity="4.0915077924728394e-01" nType="0">
          <Node pos="l" depth="2" NCoef="0" IVar="2" Cut="4.3325309753417969e+01" cType="1" res="-1.0183322429656982e-01" rms="4.8849684000015259e-01" purity="3.9396134018898010e-01" nType="0">
            <Node pos="l" depth="3" NCoef="0" IVar="-1" Cut="0.0000000000000000e+00" cType="1" res="-2.9954256024211645e-03" rms="4.8601859807968140e-01" purity="3.8258650898933411e-01" nType="-99"/>
            <Node pos="r" depth="3" NCoef="0" IVar="-1" Cut="0.0000000000000000e+00" cType="1" res="9.5681968377903104e-04" rms="4.9733901023864746e-01" purity="5.5151617527008057e-01" nType="-99"/>
          </Node>
          <Node pos="r" depth="2" NCoef="0" IVar="-1" Cut="0.0000000000000000e+00" cType="1" res="1.2206329265609384e-03" rms="4.9525904655456543e-01" purity="5.6869119405746460e-01" nType="-99"/>
        </Node>
        <Node pos="r" depth="1" NCoef="0" IVar="8" Cut="1.7544941711425781e+02" cType="1" res="8.4676332771778107e-02" rms="4.9178043007850647e-01" purity="5.8661794662475586e-01" nType="0">
          <Node pos="l" depth="2" NCoef="0" IVar="0" Cut="4.4027481079101562e+01" cType="1" res="1.0811013728380203e-01" rms="4.8738813400268555e-01" purity="6.1082929372787476e-01" nType="0">
            <Node pos="l" depth="3" NCoef="0" IVar="-1" Cut="0.0000000000000000e+00" cType="1" res="1.3265666784718633e-03" rms="4.9437004327774048e-01" purity="5.7441920042037964e-01" nType="-99"/>
            <Node pos="r" depth="3" NCoef="0" IVar="-1" Cut="0.0000000000000000e+00" cType="1" res="3.2745175994932652e-03" rms="4.4538256525993347e-01" purity="7.2716891765594482e-01" nType="-99"/>
          </Node>
          <Node pos="r" depth="2" NCoef="0" IVar="-1" Cut="0.0000000000000000e+00" cType="1" res="-5.4514128714799881e-03" rms="4.4153562188148499e-01" purity="2.6538053154945374e-01" nType="-99"/>
        </Node>
      </Node>
    </BinaryTree>
    <BinaryTree type="DecisionTree" boostWeight="1.0000000000000000e+00" itree="4">
      <Node pos="s" depth="0" NCoef="0" IVar="8" Cut="1.1456259918212891e+02" cType="1" res="1.0547919664531946e-03" rms="4.9873247742652893e-01" purity="5.0000000000000000e-01" nType="0">
        <Node pos="l" depth="1" NCoef="0" IVar="0" Cut="4.4187763214111328e+01" cType="1" res="-8.5978686809539795e-02" rms="4.9130040407180786e-01" purity="4.0915077924728394e-01" nType="0">
          <Node pos="l" depth="2" NCoef="0" IVar="2" Cut="4.3325309753417969e+01" cType="1" res="-1.0046874731779099e-01" rms="4.8845571279525757e-01" purity="3.9396134018898010e-01" nType="0">
            <Node pos="l" depth="3" NCoef="0" IVar="-1" Cut="0.0000000000000000e+00" cType="1" res="-2.9558478854596615e-03" rms="4.8601859807968140e-01" purity="3.8258650898933411e-01" nType="-99"/>
            <Node pos="r" depth="3" NCoef="0" IVar="-1" Cut="0.0000000000000000e+00" cType="1" res="9.4768067356199026e-04" rms="4.9733901023864746e-01" purity="5.5151617527008057e-01" nType="-99"/>
          </Node>
          <Node pos="r" depth="2" NCoef="0" IVar="-1" Cut="0.0000000000000000e+00" cType="1" res="1.2094978010281920e-03" rms="4.9525907635688782e-01" purity="5.6869119405746460e-01" nType="-99"/>
        </Node>
        <Node pos="r" depth="1" NCoef="0" IVar="8" Cut="1.7544941711425781e+02" cType="1" res="8.4034673869609833e-02" rms="4.9157065153121948e-01" purity="5.8661794662475586e-01" nType="0">
          <Node pos="l" depth="2" NCoef="0" IVar="0" Cut="4.4027481079101562e+01" cType="1" res="1.0721476376056671e-01" rms="4.8733365535736084e-01" purity="6.1082929372787476e-01" nType="0">
            <Node pos="l" depth="3" NCoef="0" IVar="-1" Cut="0.0000000000000000e+00" cType="1" res="1.3143998803570867e-03" rms="4.9437001347541809e-01" purity="5.7441920042037964e-01" nType="-99"/>
            <Node pos="r" depth="3" NCoef="0" IVar="-1" Cut="0.0000000000000000e+00" cType="1" res="3.2506808638572693e-03" rms="4.4538256525993347e-01" purity="7.2716891765594482e-01" nType="-99"/>
          </Node>
          <Node pos="r" depth="2" NCoef="0" IVar="-1" Cut="0.0000000000000000e+00" cType="1" res="-5.3869052790105343e-03" rms="4.4153559207916260e-01" purity="2.6538053154945374e-01" nType="-99"/>
        </Node>
      </Node>
    </BinaryTree>
    <BinaryTree type="DecisionTree" boostWeight="1.0000000000000000e+00" itree="5">
      <Node pos="s" depth="0" NCoef="0" IVar="8" Cut="1.1456259918212891e+02" cType="1" res="1.3029982801526785e-03" rms="4.9843233823776245e-01" purity="5.0000000000000000e-01" nType="0">
        <Node pos="l" depth="1" NCoef="0" IVar="0" Cut="4.4187763214111328e+01" cType="1" res="-8.4802031517028809e-02" rms="4.9121174216270447e-01" purity="4.0915077924728394e-01" nType="0">
          <Node pos="l" depth="2" NCoef="0" IVar="2" Cut="4.3325309753417969e+01" cType="1" res="-9.9122494459152222e-02" rms="4.8841559886932373e-01" purity="3.9396134018898010e-01" nType="0">
            <Node pos="l" depth="3" NCoef="0" IVar="-1" Cut="0.0000000000000000e+00" cType="1" res="-2.9168417677283287e-03" rms="4.8601859807968140e-01" purity="3.8258650898933411e-01" nType="-99"/>
            <Node pos="r" depth="3" NCoef="0" IVar="-1" Cut="0.0000000000000000e+00" cType="1" res="9.3863037182018161e-04" rms="4.9733901023864746e-01" purity="5.5151617527008057e-01" nType="-99"/>
          </Node>
          <Node pos="r" depth="2" NCoef="0" IVar="-1" Cut="0.0000000000000000e+00" cType="1" res="1.1984681477770209e-03" rms="4.9525904655456543e-01" purity="5.6869119405746460e-01" nType="-99"/>
        </Node>
        <Node pos="r" depth="1" NCoef="0" IVar="8" Cut="1.7544941711425781e+02" cType="1" res="8.3397679030895233e-02" rms="4.9136492609977722e-01" purity="5.8661794662475586e-01" nType="0">
          <Node pos="l" depth="2" NCoef="0" IVar="8" Cut="1.2635887145996094e+02" cType="1" res="1.0632687807083130e-01" rms="4.8727989196777344e-01" purity="6.1082929372787476e-01" nType="0">
            <Node pos="l" depth="3" NCoef="0" IVar="-1" Cut="0.0000000000000000e+00" cType="1" res="5.5043603060767055e-04" rms="4.9887025356292725e-01" purity="5.3083872795104980e-01" nType="-99"/>
            <Node pos="r" depth="3" NCoef="0" IVar="-1" Cut="0.0000000000000000e+00" cType="1" res="2.5020933244377375e-03" rms="4.7258973121643066e-01" purity="6.6270238161087036e-01" nType="-99"/>
          </Node>
          <Node pos="r" depth="2" NCoef="0" IVar="-1" Cut="0.0000000000000000e+00" cType="1" res="-5.3234593942761421e-03" rms="4.4153562188148499e-01" purity="2.6538053154945374e-01" nType="-99"/>
        </Node>
      </Node>
    </BinaryTree>
    <BinaryTree type="DecisionTree" boostWeight="1.0000000000000000e+00" itree="6">
      <Node pos="s" depth="0" NCoef="0" IVar="8" Cut="1.1456259918212891e+02" cType="1" res="1.5521621098741889e-03" rms="4.9813556671142578e-01" purity="5.0000000000000000e-01" nType="0">
        <Node pos="l" depth="1" NCoef="0" IVar="0" Cut="4.4187763214111328e+01" cType="1" res="-8.3641350269317627e-02" rms="4.9112519621849060e-01" purity="4.0915077924728394e-01" nType="0">
          <Node pos="l" depth="2" NCoef="0" IVar="2" Cut="4.3325309753417969e+01" cType="1" res="-9.7794257104396820e-02" rms="4.8837643861770630e-01" purity="3.9396134018898010e-01" nType="0">
            <Node pos="l" depth="3" NCoef="0" IVar="-1" Cut="0.0000000000000000e+00" cType="1" res="-2.8783974703401327e-03" rms="4.8601856827735901e-01" purity="3.8258650898933411e-01" nType="-99"/>
            <Node pos="r" depth="3" NCoef="0" IVar="-1" Cut="0.0000000000000000e+00" cType="1" res="9.2966860393062234e-04" rms="4.9733901023864746e-01" purity="5.5151617527008057e-01" nType="-99"/>
          </Node>
          <Node pos="r" depth="2" NCoef="0" IVar="-1" Cut="0.0000000000000000e+00" cType="1" res="1.1875421041622758e-03" rms="4.9525904655456543e-01" purity="5.6869119405746460e-01" nType="-99"/>
        </Node>
        <Node pos="r" depth="1" NCoef="0" IVar="8" Cut="1.7544941711425781e+02" cType="1" res="8.2777775824069977e-02" rms="4.9115544557571411e-01" purity="5.8661794662475586e-01" nType="0">
          <Node pos="l" depth="2" NCoef="0" IVar="0" Cut="4.4027481079101562e+01" cType="1" res="1.0545983165502548e-01" rms="4.8721781373023987e-01" purity="6.1082929372787476e-01" nType="0">
            <Node pos="l" depth="3" NCoef="0" IVar="-1" Cut="0.0000000000000000e+00" cType="1" res="1.2871617218479514e-03" rms="4.9431008100509644e-01" purity="5.7441920042037964e-01" nType="-99"/>
            <Node pos="r" depth="3" NCoef="0" IVar="-1" Cut="0.0000000000000000e+00" cType="1" res="3.2127632293850183e-03" rms="4.4535103440284729e-01" purity="7.2716891765594482e-01" nType="-99"/>
          </Node>
          <Node pos="r" depth="2" NCoef="0" IVar="-1" Cut="0.0000000000000000e+00" cType="1" res="-5.2610463462769985e-03" rms="4.4153559207916260e-01" purity="2.6538053154945374e-01" nType="-99"/>
        </Node>
      </Node>
    </BinaryTree>
    <BinaryTree type="DecisionTree" boostWeight="1.0000000000000000e+00" itree="7">
      <Node pos="s" depth="0" NCoef="0" IVar="8" Cut="1.1456259918212891e+02" cType="1" res="1.7897115321829915e-03" rms="4.9784749746322632e-01" purity="5.0000000000000000e-01" nType="0">
        <Node pos="l" depth="1" NCoef="0" IVar="0" Cut="4.4187763214111328e+01" cType="1" res="-8.2496397197246552e-02" rms="4.9104070663452148e-01" purity="4.0915077924728394e-01" nType="0">
          <Node pos="l" depth="2" NCoef="0" IVar="2" Cut="4.3325309753417969e+01" cType="1" res="-9.6483767032623291e-02" rms="4.8833826184272766e-01" purity="3.9396134018898010e-01" nType="0">
            <Node pos="l" depth="3" NCoef="0" IVar="-1" Cut="0.0000000000000000e+00" cType="1" res="-2.8405033517628908e-03" rms="4.8601859807968140e-01" purity="3.8258650898933411e-01" nType="-99"/>
            <Node pos="r" depth="3" NCoef="0" IVar="-1" Cut="0.0000000000000000e+00" cType="1" res="9.2079362366348505e-04" rms="4.9733898043632507e-01" purity="5.5151617527008057e-01" nType="-99"/>
          </Node>
          <Node pos="r" depth="2" NCoef="0" IVar="-1" Cut="0.0000000000000000e+00" cType="1" res="1.1767187388613820e-03" rms="4.9525907635688782e-01" purity="5.6869119405746460e-01" nType="-99"/>
        </Node>
        <Node pos="r" depth="1" NCoef="0" IVar="8" Cut="1.7544941711425781e+02" cType="1" res="8.2150183618068695e-02" rms="4.9095693230628967e-01" purity="5.8661794662475586e-01" nType="0">
          <Node pos="l" depth="2" NCoef="0" IVar="8" Cut="1.2635887145996094e+02" cType="1" res="1.0458692908287048e-01" rms="4.8716473579406738e-01" purity="6.1082929372787476e-01" nType="0">
            <Node pos="l" depth="3" NCoef="0" IVar="-1" Cut="0.0000000000000000e+00" cType="1" res="5.2872690139338374e-04" rms="4.9882704019546509e-01" purity="5.3083872795104980e-01" nType="-99"/>
            <Node pos="r" depth="3" NCoef="0" IVar="-1" Cut="0.0000000000000000e+00" cType="1" res="2.4679210036993027e-03" rms="4.7254207730293274e-01" purity="6.6270238161087036e-01" nType="-99"/>
          </Node>
          <Node pos="r" depth="2" NCoef="0" IVar="-1" Cut="0.0000000000000000e+00" cType="1" res="-5.1996358670294285e-03" rms="4.4153559207916260e-01" purity="2.6538053154945374e-01" nType="-99"/>
        </Node>
      </Node>
    </BinaryTree>
    <BinaryTree type="DecisionTree" boostWeight="1.0000000000000000e+00" itree="8">
      <Node pos="s" depth="0" NCoef="0" IVar="8" Cut="1.1456259918212891e+02" cType="1" res="2.0283411722630262e-03" rms="4.9756261706352234e-01" purity="5.0000000000000000e-01" nType="0">
        <Node pos="l" depth="1" NCoef="0" IVar="0" Cut="4.4187763214111328e+01" cType="1" res="-8.1366978585720062e-02" rms="4.9095821380615234e-01" purity="4.0915077924728394e-01" nType="0">
          <Node pos="l" depth="2" NCoef="0" IVar="2" Cut="4.3325309753417969e+01" cType="1" res="-9.5190808176994324e-02" rms="4.8830097913742065e-01" purity="3.9396134018898010e-01" nType="0">
            <Node pos="l" depth="3" NCoef="0" IVar="-1" Cut="0.0000000000000000e+00" cType="1" res="-2.8031498659402132e-03" rms="4.8601859807968140e-01" purity="3.8258650898933411e-01" nType="-99"/>
            <Node pos="r" depth="3" NCoef="0" IVar="-1" Cut="0.0000000000000000e+00" cType="1" res="9.1200484894216061e-04" rms="4.9733901023864746e-01" purity="5.5151617527008057e-01" nType="-99"/>
          </Node>
          <Node pos="r" depth="2" NCoef="0" IVar="-1" Cut="0.0000000000000000e+00" cType="1" res="1.1659971205517650e-03" rms="4.9525904655456543e-01" purity="5.6869119405746460e-01" nType="-99"/>
        </Node>
        <Node pos="r" depth="1" NCoef="0" IVar="8" Cut="1.7544941711425781e+02" cType="1" res="8.1539511680603027e-02" rms="4.9075475335121155e-01" purity="5.8661794662475586e-01" nType="0">
          <Node pos="l" depth="2" NCoef="0" IVar="0" Cut="4.4027481079101562e+01" cType="1" res="1.0373461246490479e-01" rms="4.8710358142852783e-01" purity="6.1082929372787476e-01" nType="0">
            <Node pos="l" depth="3" NCoef="0" IVar="-1" Cut="0.0000000000000000e+00" cType="1" res="1.2604617513716221e-03" rms="4.9425101280212402e-01" purity="5.7441920042037964e-01" nType="-99"/>
            <Node pos="r" depth="3" NCoef="0" IVar="-1" Cut="0.0000000000000000e+00" cType="1" res="3.1755170784890652e-03" rms="4.4532006978988647e-01" purity="7.2716891765594482e-01" nType="-99"/>
          </Node>
          <Node pos="r" depth="2" NCoef="0" IVar="-1" Cut="0.0000000000000000e+00" cType="1" res="-5.1392009481787682e-03" rms="4.4153562188148499e-01" purity="2.6538053154945374e-01" nType="-99"/>
        </Node>
      </Node>
    </BinaryTree>
    <BinaryTree type="DecisionTree" boostWeight="1.0000000000000000e+00" itree="9">
      <Node pos="s" depth="0" NCoef="0" IVar="8" Cut="1.1456259918212891e+02" cType="1" res="2.2555699106305838e-03" rms="4.9728611111640930e-01" purity="5.0000000000000000e-01" nType="0">
        <Node pos="l" depth="1" NCoef="0" IVar="0" Cut="4.4187763214111328e+01" cType="1" res="-8.0252893269062042e-02" rms="4.9087765812873840e-01" purity="4.0915077924728394e-01" nType="0">
          <Node pos="l" depth="2" NCoef="0" IVar="2" Cut="4.3325309753417969e+01" cType="1" res="-9.3915157020092010e-02" rms="4.8826462030410767e-01" purity="3.9396134018898010e-01" nType="0">
            <Node pos="l" depth="3" NCoef="0" IVar="-1" Cut="0.0000000000000000e+00" cType="1" res="-2.7663274668157101e-03" rms="4.8601856827735901e-01" purity="3.8258650898933411e-01" nType="-99"/>
            <Node pos="r" depth="3" NCoef="0" IVar="-1" Cut="0.0000000000000000e+00" cType="1" res="9.0330123202875257e-04" rms="4.9733901023864746e-01" purity="5.5151617527008057e-01" nType="-99"/>
          </Node>
          <Node pos="r" depth="2" NCoef="0" IVar="-1" Cut="0.0000000000000000e+00" cType="1" res="1.1553763179108500e-03" rms="4.9525904655456543e-01" purity="5.6869119405746460e-01" nType="-99"/>
        </Node>
        <Node pos="r" depth="1" NCoef="0" IVar="8" Cut="1.7544941711425781e+02" cType="1" res="8.0921195447444916e-02" rms="4.9056318402290344e-01" purity="5.8661794662475586e-01" nType="0">
          <Node pos="l" depth="2" NCoef="0" IVar="8" Cut="1.2635887145996094e+02" cType="1" res="1.0287643224000931e-01" rms="4.8705118894577026e-01" purity="6.1082929372787476e-01" nType="0">
            <Node pos="l" depth="3" NCoef="0" IVar="-1" Cut="0.0000000000000000e+00" cType="1" res="5.0752866081893444e-04" rms="4.9878439307212830e-01" purity="5.3083872795104980e-01" nType="-99"/>
            <Node pos="r" depth="3" NCoef="0" IVar="-1" Cut="0.0000000000000000e+00" cType="1" res="2.4343449622392654e-03" rms="4.7249504923820496e-01" purity="6.6270238161087036e-01" nType="-99"/>
          </Node>
          <Node pos="r" depth="2" NCoef="0" IVar="-1" Cut="0.0000000000000000e+00" cType="1" res="-5.0797136500477791e-03" rms="4.4153559207916260e-01" purity="2.6538053154945374e-01" nType="-99"/>
        </Node>
      </Node>
    </BinaryTree>
    <BinaryTree type="DecisionTree" boostWeight="1.0000000000000000e+00" itree="10">
      <Node pos="s" depth="0" NCoef="0" IVar="8" Cut="1.1456259918212891e+02" cType="1" res="2.4840014521032572e-03" rms="4.9701261520385742e-01" purity="5.0000000000000000e-01" nType="0">
        <Node pos="l" depth="1" NCoef="0" IVar="0" Cut="4.4187763214111328e+01" cType="1" res="-7.9153895378112793e-02" rms="4.9079903960227966e-01" purity="4.0915077924728394e-01" nType="0">
          <Node pos="l" depth="2" NCoef="0" IVar="2" Cut="4.3325309753417969e+01" cType="1" res="-9.2656537890434265e-02" rms="4.8822912573814392e-01" purity="3.9396134018898010e-01" nType="0">
            <Node pos="l" depth="3" NCoef="0" IVar="-1" Cut="0.0000000000000000e+00" cType="1" res="-2.7300252113491297e-03" rms="4.8601859807968140e-01" purity="3.8258650898933411e-01" nType="-99"/>
            <Node pos="r" depth="3" NCoef="0" IVar="-1" Cut="0.0000000000000000e+00" cType="1" res="8.9468189980834723e-04" rms="4.9733901023864746e-01" purity="5.5151617527008057e-01" nType="-99"/>
          </Node>
          <Node pos="r" depth="2" NCoef="0" IVar="-1" Cut="0.0000000000000000e+00" cType="1" res="1.1448550503700972e-03" rms="4.9525907635688782e-01" purity="5.6869119405746460e-01" nType="-99"/>
        </Node>
        <Node pos="r" depth="1" NCoef="0" IVar="8" Cut="1.7544941711425781e+02" cType="1" res="8.0319605767726898e-02" rms="4.9036800861358643e-01" purity="5.8661794662475586e-01" nType="0">
          <Node pos="l" depth="2" NCoef="0" IVar="0" Cut="4.4027481079101562e+01" cType="1" res="1.0203857719898224e-01" rms="4.8699095845222473e-01" purity="6.1082929372787476e-01" nType="0">
            <Node pos="l" depth="3" NCoef="0" IVar="-1" Cut="0.0000000000000000e+00" cType="1" res="1.2342875124886632e-03" rms="4.9419280886650085e-01" purity="5.7441920042037964e-01" nType="-99"/>
            <Node pos="r" depth="3" NCoef="0" IVar="-1" Cut="0.0000000000000000e+00" cType="1" res="3.1389226205646992e-03" rms="4.4528979063034058e-01" purity="7.2716891765594482e-01" nType="-99"/>
          </Node>
          <Node pos="r" depth="2" NCoef="0" IVar="-1" Cut="0.0000000000000000e+00" cType="1" res="-5.0211497582495213e-03" rms="4.4153562188148499e-01" purity="2.6538053154945374e-01" nType="-99"/>
        </Node>
      </Node>
    </BinaryTree>
    <BinaryTree type="DecisionTree" boostWeight="1.0000000000000000e+00" itree="11">
      <Node pos="s" depth="0" NCoef="0" IVar="8" Cut="1.1456259918212891e+02" cType="1" res="2.7012557256966829e-03" rms="4.9674716591835022e-01" purity="5.0000000000000000e-01" nType="0">
        <Node pos="l" depth="1" NCoef="0" IVar="0" Cut="4.4187763214111328e+01" cType="1" res="-7.8069843351840973e-02" rms="4.9072229862213135e-01" purity="4.0915077924728394e-01" nType="0">
          <Node pos="l" depth="2" NCoef="0" IVar="2" Cut="4.3325309753417969e+01" cType="1" res="-9.1414779424667358e-02" rms="4.8819452524185181e-01" purity="3.9396134018898010e-01" nType="0">
            <Node pos="l" depth="3" NCoef="0" IVar="-1" Cut="0.0000000000000000e+00" cType="1" res="-2.6942356489598751e-03" rms="4.8601859807968140e-01" purity="3.8258650898933411e-01" nType="-99"/>
            <Node pos="r" depth="3" NCoef="0" IVar="-1" Cut="0.0000000000000000e+00" cType="1" res="8.8614638661965728e-04" rms="4.9733898043632507e-01" purity="5.5151617527008057e-01" nType="-99"/>
          </Node>
          <Node pos="r" depth="2" NCoef="0" IVar="-1" Cut="0.0000000000000000e+00" cType="1" res="1.1344321537762880e-03" rms="4.9525904655456543e-01" purity="5.6869119405746460e-01" nType="-99"/>
        </Node>
        <Node pos="r" depth="1" NCoef="0" IVar="8" Cut="1.7544941711425781e+02" cType="1" res="7.9710438847541809e-02" rms="4.9018314480781555e-01" purity="5.8661794662475586e-01" nType="0">
          <Node pos="l" depth="2" NCoef="0" IVar="8" Cut="1.2635887145996094e+02" cType="1" res="1.0119486600160599e-01" rms="4.8693925142288208e-01" purity="6.1082929372787476e-01" nType="0">
            <Node pos="l" depth="3" NCoef="0" IVar="-1" Cut="0.0000000000000000e+00" cType="1" res="4.8683004570193589e-04" rms="4.9874219298362732e-01" purity="5.3083872795104980e-01" nType="-99"/>
            <Node pos="r" depth="3" NCoef="0" IVar="-1" Cut="0.0000000000000000e+00" cType="1" res="2.4013493675738573e-03" rms="4.7244876623153687e-01" purity="6.6270238161087036e-01" nType="-99"/>
          </Node>
          <Node pos="r" depth="2" NCoef="0" IVar="-1" Cut="0.0000000000000000e+00" cType="1" res="-4.9634831957519054e-03" rms="4.4153562188148499e-01" purity="2.6538053154945374e-01" nType="-99"/>
        </Node>
      </Node>
    </BinaryTree>
    <BinaryTree type="DecisionTree" boostWeight="1.0000000000000000e+00" itree="12">
      <Node pos="s" depth="0" NCoef="0" IVar="8" Cut="1.1456259918212891e+02" cType="1" res="2.9198327101767063e-03" rms="4.9648457765579224e-01" purity="5.0000000000000000e-01" nType="0">
        <Node pos="l" depth="1" NCoef="0" IVar="0" Cut="4.4187763214111328e+01" cType="1" res="-7.7000454068183899e-02" rms="4.9064734578132629e-01" purity="4.0915077924728394e-01" nType="0">
          <Node pos="l" depth="2" NCoef="0" IVar="2" Cut="4.3325309753417969e+01" cType="1" res="-9.0189583599567413e-02" rms="4.8816072940826416e-01" purity="3.9396134018898010e-01" nType="0">
            <Node pos="l" depth="3" NCoef="0" IVar="-1" Cut="0.0000000000000000e+00" cType="1" res="-2.6589471381157637e-03" rms="4.8601859807968140e-01" purity="3.8258650898933411e-01" nType="-99"/>
            <Node pos="r" depth="3" NCoef="0" IVar="-1" Cut="0.0000000000000000e+00" cType="1" res="8.7769341189414263e-04" rms="4.9733901023864746e-01" purity="5.5151617527008057e-01" nType="-99"/>
          </Node>
          <Node pos="r" depth="2" NCoef="0" IVar="-1" Cut="0.0000000000000000e+00" cType="1" res="1.1241071624681354e-03" rms="4.9525904655456543e-01" purity="5.6869119405746460e-01" nType="-99"/>
        </Node>
        <Node pos="r" depth="1" NCoef="0" IVar="8" Cut="1.7544941711425781e+02" cType="1" res="7.9117827117443085e-02" rms="4.8999467492103577e-01" purity="5.8661794662475586e-01" nType="0">
          <Node pos="l" depth="2" NCoef="0" IVar="0" Cut="4.4027481079101562e+01" cType="1" res="1.0037124156951904e-01" rms="4.8687991499900818e-01" purity="6.1082929372787476e-01" nType="0">
            <Node pos="l" depth="3" NCoef="0" IVar="-1" Cut="0.0000000000000000e+00" cType="1" res="1.2086274800822139e-03" rms="4.9413540959358215e-01" purity="5.7441920042037964e-01" nType="-99"/>
            <Node pos="r" depth="3" NCoef="0" IVar="-1" Cut="0.0000000000000000e+00" cType="1" res="3.1029607634991407e-03" rms="4.4526007771492004e-01" purity="7.2716891765594482e-01" nType="-99"/>
          </Node>
          <Node pos="r" depth="2" NCoef="0" IVar="-1" Cut="0.0000000000000000e+00" cType="1" res="-4.9066902138292789e-03" rms="4.4153562188148499e-01" purity="2.6538053154945374e-01" nType="-99"/>
        </Node>
      </Node>
    </BinaryTree>
    <BinaryTree type="DecisionTree" boostWeight="1.0000000000000000e+00" itree="13">
      <Node pos="s" depth="0" NCoef="0" IVar="8" Cut="1.1456259918212891e+02" cType="1" res="3.1274547800421715e-03" rms="4.9622976779937744e-01" purity="5.0000000000000000e-01" nType="0">
        <Node pos="l" depth="1" NCoef="0" IVar="0" Cut="4.4187763214111328e+01" cType="1" res="-7.5945600867271423e-02" rms="4.9057421088218689e-01" purity="4.0915077924728394e-01" nType="0">
          <Node pos="l" depth="2" NCoef="0" IVar="8" Cut="7.7252464294433594e+01" cType="1" res="-8.8980801403522491e-02" rms="4.8812779784202576e-01" purity="3.9396134018898010e-01" nType="0">
            <Node pos="l" depth="3" NCoef="0" IVar="-1" Cut="0.0000000000000000e+00" cType="1" res="-7.8937197104096413e-03" rms="4.3662500381469727e-01" purity="2.5630500912666321e-01" nType="-99"/>
            <Node pos="r" depth="3" NCoef="0" IVar="-1" Cut="0.0000000000000000e+00" cType="1" res="-2.0172386430203915e-03" rms="4.9014884233474731e-01" purity="4.0375006198883057e-01" nType="-99"/>
          </Node>
          <Node pos="r" depth="2" NCoef="0" IVar="-1" Cut="0.0000000000000000e+00" cType="1" res="1.1138783302158117e-03" rms="4.9525904655456543e-01" purity="5.6869119405746460e-01" nType="-99"/>
        </Node>
        <Node pos="r" depth="1" NCoef="0" IVar="8" Cut="1.7544941711425781e+02" cType="1" res="7.8517675399780273e-02" rms="4.8981624841690063e-01" purity="5.8661794662475586e-01" nType="0">
          <Node pos="l" depth="2" NCoef="0" IVar="8" Cut="1.2635887145996094e+02" cType="1" res="9.9541753530502319e-02" rms="4.8682889342308044e-01" purity="6.1082929372787476e-01" nType="0">
            <Node pos="l" depth="3" NCoef="0" IVar="-1" Cut="0.0000000000000000e+00" cType="1" res="4.6662046224810183e-04" rms="4.9870046973228455e-01" purity="5.3083872795104980e-01" nType="-99"/>
            <Node pos="r" depth="3" NCoef="0" IVar="-1" Cut="0.0000000000000000e+00" cType="1" res="2.3689197842031717e-03" rms="4.7240310907363892e-01" purity="6.6270238161087036e-01" nType="-99"/>
          </Node>
          <Node pos="r" depth="2" NCoef="0" IVar="-1" Cut="0.0000000000000000e+00" cType="1" res="-4.8507498577237129e-03" rms="4.4153562188148499e-01" purity="2.6538053154945374e-01" nType="-99"/>
        </Node>
      </Node>
    </BinaryTree>
    <BinaryTree type="DecisionTree" boostWeight="1.0000000000000000e+00" itree="14">
      <Node pos="s" depth="0" NCoef="0" IVar="8" Cut="1.1456259918212891e+02" cType="1" res="3.3406182192265987e-03" rms="4.9596741795539856e-01" purity="5.0000000000000000e-01" nType="0">
        <Node pos="l" depth="1" NCoef="0" IVar="0" Cut="4.4187763214111328e+01" cType="1" res="-7.4896559119224548e-02" rms="4.9048298597335815e-01" purity="4.0915077924728394e-01" nType="0">
          <Node pos="l" depth="2" NCoef="0" IVar="2" Cut="4.3325309753417969e+01" cType="1" res="-8.7778873741626740e-02" rms="4.8807406425476074e-01" purity="3.9396134018898010e-01" nType="0">
            <Node pos="l" depth="3" NCoef="0" IVar="-1" Cut="0.0000000000000000e+00" cType="1" res="-2.5923054199665785e-03" rms="4.8596528172492981e-01" purity="3.8258650898933411e-01" nType="-99"/>
            <Node pos="r" depth="3" NCoef="0" IVar="-1" Cut="0.0000000000000000e+00" cType="1" res="8.8868272723630071e-04" rms="4.9733212590217590e-01" purity="5.5151617527008057e-01" nType="-99"/>
          </Node>
          <Node pos="r" depth="2" NCoef="0" IVar="-1" Cut="0.0000000000000000e+00" cType="1" res="1.1037453077733517e-03" rms="4.9525904655456543e-01" purity="5.6869119405746460e-01" nType="-99"/>
        </Node>
        <Node pos="r" depth="1" NCoef="0" IVar="8" Cut="1.7544941711425781e+02" cType="1" res="7.7933892607688904e-02" rms="4.8963424563407898e-01" purity="5.8661794662475586e-01" nType="0">
          <Node pos="l" depth="2" NCoef="0" IVar="0" Cut="4.4027481079101562e+01" cType="1" res="9.8732091486454010e-02" rms="4.8677045106887817e-01" purity="6.1082929372787476e-01" nType="0">
            <Node pos="l" depth="3" NCoef="0" IVar="-1" Cut="0.0000000000000000e+00" cType="1" res="1.1834697797894478e-03" rms="4.9407881498336792e-01" purity="5.7441920042037964e-01" nType="-99"/>
            <Node pos="r" depth="3" NCoef="0" IVar="-1" Cut="0.0000000000000000e+00" cType="1" res="3.0676140449941158e-03" rms="4.4523102045059204e-01" purity="7.2716891765594482e-01" nType="-99"/>
          </Node>
          <Node pos="r" depth="2" NCoef="0" IVar="-1" Cut="0.0000000000000000e+00" cType="1" res="-4.7956383787095547e-03" rms="4.4153562188148499e-01" purity="2.6538053154945374e-01" nType="-99"/>
        </Node>
      </Node>
    </BinaryTree>
    <BinaryTree type="DecisionTree" boostWeight="1.0000000000000000e+00" itree="15">
      <Node pos="s" depth="0" NCoef="0" IVar="8" Cut="1.1456259918212891e+02" cType="1" res="3.5390201956033707e-03" rms="4.9572247266769409e-01" purity="5.0000000000000000e-01" nType="0">
        <Node pos="l" depth="1" NCoef="0" IVar="0" Cut="4.4187763214111328e+01" cType="1" res="-7.3869921267032623e-02" rms="4.9041271209716797e-01" purity="4.0915077924728394e-01" nType="0">
          <Node pos="l" depth="2" NCoef="0" IVar="2" Cut="4.3325309753417969e+01" cType="1" res="-8.6601965129375458e-02" rms="4.8804208636283875e-01" purity="3.9396134018898010e-01" nType="0">
            <Node pos="l" depth="3" NCoef="0" IVar="-1" Cut="0.0000000000000000e+00" cType="1" res="-2.5584371760487556e-03" rms="4.8596531152725220e-01" purity="3.8258650898933411e-01" nType="-99"/>
            <Node pos="r" depth="3" NCoef="0" IVar="-1" Cut="0.0000000000000000e+00" cType="1" res="8.8020524708554149e-04" rms="4.9733212590217590e-01" purity="5.5151617527008057e-01" nType="-99"/>
          </Node>
          <Node pos="r" depth="2" NCoef="0" IVar="-1" Cut="0.0000000000000000e+00" cType="1" res="1.0937062324956059e-03" rms="4.9525907635688782e-01" purity="5.6869119405746460e-01" nType="-99"/>
        </Node>
        <Node pos="r" depth="1" NCoef="0" IVar="8" Cut="1.7544941711425781e+02" cType="1" res="7.7342636883258820e-02" rms="4.8946198821067810e-01" purity="5.8661794662475586e-01" nType="0">
          <Node pos="l" depth="2" NCoef="0" IVar="8" Cut="1.2635887145996094e+02" cType="1" res="9.7916580736637115e-02" rms="4.8672011494636536e-01" purity="6.1082929372787476e-01" nType="0">
            <Node pos="l" depth="3" NCoef="0" IVar="-1" Cut="0.0000000000000000e+00" cType="1" res="4.4688835623674095e-04" rms="4.9865922331809998e-01" purity="5.3083872795104980e-01" nType="-99"/>
            <Node pos="r" depth="3" NCoef="0" IVar="-1" Cut="0.0000000000000000e+00" cType="1" res="2.3370413109660149e-03" rms="4.7235813736915588e-01" purity="6.6270238161087036e-01" nType="-99"/>
          </Node>
          <Node pos="r" depth="2" NCoef="0" IVar="-1" Cut="0.0000000000000000e+00" cType="1" res="-4.7413352876901627e-03" rms="4.4153562188148499e-01" purity="2.6538053154945374e-01" nType="-99"/>
        </Node>
      </Node>
    </BinaryTree>
    <BinaryTree type="DecisionTree" boostWeight="1.0000000000000000e+00" itree="16">
      <Node pos="s" depth="0" NCoef="0" IVar="8" Cut="1.1456259918212891e+02" cType="1" res="3.7389071658253670e-03" rms="4.9548006057739258e-01" purity="5.0000000000000000e-01" nType="0">
        <Node pos="l" depth="1" NCoef="0" IVar="0" Cut="4.4187763214111328e+01" cType="1" res="-7.2857223451137543e-02" rms="4.9034407734870911e-01" purity="4.0915077924728394e-01" nType="0">
          <Node pos="l" depth="2" NCoef="0" IVar="8" Cut="7.7252464294433594e+01" cType="1" res="-8.5440807044506073e-02" rms="4.8801085352897644e-01" purity="3.9396134018898010e-01" nType="0">
            <Node pos="l" depth="3" NCoef="0" IVar="-1" Cut="0.0000000000000000e+00" cType="1" res="-7.6744211837649345e-03" rms="4.3662980198860168e-01" purity="2.5630500912666321e-01" nType="-99"/>
            <Node pos="r" depth="3" NCoef="0" IVar="-1" Cut="0.0000000000000000e+00" cType="1" res="-1.9335802644491196e-03" rms="4.9008575081825256e-01" purity="4.0375006198883057e-01" nType="-99"/>
          </Node>
          <Node pos="r" depth="2" NCoef="0" IVar="-1" Cut="0.0000000000000000e+00" cType="1" res="1.0837614536285400e-03" rms="4.9525904655456543e-01" purity="5.6869119405746460e-01" nType="-99"/>
        </Node>
        <Node pos="r" depth="1" NCoef="0" IVar="8" Cut="1.7544941711425781e+02" cType="1" res="7.6767571270465851e-02" rms="4.8928618431091309e-01" purity="5.8661794662475586e-01" nType="0">
          <Node pos="l" depth="2" NCoef="0" IVar="0" Cut="4.4027481079101562e+01" cType="1" res="9.7120650112628937e-02" rms="4.8666253685951233e-01" purity="6.1082929372787476e-01" nType="0">
            <Node pos="l" depth="3" NCoef="0" IVar="-1" Cut="0.0000000000000000e+00" cType="1" res="1.1588034685701132e-03" rms="4.9402305483818054e-01" purity="5.7441920042037964e-01" nType="-99"/>
            <Node pos="r" depth="3" NCoef="0" IVar="-1" Cut="0.0000000000000000e+00" cType="1" res="3.0328645370900631e-03" rms="4.4520252943038940e-01" purity="7.2716891765594482e-01" nType="-99"/>
          </Node>
          <Node pos="r" depth="2" NCoef="0" IVar="-1" Cut="0.0000000000000000e+00" cType="1" res="-4.6878205612301826e-03" rms="4.4153559207916260e-01" purity="2.6538053154945374e-01" nType="-99"/>
        </Node>
      </Node>
    </BinaryTree>
    <BinaryTree type="DecisionTree" boostWeight="1.0000000000000000e+00" itree="17">
      <Node pos="s" depth="0" NCoef="0" IVar="8" Cut="1.1456259918212891e+02" cType="1" res="3.9323950186371803e-03" rms="4.9523505568504333e-01" purity="5.0000000000000000e-01" nType="0">
        <Node pos="l" depth="1" NCoef="0" IVar="0" Cut="4.4187763214111328e+01" cType="1" res="-7.1849837899208069e-02" rms="4.9025800824165344e-01" purity="4.0915077924728394e-01" nType="0">
          <Node pos="l" depth="2" NCoef="0" IVar="2" Cut="4.3325309753417969e+01" cType="1" res="-8.4285929799079895e-02" rms="4.8795962333679199e-01" purity="3.9396134018898010e-01" nType="0">
            <Node pos="l" depth="3" NCoef="0" IVar="-1" Cut="0.0000000000000000e+00" cType="1" res="-2.4944883771240711e-03" rms="4.8591440916061401e-01" purity="3.8258650898933411e-01" nType="-99"/>
            <Node pos="r" depth="3" NCoef="0" IVar="-1" Cut="0.0000000000000000e+00" cType="1" res="8.9037022553384304e-04" rms="4.9732542037963867e-01" purity="5.5151617527008057e-01" nType="-99"/>
          </Node>
          <Node pos="r" depth="2" NCoef="0" IVar="-1" Cut="0.0000000000000000e+00" cType="1" res="1.0739087592810392e-03" rms="4.9525904655456543e-01" purity="5.6869119405746460e-01" nType="-99"/>
        </Node>
        <Node pos="r" depth="1" NCoef="0" IVar="8" Cut="1.7544941711425781e+02" cType="1" res="7.6185062527656555e-02" rms="4.8911985754966736e-01" purity="5.8661794662475586e-01" nType="0">
          <Node pos="l" depth="2" NCoef="0" IVar="8" Cut="1.2635887145996094e+02" cType="1" res="9.6318855881690979e-02" rms="4.8661288619041443e-01" purity="6.1082929372787476e-01" nType="0">
            <Node pos="l" depth="3" NCoef="0" IVar="-1" Cut="0.0000000000000000e+00" cType="1" res="4.2762295925058424e-04" rms="4.9861845374107361e-01" purity="5.3083872795104980e-01" nType="-99"/>
            <Node pos="r" depth="3" NCoef="0" IVar="-1" Cut="0.0000000000000000e+00" cType="1" res="2.3057004436850548e-03" rms="4.7231379151344299e-01" purity="6.6270238161087036e-01" nType="-99"/>
          </Node>
          <Node pos="r" depth="2" NCoef="0" IVar="-1" Cut="0.0000000000000000e+00" cType="1" res="-4.6350746415555477e-03" rms="4.4153559207916260e-01" purity="2.6538053154945374e-01" nType="-99"/>
        </Node>
      </Node>
    </BinaryTree>
    <BinaryTree type="DecisionTree" boostWeight="1.0000000000000000e+00" itree="18">
      <Node pos="s" depth="0" NCoef="0" IVar="8" Cut="1.1456259918212891e+02" cType="1" res="4.1234525851905346e-03" rms="4.9500197172164917e-01" purity="5.0000000000000000e-01" nType="0">
        <Node pos="l" depth="1" NCoef="0" IVar="8" Cut="8.6293861389160156e+01" cType="1" res="-7.0864252746105194e-02" rms="4.9019205570220947e-01" purity="4.0915077924728394e-01" nType="0">
          <Node pos="l" depth="2" NCoef="0" IVar="5" Cut="-5.1317205429077148e+00" cType="1" res="-1.5925155580043793e-01" rms="4.6483755111694336e-01" purity="3.1634736061096191e-01" nType="0">
            <Node pos="l" depth="3" NCoef="0" IVar="-1" Cut="0.0000000000000000e+00" cType="1" res="-7.4249356985092163e-03" rms="4.3822193145751953e-01" purity="2.5734919309616089e-01" nType="-99"/>
            <Node pos="r" depth="3" NCoef="0" IVar="-1" Cut="0.0000000000000000e+00" cType="1" res="-3.6718298215419054e-03" rms="4.7424218058586121e-01" purity="3.4422448277473450e-01" nType="-99"/>
          </Node>
          <Node pos="r" depth="2" NCoef="0" IVar="0" Cut="4.4192371368408203e+01" cType="1" res="-5.2647955715656281e-02" rms="4.9329179525375366e-01" purity="4.2827716469764709e-01" nType="0">
            <Node pos="l" depth="3" NCoef="0" IVar="-1" Cut="0.0000000000000000e+00" cType="1" res="-1.6935520106926560e-03" rms="4.9131390452384949e-01" purity="4.1065123677253723e-01" nType="-99"/>
            <Node pos="r" depth="3" NCoef="0" IVar="-1" Cut="0.0000000000000000e+00" cType="1" res="1.5541281318292022e-03" rms="4.9026647210121155e-01" purity="5.9817725419998169e-01" nType="-99"/>
          </Node>
        </Node>
        <Node pos="r" depth="1" NCoef="0" IVar="8" Cut="1.7544941711425781e+02" cType="1" res="7.5618602335453033e-02" rms="4.8895004391670227e-01" purity="5.8661794662475586e-01" nType="0">
          <Node pos="l" depth="2" NCoef="0" IVar="0" Cut="4.4027481079101562e+01" cType="1" res="9.5536433160305023e-02" rms="4.8655617237091064e-01" purity="6.1082929372787476e-01" nType="0">
            <Node pos="l" depth="3" NCoef="0" IVar="-1" Cut="0.0000000000000000e+00" cType="1" res="1.1346176033839583e-03" rms="4.9396809935569763e-01" purity="5.7441920042037964e-01" nType="-99"/>
            <Node pos="r" depth="3" NCoef="0" IVar="-1" Cut="0.0000000000000000e+00" cType="1" res="2.9986959416419268e-03" rms="4.4517463445663452e-01" purity="7.2716891765594482e-01" nType="-99"/>
          </Node>
          <Node pos="r" depth="2" NCoef="0" IVar="-1" Cut="0.0000000000000000e+00" cType="1" res="-4.5830779708921909e-03" rms="4.4153562188148499e-01" purity="2.6538053154945374e-01" nType="-99"/>
        </Node>
      </Node>
    </BinaryTree>
    <BinaryTree type="DecisionTree" boostWeight="1.0000000000000000e+00" itree="19">
      <Node pos="s" depth="0" NCoef="0" IVar="8" Cut="1.1456259918212891e+02" cType="1" res="4.3126260861754417e-03" rms="4.9475666880607605e-01" purity="5.0000000000000000e-01" nType="0">
        <Node pos="l" depth="1" NCoef="0" IVar="8" Cut="8.6293861389160156e+01" cType="1" res="-6.9874770939350128e-02" rms="4.9009051918983459e-01" purity="4.0915077924728394e-01" nType="0">
          <Node pos="l" depth="2" NCoef="0" IVar="8" Cut="7.5861946105957031e+01" cType="1" res="-1.5682072937488556e-01" rms="4.6476060152053833e-01" purity="3.1634736061096191e-01" nType="0">
            <Node pos="l" depth="3" NCoef="0" IVar="-1" Cut="0.0000000000000000e+00" cType="1" res="-7.5954594649374485e-03" rms="4.3332010507583618e-01" purity="2.4966070055961609e-01" nType="-99"/>
            <Node pos="r" depth="3" NCoef="0" IVar="-1" Cut="0.0000000000000000e+00" cType="1" res="-3.6044183652848005e-03" rms="4.7557932138442993e-01" purity="3.4619563817977905e-01" nType="-99"/>
          </Node>
          <Node pos="r" depth="2" NCoef="0" IVar="0" Cut="4.4192371368408203e+01" cType="1" res="-5.1955528557300568e-02" rms="4.9324873089790344e-01" purity="4.2827716469764709e-01" nType="0">
            <Node pos="l" depth="3" NCoef="0" IVar="-1" Cut="0.0000000000000000e+00" cType="1" res="-1.6725104069337249e-03" rms="4.9131396412849426e-01" purity="4.1065123677253723e-01" nType="-99"/>
            <Node pos="r" depth="3" NCoef="0" IVar="-1" Cut="0.0000000000000000e+00" cType="1" res="1.5404714504256845e-03" rms="4.9026650190353394e-01" purity="5.9817725419998169e-01" nType="-99"/>
          </Node>
        </Node>
        <Node pos="r" depth="1" NCoef="0" IVar="8" Cut="1.7544941711425781e+02" cType="1" res="7.5044736266136169e-02" rms="4.8878943920135498e-01" purity="5.8661794662475586e-01" nType="0">
          <Node pos="l" depth="2" NCoef="0" IVar="0" Cut="4.4027481079101562e+01" cType="1" res="9.4748139381408691e-02" rms="4.8650720715522766e-01" purity="6.1082929372787476e-01" nType="0">
            <Node pos="l" depth="3" NCoef="0" IVar="-1" Cut="0.0000000000000000e+00" cType="1" res="1.1242638574913144e-03" rms="4.9396812915802002e-01" purity="5.7441920042037964e-01" nType="-99"/>
            <Node pos="r" depth="3" NCoef="0" IVar="-1" Cut="0.0000000000000000e+00" cType="1" res="2.9775409493595362e-03" rms="4.4517469406127930e-01" purity="7.2716891765594482e-01" nType="-99"/>
          </Node>
          <Node pos="r" depth="2" NCoef="0" IVar="-1" Cut="0.0000000000000000e+00" cType="1" res="-4.5318137854337692e-03" rms="4.4153562188148499e-01" purity="2.6538053154945374e-01" nType="-99"/>
        </Node>
      </Node>
    </BinaryTree>
    <BinaryTree type="DecisionTree" boostWeight="1.0000000000000000e+00" itree="20">
      <Node pos="s" depth="0" NCoef="0" IVar="8" Cut="1.1456259918212891e+02" cType="1" res="4.4985734857618809e-03" rms="4.9451577663421631e-01" purity="5.0000000000000000e-01" nType="0">
        <Node pos="l" depth="1" NCoef="0" IVar="0" Cut="4.4187763214111328e+01" cType="1" res="-6.8896301090717316e-02" rms="4.8999029397964478e-01" purity="4.0915077924728394e-01" nType="0">
          <Node pos="l" depth="2" NCoef="0" IVar="2" Cut="4.3325309753417969e+01" cType="1" res="-8.0914229154586792e-02" rms="4.8782375454902649e-01" purity="3.9396134018898010e-01" nType="0">
            <Node pos="l" depth="3" NCoef="0" IVar="-1" Cut="0.0000000000000000e+00" cType="1" res="-2.4025780148804188e-03" rms="4.8581227660179138e-01" purity="3.8258650898933411e-01" nType="-99"/>
            <Node pos="r" depth="3" NCoef="0" IVar="-1" Cut="0.0000000000000000e+00" cType="1" res="9.1608735965564847e-04" rms="4.9729499220848083e-01" purity="5.5151617527008057e-01" nType="-99"/>
          </Node>
          <Node pos="r" depth="2" NCoef="0" IVar="-1" Cut="0.0000000000000000e+00" cType="1" res="1.0477809701114893e-03" rms="4.9486473202705383e-01" purity="5.6869119405746460e-01" nType="-99"/>
        </Node>
        <Node pos="r" depth="1" NCoef="0" IVar="8" Cut="1.7544941711425781e+02" cType="1" res="7.4475072324275970e-02" rms="4.8863184452056885e-01" purity="5.8661794662475586e-01" nType="0">
          <Node pos="l" depth="2" NCoef="0" IVar="8" Cut="1.2635887145996094e+02" cType="1" res="9.3966431915760040e-02" rms="4.8645883798599243e-01" purity="6.1082929372787476e-01" nType="0">
            <Node pos="l" depth="3" NCoef="0" IVar="-1" Cut="0.0000000000000000e+00" cType="1" res="3.9444601861760020e-04" rms="4.9853834509849548e-01" purity="5.3083872795104980e-01" nType="-99"/>
            <Node pos="r" depth="3" NCoef="0" IVar="-1" Cut="0.0000000000000000e+00" cType="1" res="2.2620938252657652e-03" rms="4.7222700715065002e-01" purity="6.6270238161087036e-01" nType="-99"/>
          </Node>
          <Node pos="r" depth="2" NCoef="0" IVar="-1" Cut="0.0000000000000000e+00" cType="1" res="-4.4812634587287903e-03" rms="4.4153562188148499e-01" purity="2.6538053154945374e-01" nType="-99"/>
        </Node>
      </Node>
    </BinaryTree>
    <BinaryTree type="DecisionTree" boostWeight="1.0000000000000000e+00" itree="21">
      <Node pos="s" depth="0" NCoef="0" IVar="8" Cut="1.1456259918212891e+02" cType="1" res="4.6769822947680950e-03" rms="4.9429574608802795e-01" purity="5.0000000000000000e-01" nType="0">
        <Node pos="l" depth="1" NCoef="0" IVar="8" Cut="8.6293861389160156e+01" cType="1" res="-6.7950166761875153e-02" rms="4.8992791771888733e-01" purity="4.0915077924728394e-01" nType="0">
          <Node pos="l" depth="2" NCoef="0" IVar="5" Cut="-5.1317205429077148e+00" cType="1" res="-1.5332308411598206e-01" rms="4.6468612551689148e-01" purity="3.1634736061096191e-01" nType="0">
            <Node pos="l" depth="3" NCoef="0" IVar="-1" Cut="0.0000000000000000e+00" cType="1" res="-7.1957972832024097e-03" rms="4.3823635578155518e-01" purity="2.5734919309616089e-01" nType="-99"/>
            <Node pos="r" depth="3" NCoef="0" IVar="-1" Cut="0.0000000000000000e+00" cType="1" res="-3.5253067035228014e-03" rms="4.7412157058715820e-01" purity="3.4422448277473450e-01" nType="-99"/>
          </Node>
          <Node pos="r" depth="2" NCoef="0" IVar="0" Cut="4.4192371368408203e+01" cType="1" res="-5.0355121493339539e-02" rms="4.9313667416572571e-01" purity="4.2827716469764709e-01" nType="0">
            <Node pos="l" depth="3" NCoef="0" IVar="-1" Cut="0.0000000000000000e+00" cType="1" res="-1.6252341447398067e-03" rms="4.9128255248069763e-01" purity="4.1065123677253723e-01" nType="-99"/>
            <Node pos="r" depth="3" NCoef="0" IVar="-1" Cut="0.0000000000000000e+00" cType="1" res="1.5177418245002627e-03" rms="4.9026647210121155e-01" purity="5.9817725419998169e-01" nType="-99"/>
          </Node>
        </Node>
        <Node pos="r" depth="1" NCoef="0" IVar="8" Cut="1.7544941711425781e+02" cType="1" res="7.3921516537666321e-02" rms="4.8847019672393799e-01" purity="5.8661794662475586e-01" nType="0">
          <Node pos="l" depth="2" NCoef="0" IVar="0" Cut="4.4027481079101562e+01" cType="1" res="9.3204073607921600e-02" rms="4.8640298843383789e-01" purity="6.1082929372787476e-01" nType="0">
            <Node pos="l" depth="3" NCoef="0" IVar="-1" Cut="0.0000000000000000e+00" cType="1" res="1.1007705470547080e-03" rms="4.9391391873359680e-01" purity="5.7441920042037964e-01" nType="-99"/>
            <Node pos="r" depth="3" NCoef="0" IVar="-1" Cut="0.0000000000000000e+00" cType="1" res="2.9442536178976297e-03" rms="4.4514736533164978e-01" purity="7.2716891765594482e-01" nType="-99"/>
          </Node>
          <Node pos="r" depth="2" NCoef="0" IVar="-1" Cut="0.0000000000000000e+00" cType="1" res="-4.4314111582934856e-03" rms="4.4153559207916260e-01" purity="2.6538053154945374e-01" nType="-99"/>
        </Node>
      </Node>
    </BinaryTree>
    <BinaryTree type="DecisionTree" boostWeight="1.0000000000000000e+00" itree="22">
      <Node pos="s" depth="0" NCoef="0" IVar="8" Cut="1.1456259918212891e+02" cType="1" res="4.8531824722886086e-03" rms="4.9406486749649048e-01" purity="5.0000000000000000e-01" nType="0">
        <Node pos="l" depth="1" NCoef="0" IVar="8" Cut="8.6293861389160156e+01" cType="1" res="-6.7000530660152435e-02" rms="4.8983269929885864e-01" purity="4.0915077924728394e-01" nType="0">
          <Node pos="l" depth="2" NCoef="0" IVar="8" Cut="7.5689529418945312e+01" cType="1" res="-1.5098197758197784e-01" rms="4.6461248397827148e-01" purity="3.1634736061096191e-01" nType="0">
            <Node pos="l" depth="3" NCoef="0" IVar="-1" Cut="0.0000000000000000e+00" cType="1" res="-7.3315412737429142e-03" rms="4.3262100219726562e-01" purity="2.4853526055812836e-01" nType="-99"/>
            <Node pos="r" depth="3" NCoef="0" IVar="-1" Cut="0.0000000000000000e+00" cType="1" res="-3.4934901632368565e-03" rms="4.7534409165382385e-01" purity="3.4568119049072266e-01" nType="-99"/>
          </Node>
          <Node pos="r" depth="2" NCoef="0" IVar="0" Cut="4.4192371368408203e+01" cType="1" res="-4.9692265689373016e-02" rms="4.9309626221656799e-01" purity="4.2827716469764709e-01" nType="0">
            <Node pos="l" depth="3" NCoef="0" IVar="-1" Cut="0.0000000000000000e+00" cType="1" res="-1.6050605336204171e-03" rms="4.9128258228302002e-01" purity="4.1065123677253723e-01" nType="-99"/>
            <Node pos="r" depth="3" NCoef="0" IVar="-1" Cut="0.0000000000000000e+00" cType="1" res="1.5044211177155375e-03" rms="4.9026650190353394e-01" purity="5.9817725419998169e-01" nType="-99"/>
          </Node>
        </Node>
        <Node pos="r" depth="1" NCoef="0" IVar="8" Cut="1.7544941711425781e+02" cType="1" res="7.3360301554203033e-02" rms="4.8831799626350403e-01" purity="5.8661794662475586e-01" nType="0">
          <Node pos="l" depth="2" NCoef="0" IVar="8" Cut="1.2635887145996094e+02" cType="1" res="9.2435501515865326e-02" rms="4.8635530471801758e-01" purity="6.1082929372787476e-01" nType="0">
            <Node pos="l" depth="3" NCoef="0" IVar="-1" Cut="0.0000000000000000e+00" cType="1" res="3.7635184708051383e-04" rms="4.9849897623062134e-01" purity="5.3083872795104980e-01" nType="-99"/>
            <Node pos="r" depth="3" NCoef="0" IVar="-1" Cut="0.0000000000000000e+00" cType="1" res="2.2320188581943512e-03" rms="4.7218465805053711e-01" purity="6.6270238161087036e-01" nType="-99"/>
          </Node>
          <Node pos="r" depth="2" NCoef="0" IVar="-1" Cut="0.0000000000000000e+00" cType="1" res="-4.3822396546602249e-03" rms="4.4153562188148499e-01" purity="2.6538053154945374e-01" nType="-99"/>
        </Node>
      </Node>
    </BinaryTree>
    <BinaryTree type="DecisionTree" boostWeight="1.0000000000000000e+00" itree="23">
      <Node pos="s" depth="0" NCoef="0" IVar="8" Cut="1.1456259918212891e+02" cType="1" res="5.0317547284066677e-03" rms="4.9383589625358582e-01" purity="5.0000000000000000e-01" nType="0">
        <Node pos="l" depth="1" NCoef="0" IVar="0" Cut="4.4187763214111328e+01" cType="1" res="-6.6062748432159424e-02" rms="4.8973929882049561e-01" purity="4.0915077924728394e-01" nType="0">
          <Node pos="l" depth="2" NCoef="0" IVar="2" Cut="4.3325309753417969e+01" cType="1" res="-7.7676534652709961e-02" rms="4.8769626021385193e-01" purity="3.9396134018898010e-01" nType="0">
            <Node pos="l" depth="3" NCoef="0" IVar="-1" Cut="0.0000000000000000e+00" cType="1" res="-2.3143733851611614e-03" rms="4.8571735620498657e-01" purity="3.8258650898933411e-01" nType="-99"/>
            <Node pos="r" depth="3" NCoef="0" IVar="-1" Cut="0.0000000000000000e+00" cType="1" res="9.4021746190264821e-04" rms="4.9726623296737671e-01" purity="5.5151617527008057e-01" nType="-99"/>
          </Node>
          <Node pos="r" depth="2" NCoef="0" IVar="-1" Cut="0.0000000000000000e+00" cType="1" res="1.0221791453659534e-03" rms="4.9449205398559570e-01" purity="5.6869119405746460e-01" nType="-99"/>
        </Node>
        <Node pos="r" depth="1" NCoef="0" IVar="8" Cut="1.7544941711425781e+02" cType="1" res="7.2815023362636566e-02" rms="4.8816180229187012e-01" purity="5.8661794662475586e-01" nType="0">
          <Node pos="l" depth="2" NCoef="0" IVar="0" Cut="4.4027481079101562e+01" cType="1" res="9.1686055064201355e-02" rms="4.8630031943321228e-01" purity="6.1082929372787476e-01" nType="0">
            <Node pos="l" depth="3" NCoef="0" IVar="-1" Cut="0.0000000000000000e+00" cType="1" res="1.0777319548651576e-03" rms="4.9386051297187805e-01" purity="5.7441920042037964e-01" nType="-99"/>
            <Node pos="r" depth="3" NCoef="0" IVar="-1" Cut="0.0000000000000000e+00" cType="1" res="2.9115071520209312e-03" rms="4.4512066245079041e-01" purity="7.2716891765594482e-01" nType="-99"/>
          </Node>
          <Node pos="r" depth="2" NCoef="0" IVar="-1" Cut="0.0000000000000000e+00" cType="1" res="-4.3337345123291016e-03" rms="4.4153562188148499e-01" purity="2.6538053154945374e-01" nType="-99"/>
        </Node>
      </Node>
    </BinaryTree>
    <BinaryTree type="DecisionTree" boostWeight="1.0000000000000000e+00" itree="24">
      <Node pos="s" depth="0" NCoef="0" IVar="8" Cut="1.1456259918212891e+02" cType="1" res="5.1920358091592789e-03" rms="4.9363073706626892e-01" purity="5.0000000000000000e-01" nType="0">
        <Node pos="l" depth="1" NCoef="0" IVar="8" Cut="8.6293861389160156e+01" cType="1" res="-6.5154477953910828e-02" rms="4.8968026041984558e-01" purity="4.0915077924728394e-01" nType="0">
          <Node pos="l" depth="2" NCoef="0" IVar="5" Cut="-5.1317205429077148e+00" cType="1" res="-1.4762324094772339e-01" rms="4.6454378962516785e-01" purity="3.1634736061096191e-01" nType="0">
            <Node pos="l" depth="3" NCoef="0" IVar="-1" Cut="0.0000000000000000e+00" cType="1" res="-6.9769266992807388e-03" rms="4.3825924396514893e-01" purity="2.5734919309616089e-01" nType="-99"/>
            <Node pos="r" depth="3" NCoef="0" IVar="-1" Cut="0.0000000000000000e+00" cType="1" res="-3.3850844483822584e-03" rms="4.7400596737861633e-01" purity="3.4422448277473450e-01" nType="-99"/>
          </Node>
          <Node pos="r" depth="2" NCoef="0" IVar="0" Cut="4.4192371368408203e+01" cType="1" res="-4.8157967627048492e-02" rms="4.9299043416976929e-01" purity="4.2827716469764709e-01" nType="0">
            <Node pos="l" depth="3" NCoef="0" IVar="-1" Cut="0.0000000000000000e+00" cType="1" res="-1.5596933662891388e-03" rms="4.9125218391418457e-01" purity="4.1065123677253723e-01" nType="-99"/>
            <Node pos="r" depth="3" NCoef="0" IVar="-1" Cut="0.0000000000000000e+00" cType="1" res="1.4822592493146658e-03" rms="4.9026647210121155e-01" purity="5.9817725419998169e-01" nType="-99"/>
          </Node>
        </Node>
        <Node pos="r" depth="1" NCoef="0" IVar="8" Cut="1.7544941711425781e+02" cType="1" res="7.2262153029441833e-02" rms="4.8801472783088684e-01" purity="5.8661794662475586e-01" nType="0">
          <Node pos="l" depth="2" NCoef="0" IVar="8" Cut="1.2635887145996094e+02" cType="1" res="9.0930402278900146e-02" rms="4.8625326156616211e-01" purity="6.1082929372787476e-01" nType="0">
            <Node pos="l" depth="3" NCoef="0" IVar="-1" Cut="0.0000000000000000e+00" cType="1" res="3.5868980921804905e-04" rms="4.9846005439758301e-01" purity="5.3083872795104980e-01" nType="-99"/>
            <Node pos="r" depth="3" NCoef="0" IVar="-1" Cut="0.0000000000000000e+00" cType="1" res="2.2024374920874834e-03" rms="4.7214290499687195e-01" purity="6.6270238161087036e-01" nType="-99"/>
          </Node>
          <Node pos="r" depth="2" NCoef="0" IVar="-1" Cut="0.0000000000000000e+00" cType="1" res="-4.2858798988163471e-03" rms="4.4153559207916260e-01" purity="2.6538053154945374e-01" nType="-99"/>
        </Node>
      </Node>
    </BinaryTree>
    <BinaryTree type="DecisionTree" boostWeight="1.0000000000000000e+00" itree="25">
      <Node pos="s" depth="0" NCoef="0" IVar="8" Cut="1.1456259918212891e+02" cType="1" res="5.3619039244949818e-03" rms="4.9341082572937012e-01" purity="5.0000000000000000e-01" nType="0">
        <Node pos="l" depth="1" NCoef="0" IVar="8" Cut="8.6293861389160156e+01" cType="1" res="-6.4243085682392120e-02" rms="4.8959091305732727e-01" purity="4.0915077924728394e-01" nType="0">
          <Node pos="l" depth="2" NCoef="0" IVar="8" Cut="7.5861946105957031e+01" cType="1" res="-1.4536841213703156e-01" rms="4.6447330713272095e-01" purity="3.1634736061096191e-01" nType="0">
            <Node pos="l" depth="3" NCoef="0" IVar="-1" Cut="0.0000000000000000e+00" cType="1" res="-7.1343001909554005e-03" rms="4.3329092860221863e-01" purity="2.4966070055961609e-01" nType="-99"/>
            <Node pos="r" depth="3" NCoef="0" IVar="-1" Cut="0.0000000000000000e+00" cType="1" res="-3.3272902946919203e-03" rms="4.7541025280952454e-01" purity="3.4619563817977905e-01" nType="-99"/>
          </Node>
          <Node pos="r" depth="2" NCoef="0" IVar="0" Cut="4.4192371368408203e+01" cType="1" res="-4.7523461282253265e-02" rms="4.9295252561569214e-01" purity="4.2827716469764709e-01" nType="0">
            <Node pos="l" depth="3" NCoef="0" IVar="-1" Cut="0.0000000000000000e+00" cType="1" res="-1.5403489815071225e-03" rms="4.9125218391418457e-01" purity="4.1065123677253723e-01" nType="-99"/>
            <Node pos="r" depth="3" NCoef="0" IVar="-1" Cut="0.0000000000000000e+00" cType="1" res="1.4692650875076652e-03" rms="4.9026647210121155e-01" purity="5.9817725419998169e-01" nType="-99"/>
          </Node>
        </Node>
        <Node pos="r" depth="1" NCoef="0" IVar="8" Cut="1.7544941711425781e+02" cType="1" res="7.1725040674209595e-02" rms="4.8786377906799316e-01" purity="5.8661794662475586e-01" nType="0">
          <Node pos="l" depth="2" NCoef="0" IVar="0" Cut="4.4027481079101562e+01" cType="1" res="9.0193636715412140e-02" rms="4.8619911074638367e-01" purity="6.1082929372787476e-01" nType="0">
            <Node pos="l" depth="3" NCoef="0" IVar="-1" Cut="0.0000000000000000e+00" cType="1" res="1.0551385348662734e-03" rms="4.9380788207054138e-01" purity="5.7441920042037964e-01" nType="-99"/>
            <Node pos="r" depth="3" NCoef="0" IVar="-1" Cut="0.0000000000000000e+00" cType="1" res="2.8792875818908215e-03" rms="4.4509449601173401e-01" purity="7.2716891765594482e-01" nType="-99"/>
          </Node>
          <Node pos="r" depth="2" NCoef="0" IVar="-1" Cut="0.0000000000000000e+00" cType="1" res="-4.2386618442833424e-03" rms="4.4153562188148499e-01" purity="2.6538053154945374e-01" nType="-99"/>
        </Node>
      </Node>
    </BinaryTree>
    <BinaryTree type="DecisionTree" boostWeight="1.0000000000000000e+00" itree="26">
      <Node pos="s" depth="0" NCoef="0" IVar="8" Cut="1.1456259918212891e+02" cType="1" res="5.5229780264198780e-03" rms="4.9319723248481750e-01" purity="5.0000000000000000e-01" nType="0">
        <Node pos="l" depth="1" NCoef="0" IVar="0" Cut="4.4187763214111328e+01" cType="1" res="-6.3341811299324036e-02" rms="4.8950293660163879e-01" purity="4.0915077924728394e-01" nType="0">
          <Node pos="l" depth="2" NCoef="0" IVar="2" Cut="4.3325309753417969e+01" cType="1" res="-7.4565000832080841e-02" rms="4.8757603764533997e-01" purity="3.9396134018898010e-01" nType="0">
            <Node pos="l" depth="3" NCoef="0" IVar="-1" Cut="0.0000000000000000e+00" cType="1" res="-2.2296230308711529e-03" rms="4.8562863469123840e-01" purity="3.8258650898933411e-01" nType="-99"/>
            <Node pos="r" depth="3" NCoef="0" IVar="-1" Cut="0.0000000000000000e+00" cType="1" res="9.6281297737732530e-04" rms="4.9723935127258301e-01" purity="5.5151617527008057e-01" nType="-99"/>
          </Node>
          <Node pos="r" depth="2" NCoef="0" IVar="-1" Cut="0.0000000000000000e+00" cType="1" res="9.9714158568531275e-04" rms="4.9413481354713440e-01" purity="5.6869119405746460e-01" nType="-99"/>
        </Node>
        <Node pos="r" depth="1" NCoef="0" IVar="8" Cut="1.7544941711425781e+02" cType="1" res="7.1180380880832672e-02" rms="4.8772165179252625e-01" purity="5.8661794662475586e-01" nType="0">
          <Node pos="l" depth="2" NCoef="0" IVar="8" Cut="1.2635887145996094e+02" cType="1" res="8.9450687170028687e-02" rms="4.8615267872810364e-01" purity="6.1082929372787476e-01" nType="0">
            <Node pos="l" depth="3" NCoef="0" IVar="-1" Cut="0.0000000000000000e+00" cType="1" res="3.4145073732361197e-04" rms="4.9842157959938049e-01" purity="5.3083872795104980e-01" nType="-99"/>
            <Node pos="r" depth="3" NCoef="0" IVar="-1" Cut="0.0000000000000000e+00" cType="1" res="2.1733376197516918e-03" rms="4.7210177779197693e-01" purity="6.6270238161087036e-01" nType="-99"/>
          </Node>
          <Node pos="r" depth="2" NCoef="0" IVar="-1" Cut="0.0000000000000000e+00" cType="1" res="-4.1920663788914680e-03" rms="4.4153559207916260e-01" purity="2.6538053154945374e-01" nType="-99"/>
        </Node>
      </Node>
    </BinaryTree>
    <BinaryTree type="DecisionTree" boostWeight="1.0000000000000000e+00" itree="27">
      <Node pos="s" depth="0" NCoef="0" IVar="8" Cut="1.1456259918212891e+02" cType="1" res="5.6776888668537140e-03" rms="4.9300125241279602e-01" purity="5.0000000000000000e-01" nType="0">
        <Node pos="l" depth="1" NCoef="0" IVar="8" Cut="8.6293861389160156e+01" cType="1" res="-6.2469918280839920e-02" rms="4.8944702744483948e-01" purity="4.0915077924728394e-01" nType="0">
          <Node pos="l" depth="2" NCoef="0" IVar="5" Cut="-5.1317205429077148e+00" cType="1" res="-1.4212849736213684e-01" rms="4.6440675854682922e-01" purity="3.1634736061096191e-01" nType="0">
            <Node pos="l" depth="3" NCoef="0" IVar="-1" Cut="0.0000000000000000e+00" cType="1" res="-6.7672384902834892e-03" rms="4.3827563524246216e-01" purity="2.5734919309616089e-01" nType="-99"/>
            <Node pos="r" depth="3" NCoef="0" IVar="-1" Cut="0.0000000000000000e+00" cType="1" res="-3.2503306865692139e-03" rms="4.7389632463455200e-01" purity="3.4422448277473450e-01" nType="-99"/>
          </Node>
          <Node pos="r" depth="2" NCoef="0" IVar="0" Cut="4.4192371368408203e+01" cType="1" res="-4.6052582561969757e-02" rms="4.9285253882408142e-01" purity="4.2827716469764709e-01" nType="0">
            <Node pos="l" depth="3" NCoef="0" IVar="-1" Cut="0.0000000000000000e+00" cType="1" res="-1.4968067407608032e-03" rms="4.9122276902198792e-01" purity="4.1065123677253723e-01" nType="-99"/>
            <Node pos="r" depth="3" NCoef="0" IVar="-1" Cut="0.0000000000000000e+00" cType="1" res="1.4476550277322531e-03" rms="4.9026650190353394e-01" purity="5.9817725419998169e-01" nType="-99"/>
          </Node>
        </Node>
        <Node pos="r" depth="1" NCoef="0" IVar="8" Cut="1.7544941711425781e+02" cType="1" res="7.0651315152645111e-02" rms="4.8757573962211609e-01" purity="5.8661794662475586e-01" nType="0">
          <Node pos="l" depth="2" NCoef="0" IVar="0" Cut="4.4027481079101562e+01" cType="1" res="8.8726393878459930e-02" rms="4.8609939217567444e-01" purity="6.1082929372787476e-01" nType="0">
            <Node pos="l" depth="3" NCoef="0" IVar="-1" Cut="0.0000000000000000e+00" cType="1" res="1.0329809738323092e-03" rms="4.9375605583190918e-01" purity="5.7441920042037964e-01" nType="-99"/>
            <Node pos="r" depth="3" NCoef="0" IVar="-1" Cut="0.0000000000000000e+00" cType="1" res="2.8475804720073938e-03" rms="4.4506889581680298e-01" purity="7.2716891765594482e-01" nType="-99"/>
          </Node>
          <Node pos="r" depth="2" NCoef="0" IVar="-1" Cut="0.0000000000000000e+00" cType="1" res="-4.1460790671408176e-03" rms="4.4153559207916260e-01" purity="2.6538053154945374e-01" nType="-99"/>
        </Node>
      </Node>
    </BinaryTree>
    <BinaryTree type="DecisionTree" boostWeight="1.0000000000000000e+00" itree="28">
      <Node pos="s" depth="0" NCoef="0" IVar="8" Cut="1.1456259918212891e+02" cType="1" res="5.8299186639487743e-03" rms="4.9279642105102539e-01" purity="5.0000000000000000e-01" nType="0">
        <Node pos="l" depth="1" NCoef="0" IVar="8" Cut="8.6293861389160156e+01" cType="1" res="-6.1595264822244644e-02" rms="4.8936328291893005e-01" purity="4.0915077924728394e-01" nType="0">
          <Node pos="l" depth="2" NCoef="0" IVar="8" Cut="7.7241249084472656e+01" cType="1" res="-1.3995681703090668e-01" rms="4.6433931589126587e-01" purity="3.1634736061096191e-01" nType="0">
            <Node pos="l" depth="3" NCoef="0" IVar="-1" Cut="0.0000000000000000e+00" cType="1" res="-6.7500784061849117e-03" rms="4.3723255395889282e-01" purity="2.5782561302185059e-01" nType="-99"/>
            <Node pos="r" depth="3" NCoef="0" IVar="-1" Cut="0.0000000000000000e+00" cType="1" res="-3.0298808123916388e-03" rms="4.7682097554206848e-01" purity="3.5010051727294922e-01" nType="-99"/>
          </Node>
          <Node pos="r" depth="2" NCoef="0" IVar="0" Cut="4.4192371368408203e+01" cType="1" res="-4.5445237308740616e-02" rms="4.9281701445579529e-01" purity="4.2827716469764709e-01" nType="0">
            <Node pos="l" depth="3" NCoef="0" IVar="-1" Cut="0.0000000000000000e+00" cType="1" res="-1.4782543294131756e-03" rms="4.9122285842895508e-01" purity="4.1065123677253723e-01" nType="-99"/>
            <Node pos="r" depth="3" NCoef="0" IVar="-1" Cut="0.0000000000000000e+00" cType="1" res="1.4349776320159435e-03" rms="4.9026650190353394e-01" purity="5.9817725419998169e-01" nType="-99"/>
          </Node>
        </Node>
        <Node pos="r" depth="1" NCoef="0" IVar="8" Cut="1.7544941711425781e+02" cType="1" res="7.0114769041538239e-02" rms="4.8743838071823120e-01" purity="5.8661794662475586e-01" nType="0">
          <Node pos="l" depth="2" NCoef="0" IVar="8" Cut="1.2635887145996094e+02" cType="1" res="8.7995916604995728e-02" rms="4.8605361580848694e-01" purity="6.1082929372787476e-01" nType="0">
            <Node pos="l" depth="3" NCoef="0" IVar="-1" Cut="0.0000000000000000e+00" cType="1" res="3.2462552189826965e-04" rms="4.9838355183601379e-01" purity="5.3083872795104980e-01" nType="-99"/>
            <Node pos="r" depth="3" NCoef="0" IVar="-1" Cut="0.0000000000000000e+00" cType="1" res="2.1447078324854374e-03" rms="4.7206130623817444e-01" purity="6.6270238161087036e-01" nType="-99"/>
          </Node>
          <Node pos="r" depth="2" NCoef="0" IVar="-1" Cut="0.0000000000000000e+00" cType="1" res="-4.1006878018379211e-03" rms="4.4153559207916260e-01" purity="2.6538053154945374e-01" nType="-99"/>
        </Node>
      </Node>
    </BinaryTree>
    <BinaryTree type="DecisionTree" boostWeight="1.0000000000000000e+00" itree="29">
      <Node pos="s" depth="0" NCoef="0" IVar="8" Cut="1.1456259918212891e+02" cType="1" res="5.9870802797377110e-03" rms="4.9259212613105774e-01" purity="5.0000000000000000e-01" nType="0">
        <Node pos="l" depth="1" NCoef="0" IVar="0" Cut="4.4187763214111328e+01" cType="1" res="-6.0726676136255264e-02" rms="4.8927974700927734e-01" purity="4.0915077924728394e-01" nType="0">
          <Node pos="l" depth="2" NCoef="0" IVar="2" Cut="4.3325309753417969e+01" cType="1" res="-7.1572944521903992e-02" rms="4.8746079206466675e-01" purity="3.9396134018898010e-01" nType="0">
            <Node pos="l" depth="3" NCoef="0" IVar="-1" Cut="0.0000000000000000e+00" cType="1" res="-2.1481127478182316e-03" rms="4.8554381728172302e-01" purity="3.8258650898933411e-01" nType="-99"/>
            <Node pos="r" depth="3" NCoef="0" IVar="-1" Cut="0.0000000000000000e+00" cType="1" res="9.8393415100872517e-04" rms="4.9721279740333557e-01" purity="5.5151617527008057e-01" nType="-99"/>
          </Node>
          <Node pos="r" depth="2" NCoef="0" IVar="-1" Cut="0.0000000000000000e+00" cType="1" res="9.7281386842951179e-04" rms="4.9380314350128174e-01" purity="5.6869119405746460e-01" nType="-99"/>
        </Node>
        <Node pos="r" depth="1" NCoef="0" IVar="8" Cut="1.7544941711425781e+02" cType="1" res="6.9593638181686401e-02" rms="4.8729726672172546e-01" purity="5.8661794662475586e-01" nType="0">
          <Node pos="l" depth="2" NCoef="0" IVar="0" Cut="4.4027481079101562e+01" cType="1" res="8.7283879518508911e-02" rms="4.8600113391876221e-01" purity="6.1082929372787476e-01" nType="0">
            <Node pos="l" depth="3" NCoef="0" IVar="-1" Cut="0.0000000000000000e+00" cType="1" res="1.0112500749528408e-03" rms="4.9370494484901428e-01" purity="5.7441920042037964e-01" nType="-99"/>
            <Node pos="r" depth="3" NCoef="0" IVar="-1" Cut="0.0000000000000000e+00" cType="1" res="2.8163730166852474e-03" rms="4.4504386186599731e-01" purity="7.2716891765594482e-01" nType="-99"/>
          </Node>
          <Node pos="r" depth="2" NCoef="0" IVar="-1" Cut="0.0000000000000000e+00" cType="1" res="-4.0558795444667339e-03" rms="4.4153562188148499e-01" purity="2.6538053154945374e-01" nType="-99"/>
        </Node>
      </Node>
    </BinaryTree>
    <BinaryTree type="DecisionTree" boostWeight="1.0000000000000000e+00" itree="30">
      <Node pos="s" depth="0" NCoef="0" IVar="8" Cut="1.1456259918212891e+02" cType="1" res="6.1249630525708199e-03" rms="4.9240940809249878e-01" purity="5.0000000000000000e-01" nType="0">
        <Node pos="l" depth="1" NCoef="0" IVar="8" Cut="8.6293861389160156e+01" cType="1" res="-5.9889789670705795e-02" rms="4.8922675848007202e-01" purity="4.0915077924728394e-01" nType="0">
          <Node pos="l" depth="2" NCoef="0" IVar="5" Cut="-5.1317205429077148e+00" cType="1" res="-1.3681748509407043e-01" rms="4.6427345275878906e-01" purity="3.1634736061096191e-01" nType="0">
            <Node pos="l" depth="3" NCoef="0" IVar="-1" Cut="0.0000000000000000e+00" cType="1" res="-6.5655149519443512e-03" rms="4.3830630183219910e-01" purity="2.5734919309616089e-01" nType="-99"/>
            <Node pos="r" depth="3" NCoef="0" IVar="-1" Cut="0.0000000000000000e+00" cType="1" res="-3.1203962862491608e-03" rms="4.7378185391426086e-01" purity="3.4422448277473450e-01" nType="-99"/>
          </Node>
          <Node pos="r" depth="2" NCoef="0" IVar="0" Cut="4.4192371368408203e+01" cType="1" res="-4.4035278260707855e-02" rms="4.9272248148918152e-01" purity="4.2827716469764709e-01" nType="0">
            <Node pos="l" depth="3" NCoef="0" IVar="-1" Cut="0.0000000000000000e+00" cType="1" res="-1.4364593662321568e-03" rms="4.9119430780410767e-01" purity="4.1065123677253723e-01" nType="-99"/>
            <Node pos="r" depth="3" NCoef="0" IVar="-1" Cut="0.0000000000000000e+00" cType="1" res="1.4139025006443262e-03" rms="4.9026647210121155e-01" purity="5.9817725419998169e-01" nType="-99"/>
          </Node>
        </Node>
        <Node pos="r" depth="1" NCoef="0" IVar="8" Cut="1.7544941711425781e+02" cType="1" res="6.9065071642398834e-02" rms="4.8716452717781067e-01" purity="5.8661794662475586e-01" nType="0">
          <Node pos="l" depth="2" NCoef="0" IVar="8" Cut="1.2635887145996094e+02" cType="1" res="8.6565673351287842e-02" rms="4.8595595359802246e-01" purity="6.1082929372787476e-01" nType="0">
            <Node pos="l" depth="3" NCoef="0" IVar="-1" Cut="0.0000000000000000e+00" cType="1" res="3.0820543179288507e-04" rms="4.9834597110748291e-01" purity="5.3083872795104980e-01" nType="-99"/>
            <Node pos="r" depth="3" NCoef="0" IVar="-1" Cut="0.0000000000000000e+00" cType="1" res="2.1165376529097557e-03" rms="4.7202140092849731e-01" purity="6.6270238161087036e-01" nType="-99"/>
          </Node>
          <Node pos="r" depth="2" NCoef="0" IVar="-1" Cut="0.0000000000000000e+00" cType="1" res="-4.0116426534950733e-03" rms="4.4153562188148499e-01" purity="2.6538053154945374e-01" nType="-99"/>
        </Node>
      </Node>
    </BinaryTree>
    <BinaryTree type="DecisionTree" boostWeight="1.0000000000000000e+00" itree="31">
      <Node pos="s" depth="0" NCoef="0" IVar="8" Cut="1.1456259918212891e+02" cType="1" res="6.2718424014747143e-03" rms="4.9221414327621460e-01" purity="5.0000000000000000e-01" nType="0">
        <Node pos="l" depth="1" NCoef="0" IVar="0" Cut="4.4187763214111328e+01" cType="1" res="-5.9050463140010834e-02" rms="4.8914822936058044e-01" purity="4.0915077924728394e-01" nType="0">
          <Node pos="l" depth="2" NCoef="0" IVar="2" Cut="4.3325309753417969e+01" cType="1" res="-6.9653339684009552e-02" rms="4.8739635944366455e-01" purity="3.9396134018898010e-01" nType="0">
            <Node pos="l" depth="3" NCoef="0" IVar="-1" Cut="0.0000000000000000e+00" cType="1" res="-2.0950450561940670e-03" rms="4.8550713062286377e-01" purity="3.8258650898933411e-01" nType="-99"/>
            <Node pos="r" depth="3" NCoef="0" IVar="-1" Cut="0.0000000000000000e+00" cType="1" res="9.8957365844398737e-04" rms="4.9719953536987305e-01" purity="5.5151617527008057e-01" nType="-99"/>
          </Node>
          <Node pos="r" depth="2" NCoef="0" IVar="-1" Cut="0.0000000000000000e+00" cType="1" res="9.5687835710123181e-04" rms="4.9361076951026917e-01" purity="5.6869119405746460e-01" nType="-99"/>
        </Node>
        <Node pos="r" depth="1" NCoef="0" IVar="8" Cut="1.7544941711425781e+02" cType="1" res="6.8551756441593170e-02" rms="4.8702806234359741e-01" purity="5.8661794662475586e-01" nType="0">
          <Node pos="l" depth="2" NCoef="0" IVar="0" Cut="4.4027481079101562e+01" cType="1" res="8.5865668952465057e-02" rms="4.8590430617332458e-01" purity="6.1082929372787476e-01" nType="0">
            <Node pos="l" depth="3" NCoef="0" IVar="-1" Cut="0.0000000000000000e+00" cType="1" res="9.8993675783276558e-04" rms="4.9365460872650146e-01" purity="5.7441920042037964e-01" nType="-99"/>
            <Node pos="r" depth="3" NCoef="0" IVar="-1" Cut="0.0000000000000000e+00" cType="1" res="2.7856519445776939e-03" rms="4.4501939415931702e-01" purity="7.2716891765594482e-01" nType="-99"/>
          </Node>
          <Node pos="r" depth="2" NCoef="0" IVar="-1" Cut="0.0000000000000000e+00" cType="1" res="-3.9679650217294693e-03" rms="4.4153562188148499e-01" purity="2.6538053154945374e-01" nType="-99"/>
        </Node>
      </Node>
    </BinaryTree>
    <BinaryTree type="DecisionTree" boostWeight="1.0000000000000000e+00" itree="32">
      <Node pos="s" depth="0" NCoef="0" IVar="8" Cut="1.1456259918212891e+02" cType="1" res="6.4027630724012852e-03" rms="4.9203836917877197e-01" purity="5.0000000000000000e-01" nType="0">
        <Node pos="l" depth="1" NCoef="0" IVar="8" Cut="8.6293861389160156e+01" cType="1" res="-5.8236099779605865e-02" rms="4.8909723758697510e-01" purity="4.0915077924728394e-01" nType="0">
          <Node pos="l" depth="2" NCoef="0" IVar="8" Cut="7.5689529418945312e+01" cType="1" res="-1.3378676772117615e-01" rms="4.6421554684638977e-01" purity="3.1634736061096191e-01" nType="0">
            <Node pos="l" depth="3" NCoef="0" IVar="-1" Cut="0.0000000000000000e+00" cType="1" res="-6.6576539538800716e-03" rms="4.3262585997581482e-01" purity="2.4853526055812836e-01" nType="-99"/>
            <Node pos="r" depth="3" NCoef="0" IVar="-1" Cut="0.0000000000000000e+00" cType="1" res="-3.0734937172383070e-03" rms="4.7509419918060303e-01" purity="3.4568119049072266e-01" nType="-99"/>
          </Node>
          <Node pos="r" depth="2" NCoef="0" IVar="0" Cut="4.4192371368408203e+01" cType="1" res="-4.2665384709835052e-02" rms="4.9263158440589905e-01" purity="4.2827716469764709e-01" nType="0">
            <Node pos="l" depth="3" NCoef="0" IVar="-1" Cut="0.0000000000000000e+00" cType="1" res="-1.3958083000034094e-03" rms="4.9116662144660950e-01" purity="4.1065123677253723e-01" nType="-99"/>
            <Node pos="r" depth="3" NCoef="0" IVar="-1" Cut="0.0000000000000000e+00" cType="1" res="1.3931638095527887e-03" rms="4.9026650190353394e-01" purity="5.9817725419998169e-01" nType="-99"/>
          </Node>
        </Node>
        <Node pos="r" depth="1" NCoef="0" IVar="8" Cut="1.7544941711425781e+02" cType="1" res="6.8031065165996552e-02" rms="4.8689973354339600e-01" purity="5.8661794662475586e-01" nType="0">
          <Node pos="l" depth="2" NCoef="0" IVar="0" Cut="4.4027481079101562e+01" cType="1" res="8.5159510374069214e-02" rms="4.8585978150367737e-01" purity="6.1082929372787476e-01" nType="0">
            <Node pos="l" depth="3" NCoef="0" IVar="-1" Cut="0.0000000000000000e+00" cType="1" res="9.8092679399996996e-04" rms="4.9365466833114624e-01" purity="5.7441920042037964e-01" nType="-99"/>
            <Node pos="r" depth="3" NCoef="0" IVar="-1" Cut="0.0000000000000000e+00" cType="1" res="2.7664131484925747e-03" rms="4.4501954317092896e-01" purity="7.2716891765594482e-01" nType="-99"/>
          </Node>
          <Node pos="r" depth="2" NCoef="0" IVar="-1" Cut="0.0000000000000000e+00" cType="1" res="-3.9248350076377392e-03" rms="4.4153559207916260e-01" purity="2.6538053154945374e-01" nType="-99"/>
        </Node>
      </Node>
    </BinaryTree>
    <BinaryTree type="DecisionTree" boostWeight="1.0000000000000000e+00" itree="33">
      <Node pos="s" depth="0" NCoef="0" IVar="8" Cut="1.1456259918212891e+02" cType="1" res="6.5374546684324741e-03" rms="4.9185243248939514e-01" purity="5.0000000000000000e-01" nType="0">
        <Node pos="l" depth="1" NCoef="0" IVar="8" Cut="1.0048542022705078e+02" cType="1" res="-5.7418037205934525e-02" rms="4.8902109265327454e-01" purity="4.0915077924728394e-01" nType="0">
          <Node pos="l" depth="2" NCoef="0" IVar="1" Cut="1.7048570632934570e+01" cType="1" res="-9.0594381093978882e-02" rms="4.8111677169799805e-01" purity="3.7139591574668884e-01" nType="0">
            <Node pos="l" depth="3" NCoef="0" IVar="-1" Cut="0.0000000000000000e+00" cType="1" res="-4.6723997220396996e-03" rms="4.6143296360969543e-01" purity="3.1185755133628845e-01" nType="-99"/>
            <Node pos="r" depth="3" NCoef="0" IVar="-1" Cut="0.0000000000000000e+00" cType="1" res="-1.7242687754333019e-03" rms="4.8725649714469910e-01" purity="3.9703202247619629e-01" nType="-99"/>
          </Node>
          <Node pos="r" depth="2" NCoef="0" IVar="6" Cut="4.6095169067382812e+01" cType="1" res="-2.3018110543489456e-02" rms="4.9474048614501953e-01" purity="4.4829806685447693e-01" nType="0">
            <Node pos="l" depth="3" NCoef="0" IVar="-1" Cut="0.0000000000000000e+00" cType="1" res="-8.7787880329415202e-04" rms="4.9285751581192017e-01" purity="4.3386068940162659e-01" nType="-99"/>
            <Node pos="r" depth="3" NCoef="0" IVar="-1" Cut="0.0000000000000000e+00" cType="1" res="1.8190062837675214e-03" rms="4.9455729126930237e-01" purity="5.6548231840133667e-01" nType="-99"/>
          </Node>
        </Node>
        <Node pos="r" depth="1" NCoef="0" IVar="8" Cut="1.7544941711425781e+02" cType="1" res="6.7514210939407349e-02" rms="4.8677375912666321e-01" purity="5.8661794662475586e-01" nType="0">
          <Node pos="l" depth="2" NCoef="0" IVar="8" Cut="1.2635887145996094e+02" cType="1" res="8.4459252655506134e-02" rms="4.8581579327583313e-01" purity="6.1082929372787476e-01" nType="0">
            <Node pos="l" depth="3" NCoef="0" IVar="-1" Cut="0.0000000000000000e+00" cType="1" res="2.7937581762671471e-04" rms="4.9827206134796143e-01" purity="5.3083872795104980e-01" nType="-99"/>
            <Node pos="r" depth="3" NCoef="0" IVar="-1" Cut="0.0000000000000000e+00" cType="1" res="2.0774449221789837e-03" rms="4.7194325923919678e-01" purity="6.6270238161087036e-01" nType="-99"/>
          </Node>
          <Node pos="r" depth="2" NCoef="0" IVar="-1" Cut="0.0000000000000000e+00" cType="1" res="-3.8822421338409185e-03" rms="4.4153559207916260e-01" purity="2.6538053154945374e-01" nType="-99"/>
        </Node>
      </Node>
    </BinaryTree>
    <BinaryTree type="DecisionTree" boostWeight="1.0000000000000000e+00" itree="34">
      <Node pos="s" depth="0" NCoef="0" IVar="8" Cut="1.1456259918212891e+02" cType="1" res="6.6720275208353996e-03" rms="4.9166658520698547e-01" purity="5.0000000000000000e-01" nType="0">
        <Node pos="l" depth="1" NCoef="0" IVar="0" Cut="4.4187763214111328e+01" cType="1" res="-5.6616242974996567e-02" rms="4.8894354701042175e-01" purity="4.0915077924728394e-01" nType="0">
          <Node pos="l" depth="2" NCoef="0" IVar="2" Cut="4.3325309753417969e+01" cType="1" res="-6.6960833966732025e-02" rms="4.8725327849388123e-01" purity="3.9396134018898010e-01" nType="0">
            <Node pos="l" depth="3" NCoef="0" IVar="-1" Cut="0.0000000000000000e+00" cType="1" res="-2.0216158591210842e-03" rms="4.8539319634437561e-01" purity="3.8258650898933411e-01" nType="-99"/>
            <Node pos="r" depth="3" NCoef="0" IVar="-1" Cut="0.0000000000000000e+00" cType="1" res="1.0079450439661741e-03" rms="4.9710759520530701e-01" purity="5.5151617527008057e-01" nType="-99"/>
          </Node>
          <Node pos="r" depth="2" NCoef="0" IVar="-1" Cut="0.0000000000000000e+00" cType="1" res="9.5187703846022487e-04" rms="4.9342429637908936e-01" purity="5.6869119405746460e-01" nType="-99"/>
        </Node>
        <Node pos="r" depth="1" NCoef="0" IVar="8" Cut="1.7544941711425781e+02" cType="1" res="6.7012637853622437e-02" rms="4.8664364218711853e-01" purity="5.8661794662475586e-01" nType="0">
          <Node pos="l" depth="2" NCoef="0" IVar="0" Cut="4.4027481079101562e+01" cType="1" res="8.3777159452438354e-02" rms="4.8576498031616211e-01" purity="6.1082929372787476e-01" nType="0">
            <Node pos="l" depth="3" NCoef="0" IVar="-1" Cut="0.0000000000000000e+00" cType="1" res="9.6021615900099277e-04" rms="4.9360504746437073e-01" purity="5.7441920042037964e-01" nType="-99"/>
            <Node pos="r" depth="3" NCoef="0" IVar="-1" Cut="0.0000000000000000e+00" cType="1" res="2.7364334091544151e-03" rms="4.4499558210372925e-01" purity="7.2716891765594482e-01" nType="-99"/>
          </Node>
          <Node pos="r" depth="2" NCoef="0" IVar="-1" Cut="0.0000000000000000e+00" cType="1" res="-3.8401752244681120e-03" rms="4.4153559207916260e-01" purity="2.6538053154945374e-01" nType="-99"/>
        </Node>
      </Node>
    </BinaryTree>
    <BinaryTree type="DecisionTree" boostWeight="1.0000000000000000e+00" itree="35">
      <Node pos="s" depth="0" NCoef="0" IVar="8" Cut="1.2337510681152344e+02" cType="1" res="6.7931199446320534e-03" rms="4.9150043725967407e-01" purity="5.0000000000000000e-01" nType="0">
        <Node pos="l" depth="1" NCoef="0" IVar="8" Cut="1.1018668365478516e+02" cType="1" res="-3.9464466273784637e-02" rms="4.9201434850692749e-01" purity="4.3773415684700012e-01" nType="0">
          <Node pos="l" depth="2" NCoef="0" IVar="8" Cut="7.7273727416992188e+01" cType="1" res="-7.0394627749919891e-02" rms="4.8616147041320801e-01" purity="3.9316281676292419e-01" nType="0">
            <Node pos="l" depth="3" NCoef="0" IVar="-1" Cut="0.0000000000000000e+00" cType="1" res="-6.3869571313261986e-03" rms="4.3674123287200928e-01" purity="2.5698161125183105e-01" nType="-99"/>
            <Node pos="r" depth="3" NCoef="0" IVar="-1" Cut="0.0000000000000000e+00" cType="1" res="-1.5742017421871424e-03" rms="4.8890668153762817e-01" purity="4.0425089001655579e-01" nType="-99"/>
          </Node>
          <Node pos="r" depth="2" NCoef="0" IVar="4" Cut="2.8389934539794922e+01" cType="1" res="1.5265663154423237e-02" rms="4.9751424789428711e-01" purity="5.1660203933715820e-01" nType="0">
            <Node pos="l" depth="3" NCoef="0" IVar="-1" Cut="0.0000000000000000e+00" cType="1" res="9.6939672948792577e-04" rms="4.9442216753959656e-01" purity="5.5303764343261719e-01" nType="-99"/>
            <Node pos="r" depth="3" NCoef="0" IVar="-1" Cut="0.0000000000000000e+00" cType="1" res="-9.9001941271126270e-04" rms="4.9706405401229858e-01" purity="4.5691785216331482e-01" nType="-99"/>
          </Node>
        </Node>
        <Node pos="r" depth="1" NCoef="0" IVar="8" Cut="1.7551278686523438e+02" cType="1" res="8.7711192667484283e-02" rms="4.7999766469001770e-01" purity="6.0892122983932495e-01" nType="0">
          <Node pos="l" depth="2" NCoef="0" IVar="5" Cut="1.2045557022094727e+01" cType="1" res="1.1401440948247910e-01" rms="4.7667622566223145e-01" purity="6.4639651775360107e-01" nType="0">
            <Node pos="l" depth="3" NCoef="0" IVar="-1" Cut="0.0000000000000000e+00" cType="1" res="2.2265261504799128e-03" rms="4.6693038940429688e-01" purity="6.7526757717132568e-01" nType="-99"/>
            <Node pos="r" depth="3" NCoef="0" IVar="-1" Cut="0.0000000000000000e+00" cType="1" res="1.2590101687237620e-04" rms="4.9749585986137390e-01" purity="5.3661328554153442e-01" nType="-99"/>
          </Node>
          <Node pos="r" depth="2" NCoef="0" IVar="-1" Cut="0.0000000000000000e+00" cType="1" res="-3.7821971345692873e-03" rms="4.4177621603012085e-01" purity="2.6583385467529297e-01" nType="-99"/>
        </Node>
      </Node>
    </BinaryTree>
    <BinaryTree type="DecisionTree" boostWeight="1.0000000000000000e+00" itree="36">
      <Node pos="s" depth="0" NCoef="0" IVar="8" Cut="1.2337510681152344e+02" cType="1" res="6.9312104023993015e-03" rms="4.9131307005882263e-01" purity="5.0000000000000000e-01" nType="0">
        <Node pos="l" depth="1" NCoef="0" IVar="8" Cut="1.1018668365478516e+02" cType="1" res="-3.8892239332199097e-02" rms="4.9193111062049866e-01" purity="4.3773415684700012e-01" nType="0">
          <Node pos="l" depth="2" NCoef="0" IVar="8" Cut="7.7273727416992188e+01" cType="1" res="-6.9435112178325653e-02" rms="4.8612242937088013e-01" purity="3.9316281676292419e-01" nType="0">
            <Node pos="l" depth="3" NCoef="0" IVar="-1" Cut="0.0000000000000000e+00" cType="1" res="-6.2854997813701630e-03" rms="4.3674123287200928e-01" purity="2.5698161125183105e-01" nType="-99"/>
            <Node pos="r" depth="3" NCoef="0" IVar="-1" Cut="0.0000000000000000e+00" cType="1" res="-1.5545146306976676e-03" rms="4.8890683054924011e-01" purity="4.0425089001655579e-01" nType="-99"/>
          </Node>
          <Node pos="r" depth="2" NCoef="0" IVar="4" Cut="2.8389934539794922e+01" cType="1" res="1.5152600593864918e-02" rms="4.9747100472450256e-01" purity="5.1660203933715820e-01" nType="0">
            <Node pos="l" depth="3" NCoef="0" IVar="-1" Cut="0.0000000000000000e+00" cType="1" res="9.6019945340231061e-04" rms="4.9442207813262939e-01" purity="5.5303764343261719e-01" nType="-99"/>
            <Node pos="r" depth="3" NCoef="0" IVar="-1" Cut="0.0000000000000000e+00" cType="1" res="-9.7865459974855185e-04" rms="4.9706399440765381e-01" purity="4.5691785216331482e-01" nType="-99"/>
          </Node>
        </Node>
        <Node pos="r" depth="1" NCoef="0" IVar="8" Cut="1.7551278686523438e+02" cType="1" res="8.7089851498603821e-02" rms="4.7981974482536316e-01" purity="6.0892122983932495e-01" nType="0">
          <Node pos="l" depth="2" NCoef="0" IVar="2" Cut="4.1098205566406250e+01" cType="1" res="1.1312419176101685e-01" rms="4.7662746906280518e-01" purity="6.4639651775360107e-01" nType="0">
            <Node pos="l" depth="3" NCoef="0" IVar="-1" Cut="0.0000000000000000e+00" cType="1" res="1.3227027375251055e-03" rms="4.8490688204765320e-01" purity="6.1178970336914062e-01" nType="-99"/>
            <Node pos="r" depth="3" NCoef="0" IVar="-1" Cut="0.0000000000000000e+00" cType="1" res="2.9749318491667509e-03" rms="4.4507008790969849e-01" purity="7.2829210758209229e-01" nType="-99"/>
          </Node>
          <Node pos="r" depth="2" NCoef="0" IVar="-1" Cut="0.0000000000000000e+00" cType="1" res="-3.7413726095110178e-03" rms="4.4177621603012085e-01" purity="2.6583385467529297e-01" nType="-99"/>
        </Node>
      </Node>
    </BinaryTree>
    <BinaryTree type="DecisionTree" boostWeight="1.0000000000000000e+00" itree="37">
      <Node pos="s" depth="0" NCoef="0" IVar="8" Cut="1.2337510681152344e+02" cType="1" res="7.0592169649899006e-03" rms="4.9112999439239502e-01" purity="5.0000000000000000e-01" nType="0">
        <Node pos="l" depth="1" NCoef="0" IVar="8" Cut="1.1018668365478516e+02" cType="1" res="-3.8328297436237335e-02" rms="4.9185022711753845e-01" purity="4.3773415684700012e-01" nType="0">
          <Node pos="l" depth="2" NCoef="0" IVar="8" Cut="7.7273727416992188e+01" cType="1" res="-6.8488962948322296e-02" rms="4.8608490824699402e-01" purity="3.9316281676292419e-01" nType="0">
            <Node pos="l" depth="3" NCoef="0" IVar="-1" Cut="0.0000000000000000e+00" cType="1" res="-6.1859749257564545e-03" rms="4.3674123287200928e-01" purity="2.5698161125183105e-01" nType="-99"/>
            <Node pos="r" depth="3" NCoef="0" IVar="-1" Cut="0.0000000000000000e+00" cType="1" res="-1.5350778121501207e-03" rms="4.8890700936317444e-01" purity="4.0425089001655579e-01" nType="-99"/>
          </Node>
          <Node pos="r" depth="2" NCoef="0" IVar="4" Cut="2.8389934539794922e+01" cType="1" res="1.5040238387882710e-02" rms="4.9742868542671204e-01" purity="5.1660203933715820e-01" nType="0">
            <Node pos="l" depth="3" NCoef="0" IVar="-1" Cut="0.0000000000000000e+00" cType="1" res="9.5109076937660575e-04" rms="4.9442201852798462e-01" purity="5.5303764343261719e-01" nType="-99"/>
            <Node pos="r" depth="3" NCoef="0" IVar="-1" Cut="0.0000000000000000e+00" cType="1" res="-9.6742197638377547e-04" rms="4.9706393480300903e-01" purity="4.5691785216331482e-01" nType="-99"/>
          </Node>
        </Node>
        <Node pos="r" depth="1" NCoef="0" IVar="8" Cut="1.7551278686523438e+02" cType="1" res="8.6455270648002625e-02" rms="4.7964867949485779e-01" purity="6.0892122983932495e-01" nType="0">
          <Node pos="l" depth="2" NCoef="0" IVar="5" Cut="1.2045557022094727e+01" cType="1" res="1.1222171038389206e-01" rms="4.7658431529998779e-01" purity="6.4639651775360107e-01" nType="0">
            <Node pos="l" depth="3" NCoef="0" IVar="-1" Cut="0.0000000000000000e+00" cType="1" res="2.1959196310490370e-03" rms="4.6689090132713318e-01" purity="6.7526757717132568e-01" nType="-99"/>
            <Node pos="r" depth="3" NCoef="0" IVar="-1" Cut="0.0000000000000000e+00" cType="1" res="1.0828631639014930e-04" rms="4.9746659398078918e-01" purity="5.3661328554153442e-01" nType="-99"/>
          </Node>
          <Node pos="r" depth="2" NCoef="0" IVar="-1" Cut="0.0000000000000000e+00" cType="1" res="-3.7010400556027889e-03" rms="4.4177621603012085e-01" purity="2.6583385467529297e-01" nType="-99"/>
        </Node>
      </Node>
    </BinaryTree>
    <BinaryTree type="DecisionTree" boostWeight="1.0000000000000000e+00" itree="38">
      <Node pos="s" depth="0" NCoef="0" IVar="8" Cut="1.2337510681152344e+02" cType="1" res="7.1899900212883949e-03" rms="4.9095049500465393e-01" purity="5.0000000000000000e-01" nType="0">
