<?xml version="1.0"?>
<MethodSetup Method="BDT::BDT_et_2Jets_TTDiscriminator_rm_Nothing">
  <GeneralInfo>
    <Info name="TMVA Release" value="4.2.0 [262656]"/>
    <Info name="ROOT Release" value="5.34/18 [336402]"/>
    <Info name="Creator" value="mschmitt"/>
    <Info name="Date" value="Fri Jul 15 20:35:42 2016"/>
    <Info name="Host" value="Linux cmsdev04.cern.ch 2.6.32-431.11.2.el6.x86_64 #1 SMP Wed Mar 26 09:39:43 CET 2014 x86_64 x86_64 x86_64 GNU/Linux"/>
    <Info name="Dir" value="/tmp/260182.1.medium/18491_10/29468/CMSSW_7_1_5/workdir"/>
    <Info name="Training events" value="47433"/>
    <Info name="TrainingTime" value="6.21753480e+01"/>
    <Info name="AnalysisType" value="Classification"/>
  </GeneralInfo>
  <Options>
    <Option name="V" modified="No">False</Option>
    <Option name="VerbosityLevel" modified="No">Default</Option>
    <Option name="VarTransform" modified="No">None</Option>
    <Option name="H" modified="No">False</Option>
    <Option name="CreateMVAPdfs" modified="No">False</Option>
    <Option name="IgnoreNegWeightsInTraining" modified="No">False</Option>
    <Option name="NTrees" modified="Yes">750</Option>
    <Option name="MaxDepth" modified="Yes">3</Option>
    <Option name="MinNodeSize" modified="Yes">2.5</Option>
    <Option name="nCuts" modified="Yes">1000</Option>
    <Option name="BoostType" modified="Yes">Grad</Option>
    <Option name="AdaBoostR2Loss" modified="No">quadratic</Option>
    <Option name="UseBaggedBoost" modified="No">False</Option>
    <Option name="Shrinkage" modified="Yes">1.000000e-01</Option>
    <Option name="AdaBoostBeta" modified="No">5.000000e-01</Option>
    <Option name="UseRandomisedTrees" modified="No">False</Option>
    <Option name="UseNvars" modified="No">3</Option>
    <Option name="UsePoissonNvars" modified="No">True</Option>
    <Option name="BaggedSampleFraction" modified="No">6.000000e-01</Option>
    <Option name="UseYesNoLeaf" modified="No">True</Option>
    <Option name="NegWeightTreatment" modified="No">ignorenegweightsintraining</Option>
    <Option name="Css" modified="No">1.000000e+00</Option>
    <Option name="Cts_sb" modified="No">1.000000e+00</Option>
    <Option name="Ctb_ss" modified="No">1.000000e+00</Option>
    <Option name="Cbb" modified="No">1.000000e+00</Option>
    <Option name="NodePurityLimit" modified="No">5.000000e-01</Option>
    <Option name="SeparationType" modified="Yes">giniindex</Option>
    <Option name="DoBoostMonitor" modified="No">False</Option>
    <Option name="UseFisherCuts" modified="No">False</Option>
    <Option name="MinLinCorrForFisher" modified="No">8.000000e-01</Option>
    <Option name="UseExclusiveVars" modified="No">False</Option>
    <Option name="DoPreselection" modified="No">False</Option>
    <Option name="SigToBkgFraction" modified="No">1.000000e+00</Option>
    <Option name="PruneMethod" modified="No">nopruning</Option>
    <Option name="PruneStrength" modified="No">0.000000e+00</Option>
    <Option name="PruningValFraction" modified="No">5.000000e-01</Option>
    <Option name="nEventsMin" modified="No">0</Option>
    <Option name="UseBaggedGrad" modified="No">False</Option>
    <Option name="GradBaggingFraction" modified="No">6.000000e-01</Option>
    <Option name="UseNTrainEvents" modified="No">0</Option>
    <Option name="NNodesMax" modified="No">0</Option>
  </Options>
  <Variables NVar="8">
    <Variable VarIndex="0" Expression="pt_1" Label="pt_1" Title="pt_1" Unit="" Internal="pt_1" Type="F" Min="2.40036793e+01" Max="1.07847900e+03"/>
    <Variable VarIndex="1" Expression="pt_2" Label="pt_2" Title="pt_2" Unit="" Internal="pt_2" Type="F" Min="2.00004787e+01" Max="8.41394958e+02"/>
    <Variable VarIndex="2" Expression="mt_2" Label="mt_2" Title="mt_2" Unit="" Internal="mt_2" Type="F" Min="4.34197864e-04" Max="8.77222656e+02"/>
    <Variable VarIndex="3" Expression="H_pt" Label="H_pt" Title="H_pt" Unit="" Internal="H_pt" Type="F" Min="9.50046301e-01" Max="1.30830542e+03"/>
    <Variable VarIndex="4" Expression="diLepDeltaR" Label="diLepDeltaR" Title="diLepDeltaR" Unit="" Internal="diLepDeltaR" Type="F" Min="5.00230253e-01" Max="6.67183256e+00"/>
    <Variable VarIndex="5" Expression="mjj" Label="mjj" Title="mjj" Unit="" Internal="mjj" Type="F" Min="1.73168983e+01" Max="7.02606348e+03"/>
    <Variable VarIndex="6" Expression="jdeta" Label="jdeta" Title="jdeta" Unit="" Internal="jdeta" Type="F" Min="9.36985016e-05" Max="9.31217003e+00"/>
    <Variable VarIndex="7" Expression="diLep_diJet_deltaR" Label="diLep_diJet_deltaR" Title="diLep_diJet_deltaR" Unit="" Internal="diLep_diJet_deltaR" Type="F" Min="2.15053763e-02" Max="1.22732906e+01"/>
  </Variables>
  <Spectators NSpec="0"/>
  <Classes NClass="2">
    <Class Name="Background" Index="0"/>
    <Class Name="Signal" Index="1"/>
  </Classes>
  <Transformations NTransformations="0"/>
  <MVAPdfs/>
  <Weights NTrees="750" AnalysisType="1">
    <BinaryTree type="DecisionTree" boostWeight="1.0000000000000000e+00" itree="0">
      <Node pos="s" depth="0" NCoef="0" IVar="6" Cut="2.8188340663909912e+00" cType="1" res="6.1964999658853761e-17" rms="5.0000000000000000e-01" purity="5.0000000000000000e-01" nType="0">
        <Node pos="l" depth="1" NCoef="0" IVar="6" Cut="2.1992554664611816e+00" cType="1" res="-2.8263682126998901e-01" rms="4.1245174407958984e-01" purity="2.1736319363117218e-01" nType="0">
          <Node pos="l" depth="2" NCoef="0" IVar="1" Cut="5.0361713409423828e+01" cType="1" res="-3.1825688481330872e-01" rms="3.8563266396522522e-01" purity="1.8174310028553009e-01" nType="0">
            <Node pos="l" depth="3" NCoef="0" IVar="-1" Cut="0.0000000000000000e+00" cType="1" res="-2.1530386060476303e-02" rms="3.5268574953079224e-01" purity="1.4558109641075134e-01" nType="-99"/>
            <Node pos="r" depth="3" NCoef="0" IVar="-1" Cut="0.0000000000000000e+00" cType="1" res="-1.8286922946572304e-02" rms="4.4812512397766113e-01" purity="2.7822557091712952e-01" nType="-99"/>
          </Node>
          <Node pos="r" depth="2" NCoef="0" IVar="3" Cut="1.3594508361816406e+02" cType="1" res="-9.9549241364002228e-02" rms="4.8998975753784180e-01" purity="4.0045073628425598e-01" nType="0">
            <Node pos="l" depth="3" NCoef="0" IVar="-1" Cut="0.0000000000000000e+00" cType="1" res="-1.2860177084803581e-02" rms="4.7192159295082092e-01" purity="3.3480313420295715e-01" nType="-99"/>
            <Node pos="r" depth="3" NCoef="0" IVar="-1" Cut="0.0000000000000000e+00" cType="1" res="3.5931707825511694e-03" rms="4.9706462025642395e-01" purity="5.5409955978393555e-01" nType="-99"/>
          </Node>
        </Node>
        <Node pos="r" depth="1" NCoef="0" IVar="5" Cut="4.4176361083984375e+02" cType="1" res="3.3101373910903931e-01" rms="3.7473976612091064e-01" purity="8.3101379871368408e-01" nType="0">
          <Node pos="l" depth="2" NCoef="0" IVar="7" Cut="3.8557939529418945e+00" cType="1" res="8.3779029548168182e-02" rms="4.9293109774589539e-01" purity="5.8377903699874878e-01" nType="0">
            <Node pos="l" depth="3" NCoef="0" IVar="-1" Cut="0.0000000000000000e+00" cType="1" res="9.1167772188782692e-03" rms="4.7577768564224243e-01" purity="6.5373873710632324e-01" nType="-99"/>
            <Node pos="r" depth="3" NCoef="0" IVar="-1" Cut="0.0000000000000000e+00" cType="1" res="-5.4237339645624161e-03" rms="4.8345094919204712e-01" purity="3.7242576479911804e-01" nType="-99"/>
          </Node>
          <Node pos="r" depth="2" NCoef="0" IVar="6" Cut="4.0341563224792480e+00" cType="1" res="4.1159221529960632e-01" rms="2.8388702869415283e-01" purity="9.1159224510192871e-01" nType="0">
            <Node pos="l" depth="3" NCoef="0" IVar="-1" Cut="0.0000000000000000e+00" cType="1" res="1.6126368194818497e-02" rms="3.9969369769096375e-01" purity="8.0040794610977173e-01" nType="-99"/>
            <Node pos="r" depth="3" NCoef="0" IVar="-1" Cut="0.0000000000000000e+00" cType="1" res="2.0651474595069885e-02" rms="2.3482248187065125e-01" purity="9.4142770767211914e-01" nType="-99"/>
          </Node>
        </Node>
      </Node>
    </BinaryTree>
    <BinaryTree type="DecisionTree" boostWeight="1.0000000000000000e+00" itree="1">
      <Node pos="s" depth="0" NCoef="0" IVar="6" Cut="2.8188340663909912e+00" cType="1" res="1.2779107782989740e-03" rms="4.9391615390777588e-01" purity="5.0000000000000000e-01" nType="0">
        <Node pos="l" depth="1" NCoef="0" IVar="6" Cut="2.1992554664611816e+00" cType="1" res="-2.7335014939308167e-01" rms="4.1176581382751465e-01" purity="2.1736319363117218e-01" nType="0">
          <Node pos="l" depth="2" NCoef="0" IVar="7" Cut="3.2405059337615967e+00" cType="1" res="-3.0793532729148865e-01" rms="3.8552275300025940e-01" purity="1.8174310028553009e-01" nType="0">
            <Node pos="l" depth="3" NCoef="0" IVar="-1" Cut="0.0000000000000000e+00" cType="1" res="-2.8818380087614059e-02" rms="3.3606901764869690e-01" purity="1.2986780703067780e-01" nType="-99"/>
            <Node pos="r" depth="3" NCoef="0" IVar="-1" Cut="0.0000000000000000e+00" cType="1" res="-1.2759536504745483e-02" rms="4.3218439817428589e-01" purity="2.4880850315093994e-01" nType="-99"/>
          </Node>
          <Node pos="r" depth="2" NCoef="0" IVar="3" Cut="1.2866384887695312e+02" cType="1" res="-9.5582105219364166e-02" rms="4.8923143744468689e-01" purity="4.0045073628425598e-01" nType="0">
            <Node pos="l" depth="3" NCoef="0" IVar="-1" Cut="0.0000000000000000e+00" cType="1" res="-1.2849781662225723e-02" rms="4.6984505653381348e-01" purity="3.2898643612861633e-01" nType="-99"/>
            <Node pos="r" depth="3" NCoef="0" IVar="-1" Cut="0.0000000000000000e+00" cType="1" res="2.7114253025501966e-03" rms="4.9811500310897827e-01" purity="5.4122972488403320e-01" nType="-99"/>
          </Node>
        </Node>
        <Node pos="r" depth="1" NCoef="0" IVar="5" Cut="4.4176361083984375e+02" cType="1" res="3.2291212677955627e-01" rms="3.7324494123458862e-01" purity="8.3101379871368408e-01" nType="0">
          <Node pos="l" depth="2" NCoef="0" IVar="7" Cut="3.8557939529418945e+00" cType="1" res="8.1028766930103302e-02" rms="4.9216532707214355e-01" purity="5.8377903699874878e-01" nType="0">
            <Node pos="l" depth="3" NCoef="0" IVar="-1" Cut="0.0000000000000000e+00" cType="1" res="8.8472049683332443e-03" rms="4.7577768564224243e-01" purity="6.5373873710632324e-01" nType="-99"/>
            <Node pos="r" depth="3" NCoef="0" IVar="-1" Cut="0.0000000000000000e+00" cType="1" res="-5.3085982799530029e-03" rms="4.8345094919204712e-01" purity="3.7242576479911804e-01" nType="-99"/>
          </Node>
          <Node pos="r" depth="2" NCoef="0" IVar="6" Cut="4.0341563224792480e+00" cType="1" res="4.0174645185470581e-01" rms="2.8370106220245361e-01" purity="9.1159224510192871e-01" nType="0">
            <Node pos="l" depth="3" NCoef="0" IVar="-1" Cut="0.0000000000000000e+00" cType="1" res="1.5697643160820007e-02" rms="3.9969369769096375e-01" purity="8.0040794610977173e-01" nType="-99"/>
            <Node pos="r" depth="3" NCoef="0" IVar="-1" Cut="0.0000000000000000e+00" cType="1" res="2.0177071914076805e-02" rms="2.3482249677181244e-01" purity="9.4142770767211914e-01" nType="-99"/>
          </Node>
        </Node>
      </Node>
    </BinaryTree>
    <BinaryTree type="DecisionTree" boostWeight="1.0000000000000000e+00" itree="2">
      <Node pos="s" depth="0" NCoef="0" IVar="6" Cut="2.8188340663909912e+00" cType="1" res="2.8934061992913485e-03" rms="4.8767602443695068e-01" purity="5.0000000000000000e-01" nType="0">
        <Node pos="l" depth="1" NCoef="0" IVar="6" Cut="2.2555718421936035e+00" cType="1" res="-2.6361048221588135e-01" rms="4.1067540645599365e-01" purity="2.1736319363117218e-01" nType="0">
          <Node pos="l" depth="2" NCoef="0" IVar="1" Cut="5.0361713409423828e+01" cType="1" res="-2.9528149962425232e-01" rms="3.8648188114166260e-01" purity="1.8374866247177124e-01" nType="0">
            <Node pos="l" depth="3" NCoef="0" IVar="-1" Cut="0.0000000000000000e+00" cType="1" res="-2.0280215889215469e-02" rms="3.5356041789054871e-01" purity="1.4701843261718750e-01" nType="-99"/>
            <Node pos="r" depth="3" NCoef="0" IVar="-1" Cut="0.0000000000000000e+00" cType="1" res="-1.6305088996887207e-02" rms="4.4890215992927551e-01" purity="2.8183513879776001e-01" nType="-99"/>
          </Node>
          <Node pos="r" depth="2" NCoef="0" IVar="1" Cut="4.1984695434570312e+01" cType="1" res="-8.2021363079547882e-02" rms="4.9041527509689331e-01" purity="4.1009560227394104e-01" nType="0">
            <Node pos="l" depth="3" NCoef="0" IVar="-1" Cut="0.0000000000000000e+00" cType="1" res="-1.3035046868026257e-02" rms="4.6912336349487305e-01" purity="3.3014619350433350e-01" nType="-99"/>
            <Node pos="r" depth="3" NCoef="0" IVar="-1" Cut="0.0000000000000000e+00" cType="1" res="2.3099868558347225e-03" rms="4.9808585643768311e-01" purity="5.3023731708526611e-01" nType="-99"/>
          </Node>
        </Node>
        <Node pos="r" depth="1" NCoef="0" IVar="5" Cut="4.2797451782226562e+02" cType="1" res="3.1501287221908569e-01" rms="3.7180891633033752e-01" purity="8.3101379871368408e-01" nType="0">
          <Node pos="l" depth="2" NCoef="0" IVar="7" Cut="3.8165605068206787e+00" cType="1" res="6.9017171859741211e-02" rms="4.9286934733390808e-01" purity="5.7447290420532227e-01" nType="0">
            <Node pos="l" depth="3" NCoef="0" IVar="-1" Cut="0.0000000000000000e+00" cType="1" res="8.3171511068940163e-03" rms="4.7756263613700867e-01" purity="6.4810115098953247e-01" nType="-99"/>
            <Node pos="r" depth="3" NCoef="0" IVar="-1" Cut="0.0000000000000000e+00" cType="1" res="-5.7121347635984421e-03" rms="4.7956997156143188e-01" purity="3.5926529765129089e-01" nType="-99"/>
          </Node>
          <Node pos="r" depth="2" NCoef="0" IVar="6" Cut="4.0341563224792480e+00" cType="1" res="3.8928908109664917e-01" rms="2.8783082962036133e-01" purity="9.0847396850585938e-01" nType="0">
            <Node pos="l" depth="3" NCoef="0" IVar="-1" Cut="0.0000000000000000e+00" cType="1" res="1.5196817927062511e-02" rms="4.0167081356048584e-01" purity="7.9757434129714966e-01" nType="-99"/>
            <Node pos="r" depth="3" NCoef="0" IVar="-1" Cut="0.0000000000000000e+00" cType="1" res="1.9672743976116180e-02" rms="2.3787719011306763e-01" purity="9.3973064422607422e-01" nType="-99"/>
          </Node>
        </Node>
      </Node>
    </BinaryTree>
    <BinaryTree type="DecisionTree" boostWeight="1.0000000000000000e+00" itree="3">
      <Node pos="s" depth="0" NCoef="0" IVar="6" Cut="2.8188340663909912e+00" cType="1" res="4.0152417495846748e-03" rms="4.8211249709129333e-01" purity="5.0000000000000000e-01" nType="0">
        <Node pos="l" depth="1" NCoef="0" IVar="6" Cut="2.1992554664611816e+00" cType="1" res="-2.5494799017906189e-01" rms="4.1004413366317749e-01" purity="2.1736319363117218e-01" nType="0">
          <Node pos="l" depth="2" NCoef="0" IVar="1" Cut="4.4617694854736328e+01" cType="1" res="-2.8746959567070007e-01" rms="3.8480314612388611e-01" purity="1.8174310028553009e-01" nType="0">
            <Node pos="l" depth="3" NCoef="0" IVar="-1" Cut="0.0000000000000000e+00" cType="1" res="-1.9350830465555191e-02" rms="3.4616386890411377e-01" purity="1.3965412974357605e-01" nType="-99"/>
            <Node pos="r" depth="3" NCoef="0" IVar="-1" Cut="0.0000000000000000e+00" cType="1" res="-1.7559830099344254e-02" rms="4.4010573625564575e-01" purity="2.6441028714179993e-01" nType="-99"/>
          </Node>
          <Node pos="r" depth="2" NCoef="0" IVar="3" Cut="1.3594508361816406e+02" cType="1" res="-8.7786592543125153e-02" rms="4.8772889375686646e-01" purity="4.0045073628425598e-01" nType="0">
            <Node pos="l" depth="3" NCoef="0" IVar="-1" Cut="0.0000000000000000e+00" cType="1" res="-1.1554302647709846e-02" rms="4.7114413976669312e-01" purity="3.3480313420295715e-01" nType="-99"/>
            <Node pos="r" depth="3" NCoef="0" IVar="-1" Cut="0.0000000000000000e+00" cType="1" res="3.5689182113856077e-03" rms="4.9650380015373230e-01" purity="5.5409955978393555e-01" nType="-99"/>
          </Node>
        </Node>
        <Node pos="r" depth="1" NCoef="0" IVar="5" Cut="4.0039630126953125e+02" cType="1" res="3.0730336904525757e-01" rms="3.7041831016540527e-01" purity="8.3101379871368408e-01" nType="0">
          <Node pos="l" depth="2" NCoef="0" IVar="7" Cut="3.7282855510711670e+00" cType="1" res="4.1152689605951309e-02" rms="4.9546241760253906e-01" purity="5.4869127273559570e-01" nType="0">
            <Node pos="l" depth="3" NCoef="0" IVar="-1" Cut="0.0000000000000000e+00" cType="1" res="6.5063936635851860e-03" rms="4.8553380370140076e-01" purity="6.1940228939056396e-01" nType="-99"/>
            <Node pos="r" depth="3" NCoef="0" IVar="-1" Cut="0.0000000000000000e+00" cType="1" res="-4.6990215778350830e-03" rms="4.8433601856231689e-01" purity="3.8050627708435059e-01" nType="-99"/>
          </Node>
          <Node pos="r" depth="2" NCoef="0" IVar="5" Cut="6.5877581787109375e+02" cType="1" res="3.7308323383331299e-01" rms="2.9768329858779907e-01" purity="9.0079051256179810e-01" nType="0">
            <Node pos="l" depth="3" NCoef="0" IVar="-1" Cut="0.0000000000000000e+00" cType="1" res="1.5128980390727520e-02" rms="3.9563587307929993e-01" purity="8.0409610271453857e-01" nType="-99"/>
            <Node pos="r" depth="3" NCoef="0" IVar="-1" Cut="0.0000000000000000e+00" cType="1" res="1.9245436415076256e-02" rms="2.3489063978195190e-01" purity="9.4118833541870117e-01" nType="-99"/>
          </Node>
        </Node>
      </Node>
    </BinaryTree>
    <BinaryTree type="DecisionTree" boostWeight="1.0000000000000000e+00" itree="4">
      <Node pos="s" depth="0" NCoef="0" IVar="6" Cut="2.8188340663909912e+00" cType="1" res="5.0735836848616600e-03" rms="4.7683274745941162e-01" purity="5.0000000000000000e-01" nType="0">
        <Node pos="l" depth="1" NCoef="0" IVar="6" Cut="2.2555718421936035e+00" cType="1" res="-2.4657054245471954e-01" rms="4.0949073433876038e-01" purity="2.1736319363117218e-01" nType="0">
          <Node pos="l" depth="2" NCoef="0" IVar="1" Cut="5.0361713409423828e+01" cType="1" res="-2.7649259567260742e-01" rms="3.8624259829521179e-01" purity="1.8374866247177124e-01" nType="0">
            <Node pos="l" depth="3" NCoef="0" IVar="-1" Cut="0.0000000000000000e+00" cType="1" res="-1.9175762310624123e-02" rms="3.5352438688278198e-01" purity="1.4701843261718750e-01" nType="-99"/>
            <Node pos="r" depth="3" NCoef="0" IVar="-1" Cut="0.0000000000000000e+00" cType="1" res="-1.4984883368015289e-02" rms="4.4882270693778992e-01" purity="2.8183513879776001e-01" nType="-99"/>
          </Node>
          <Node pos="r" depth="2" NCoef="0" IVar="5" Cut="2.7790530395507812e+02" cType="1" res="-7.5009211897850037e-02" rms="4.8906400799751282e-01" purity="4.1009560227394104e-01" nType="0">
            <Node pos="l" depth="3" NCoef="0" IVar="-1" Cut="0.0000000000000000e+00" cType="1" res="-1.1777221225202084e-02" rms="4.6817612648010254e-01" purity="3.2888749241828918e-01" nType="-99"/>
            <Node pos="r" depth="3" NCoef="0" IVar="-1" Cut="0.0000000000000000e+00" cType="1" res="2.5910534895956516e-03" rms="4.9736276268959045e-01" purity="5.3014183044433594e-01" nType="-99"/>
          </Node>
        </Node>
        <Node pos="r" depth="1" NCoef="0" IVar="5" Cut="4.4176361083984375e+02" cType="1" res="2.9978984594345093e-01" rms="3.6912217736244202e-01" purity="8.3101379871368408e-01" nType="0">
          <Node pos="l" depth="2" NCoef="0" IVar="7" Cut="3.8557939529418945e+00" cType="1" res="7.2911366820335388e-02" rms="4.8989054560661316e-01" purity="5.8377903699874878e-01" nType="0">
            <Node pos="l" depth="3" NCoef="0" IVar="-1" Cut="0.0000000000000000e+00" cType="1" res="8.1076631322503090e-03" rms="4.7545680403709412e-01" purity="6.5373873710632324e-01" nType="-99"/>
            <Node pos="r" depth="3" NCoef="0" IVar="-1" Cut="0.0000000000000000e+00" cType="1" res="-5.0764228217303753e-03" rms="4.8258173465728760e-01" purity="3.7242576479911804e-01" nType="-99"/>
          </Node>
          <Node pos="r" depth="2" NCoef="0" IVar="6" Cut="4.0341563224792480e+00" cType="1" res="3.7373381853103638e-01" rms="2.8318870067596436e-01" purity="9.1159224510192871e-01" nType="0">
            <Node pos="l" depth="3" NCoef="0" IVar="-1" Cut="0.0000000000000000e+00" cType="1" res="1.4475275762379169e-02" rms="3.9965552091598511e-01" purity="8.0040794610977173e-01" nType="-99"/>
            <Node pos="r" depth="3" NCoef="0" IVar="-1" Cut="0.0000000000000000e+00" cType="1" res="1.8923113122582436e-02" rms="2.3471213877201080e-01" purity="9.4142770767211914e-01" nType="-99"/>
          </Node>
        </Node>
      </Node>
    </BinaryTree>
    <BinaryTree type="DecisionTree" boostWeight="1.0000000000000000e+00" itree="5">
      <Node pos="s" depth="0" NCoef="0" IVar="6" Cut="2.8188340663909912e+00" cType="1" res="6.0475720092654228e-03" rms="4.7175914049148560e-01" purity="5.0000000000000000e-01" nType="0">
        <Node pos="l" depth="1" NCoef="0" IVar="6" Cut="2.1992554664611816e+00" cType="1" res="-2.3851171135902405e-01" rms="4.0890023112297058e-01" purity="2.1736319363117218e-01" nType="0">
          <Node pos="l" depth="2" NCoef="0" IVar="1" Cut="4.4617694854736328e+01" cType="1" res="-2.6920142769813538e-01" rms="3.8460868597030640e-01" purity="1.8174310028553009e-01" nType="0">
            <Node pos="l" depth="3" NCoef="0" IVar="-1" Cut="0.0000000000000000e+00" cType="1" res="-1.8338002264499664e-02" rms="3.4616664052009583e-01" purity="1.3965412974357605e-01" nType="-99"/>
            <Node pos="r" depth="3" NCoef="0" IVar="-1" Cut="0.0000000000000000e+00" cType="1" res="-1.6230590641498566e-02" rms="4.4006076455116272e-01" purity="2.6441028714179993e-01" nType="-99"/>
          </Node>
          <Node pos="r" depth="2" NCoef="0" IVar="1" Cut="4.1984695434570312e+01" cType="1" res="-8.0766215920448303e-02" rms="4.8636531829833984e-01" purity="4.0045073628425598e-01" nType="0">
            <Node pos="l" depth="3" NCoef="0" IVar="-1" Cut="0.0000000000000000e+00" cType="1" res="-1.2775175273418427e-02" rms="4.6427884697914124e-01" purity="3.2091027498245239e-01" nType="-99"/>
            <Node pos="r" depth="3" NCoef="0" IVar="-1" Cut="0.0000000000000000e+00" cType="1" res="1.9151987507939339e-03" rms="4.9754673242568970e-01" purity="5.1933968067169189e-01" nType="-99"/>
          </Node>
        </Node>
        <Node pos="r" depth="1" NCoef="0" IVar="5" Cut="4.0039630126953125e+02" cType="1" res="2.9246631264686584e-01" rms="3.6784100532531738e-01" purity="8.3101379871368408e-01" nType="0">
          <Node pos="l" depth="2" NCoef="0" IVar="5" Cut="2.9483868408203125e+02" cType="1" res="3.7218105047941208e-02" rms="4.9433106184005737e-01" purity="5.4869127273559570e-01" nType="0">
            <Node pos="l" depth="3" NCoef="0" IVar="-1" Cut="0.0000000000000000e+00" cType="1" res="-4.6194149181246758e-03" rms="4.9346828460693359e-01" purity="4.4529154896736145e-01" nType="-99"/>
            <Node pos="r" depth="3" NCoef="0" IVar="-1" Cut="0.0000000000000000e+00" cType="1" res="5.6036193855106831e-03" rms="4.7777628898620605e-01" purity="6.3666802644729614e-01" nType="-99"/>
          </Node>
          <Node pos="r" depth="2" NCoef="0" IVar="5" Cut="6.5877581787109375e+02" cType="1" res="3.5555160045623779e-01" rms="2.9710489511489868e-01" purity="9.0079051256179810e-01" nType="0">
            <Node pos="l" depth="3" NCoef="0" IVar="-1" Cut="0.0000000000000000e+00" cType="1" res="1.4392534270882607e-02" rms="3.9525592327117920e-01" purity="8.0409610271453857e-01" nType="-99"/>
            <Node pos="r" depth="3" NCoef="0" IVar="-1" Cut="0.0000000000000000e+00" cType="1" res="1.8479065969586372e-02" rms="2.3477146029472351e-01" purity="9.4118833541870117e-01" nType="-99"/>
          </Node>
        </Node>
      </Node>
    </BinaryTree>
    <BinaryTree type="DecisionTree" boostWeight="1.0000000000000000e+00" itree="6">
      <Node pos="s" depth="0" NCoef="0" IVar="6" Cut="2.8188340663909912e+00" cType="1" res="7.0843305438756943e-03" rms="4.6693617105484009e-01" purity="5.0000000000000000e-01" nType="0">
        <Node pos="l" depth="1" NCoef="0" IVar="6" Cut="2.2555718421936035e+00" cType="1" res="-2.3066058754920959e-01" rms="4.0839263796806335e-01" purity="2.1736319363117218e-01" nType="0">
          <Node pos="l" depth="2" NCoef="0" IVar="1" Cut="5.0361713409423828e+01" cType="1" res="-2.5892785191535950e-01" rms="3.8600507378578186e-01" purity="1.8374866247177124e-01" nType="0">
            <Node pos="l" depth="3" NCoef="0" IVar="-1" Cut="0.0000000000000000e+00" cType="1" res="-1.8178436905145645e-02" rms="3.5349911451339722e-01" purity="1.4701843261718750e-01" nType="-99"/>
            <Node pos="r" depth="3" NCoef="0" IVar="-1" Cut="0.0000000000000000e+00" cType="1" res="-1.3794382102787495e-02" rms="4.4876608252525330e-01" purity="2.8183513879776001e-01" nType="-99"/>
          </Node>
          <Node pos="r" depth="2" NCoef="0" IVar="5" Cut="2.6914022827148438e+02" cType="1" res="-6.8587243556976318e-02" rms="4.8775553703308105e-01" purity="4.1009560227394104e-01" nType="0">
            <Node pos="l" depth="3" NCoef="0" IVar="-1" Cut="0.0000000000000000e+00" cType="1" res="-1.1321299709379673e-02" rms="4.6590033173561096e-01" purity="3.2496842741966248e-01" nType="-99"/>
            <Node pos="r" depth="3" NCoef="0" IVar="-1" Cut="0.0000000000000000e+00" cType="1" res="2.3643728345632553e-03" rms="4.9734652042388916e-01" purity="5.2418261766433716e-01" nType="-99"/>
          </Node>
        </Node>
        <Node pos="r" depth="1" NCoef="0" IVar="5" Cut="4.4176361083984375e+02" cType="1" res="2.8552234172821045e-01" rms="3.6649763584136963e-01" purity="8.3101379871368408e-01" nType="0">
          <Node pos="l" depth="2" NCoef="0" IVar="7" Cut="3.8557939529418945e+00" cType="1" res="6.8746931850910187e-02" rms="4.8849990963935852e-01" purity="5.8377903699874878e-01" nType="0">
            <Node pos="l" depth="3" NCoef="0" IVar="-1" Cut="0.0000000000000000e+00" cType="1" res="7.7664339914917946e-03" rms="4.7470802068710327e-01" purity="6.5373873710632324e-01" nType="-99"/>
            <Node pos="r" depth="3" NCoef="0" IVar="-1" Cut="0.0000000000000000e+00" cType="1" res="-5.0321295857429504e-03" rms="4.8186951875686646e-01" purity="3.7242576479911804e-01" nType="-99"/>
          </Node>
          <Node pos="r" depth="2" NCoef="0" IVar="6" Cut="4.0341563224792480e+00" cType="1" res="3.5617354512214661e-01" rms="2.8287160396575928e-01" purity="9.1159224510192871e-01" nType="0">
            <Node pos="l" depth="3" NCoef="0" IVar="-1" Cut="0.0000000000000000e+00" cType="1" res="1.3724572956562042e-02" rms="3.9962047338485718e-01" purity="8.0040794610977173e-01" nType="-99"/>
            <Node pos="r" depth="3" NCoef="0" IVar="-1" Cut="0.0000000000000000e+00" cType="1" res="1.8196059390902519e-02" rms="2.3460626602172852e-01" purity="9.4142770767211914e-01" nType="-99"/>
          </Node>
        </Node>
      </Node>
    </BinaryTree>
    <BinaryTree type="DecisionTree" boostWeight="1.0000000000000000e+00" itree="7">
      <Node pos="s" depth="0" NCoef="0" IVar="6" Cut="2.8188340663909912e+00" cType="1" res="7.9312771558761597e-03" rms="4.6230337023735046e-01" purity="5.0000000000000000e-01" nType="0">
        <Node pos="l" depth="1" NCoef="0" IVar="6" Cut="2.1992554664611816e+00" cType="1" res="-2.2313781082630157e-01" rms="4.0784937143325806e-01" purity="2.1736319363117218e-01" nType="0">
          <Node pos="l" depth="2" NCoef="0" IVar="1" Cut="4.4617694854736328e+01" cType="1" res="-2.5213184952735901e-01" rms="3.8440623879432678e-01" purity="1.8174310028553009e-01" nType="0">
            <Node pos="l" depth="3" NCoef="0" IVar="-1" Cut="0.0000000000000000e+00" cType="1" res="-1.7421022057533264e-02" rms="3.4617042541503906e-01" purity="1.3965412974357605e-01" nType="-99"/>
            <Node pos="r" depth="3" NCoef="0" IVar="-1" Cut="0.0000000000000000e+00" cType="1" res="-1.5025334432721138e-02" rms="4.4001722335815430e-01" purity="2.6441028714179993e-01" nType="-99"/>
          </Node>
          <Node pos="r" depth="2" NCoef="0" IVar="1" Cut="2.9993989944458008e+01" cType="1" res="-7.4108153581619263e-02" rms="4.8505198955535889e-01" purity="4.0045073628425598e-01" nType="0">
            <Node pos="l" depth="3" NCoef="0" IVar="-1" Cut="0.0000000000000000e+00" cType="1" res="-1.7119966447353363e-02" rms="4.4050914049148560e-01" purity="2.6970165967941284e-01" nType="-99"/>
            <Node pos="r" depth="3" NCoef="0" IVar="-1" Cut="0.0000000000000000e+00" cType="1" res="-8.3843368338420987e-04" rms="4.9499586224555969e-01" purity="4.6731904149055481e-01" nType="-99"/>
          </Node>
        </Node>
        <Node pos="r" depth="1" NCoef="0" IVar="5" Cut="4.0039630126953125e+02" cType="1" res="2.7855083346366882e-01" rms="3.6530977487564087e-01" purity="8.3101379871368408e-01" nType="0">
          <Node pos="l" depth="2" NCoef="0" IVar="5" Cut="2.9483868408203125e+02" cType="1" res="3.4547984600067139e-02" rms="4.9326092004776001e-01" purity="5.4869127273559570e-01" nType="0">
            <Node pos="l" depth="3" NCoef="0" IVar="-1" Cut="0.0000000000000000e+00" cType="1" res="-4.6122618950903416e-03" rms="4.9285250902175903e-01" purity="4.4529154896736145e-01" nType="-99"/>
            <Node pos="r" depth="3" NCoef="0" IVar="-1" Cut="0.0000000000000000e+00" cType="1" res="5.3813452832400799e-03" rms="4.7720876336097717e-01" purity="6.3666802644729614e-01" nType="-99"/>
          </Node>
          <Node pos="r" depth="2" NCoef="0" IVar="6" Cut="4.1508688926696777e+00" cType="1" res="3.3885678648948669e-01" rms="2.9656133055686951e-01" purity="9.0079051256179810e-01" nType="0">
            <Node pos="l" depth="3" NCoef="0" IVar="-1" Cut="0.0000000000000000e+00" cType="1" res="1.3466904871165752e-02" rms="3.9938262104988098e-01" purity="7.9886257648468018e-01" nType="-99"/>
            <Node pos="r" depth="3" NCoef="0" IVar="-1" Cut="0.0000000000000000e+00" cType="1" res="1.7775645479559898e-02" rms="2.3733705282211304e-01" purity="9.3958503007888794e-01" nType="-99"/>
          </Node>
        </Node>
      </Node>
    </BinaryTree>
    <BinaryTree type="DecisionTree" boostWeight="1.0000000000000000e+00" itree="8">
      <Node pos="s" depth="0" NCoef="0" IVar="6" Cut="2.8188340663909912e+00" cType="1" res="8.8412016630172729e-03" rms="4.5789533853530884e-01" purity="5.0000000000000000e-01" nType="0">
        <Node pos="l" depth="1" NCoef="0" IVar="6" Cut="2.2555718421936035e+00" cType="1" res="-2.1581000089645386e-01" rms="4.0736916661262512e-01" purity="2.1736319363117218e-01" nType="0">
          <Node pos="l" depth="2" NCoef="0" IVar="1" Cut="3.7232532501220703e+01" cType="1" res="-2.4250997602939606e-01" rms="3.8576108217239380e-01" purity="1.8374866247177124e-01" nType="0">
            <Node pos="l" depth="3" NCoef="0" IVar="-1" Cut="0.0000000000000000e+00" cType="1" res="-1.8936077132821083e-02" rms="3.3479291200637817e-01" purity="1.2913379073143005e-01" nType="-99"/>
            <Node pos="r" depth="3" NCoef="0" IVar="-1" Cut="0.0000000000000000e+00" cType="1" res="-1.2886060401797295e-02" rms="4.2998549342155457e-01" purity="2.4725887179374695e-01" nType="-99"/>
          </Node>
          <Node pos="r" depth="2" NCoef="0" IVar="5" Cut="2.6914022827148438e+02" cType="1" res="-6.2722891569137573e-02" rms="4.8650726675987244e-01" purity="4.1009560227394104e-01" nType="0">
            <Node pos="l" depth="3" NCoef="0" IVar="-1" Cut="0.0000000000000000e+00" cType="1" res="-1.0638215579092503e-02" rms="4.6516889333724976e-01" purity="3.2496842741966248e-01" nType="-99"/>
            <Node pos="r" depth="3" NCoef="0" IVar="-1" Cut="0.0000000000000000e+00" cType="1" res="2.4696770124137402e-03" rms="4.9694043397903442e-01" purity="5.2418261766433716e-01" nType="-99"/>
          </Node>
        </Node>
        <Node pos="r" depth="1" NCoef="0" IVar="5" Cut="4.2797451782226562e+02" cType="1" res="2.7194434404373169e-01" rms="3.6406031250953674e-01" purity="8.3101379871368408e-01" nType="0">
          <Node pos="l" depth="2" NCoef="0" IVar="7" Cut="3.8165605068206787e+00" cType="1" res="5.6648921221494675e-02" rms="4.8878470063209534e-01" purity="5.7447290420532227e-01" nType="0">
            <Node pos="l" depth="3" NCoef="0" IVar="-1" Cut="0.0000000000000000e+00" cType="1" res="7.2133163921535015e-03" rms="4.7594854235649109e-01" purity="6.4810115098953247e-01" nType="-99"/>
            <Node pos="r" depth="3" NCoef="0" IVar="-1" Cut="0.0000000000000000e+00" cType="1" res="-5.4391412995755672e-03" rms="4.7821524739265442e-01" purity="3.5926529765129089e-01" nType="-99"/>
          </Node>
          <Node pos="r" depth="2" NCoef="0" IVar="6" Cut="3.8396348953247070e+00" cType="1" res="3.3695089817047119e-01" rms="2.8670680522918701e-01" purity="9.0847396850585938e-01" nType="0">
            <Node pos="l" depth="3" NCoef="0" IVar="-1" Cut="0.0000000000000000e+00" cType="1" res="1.2094791047275066e-02" rms="4.1576564311981201e-01" purity="7.7734094858169556e-01" nType="-99"/>
            <Node pos="r" depth="3" NCoef="0" IVar="-1" Cut="0.0000000000000000e+00" cType="1" res="1.7356695607304573e-02" rms="2.4703548848628998e-01" purity="9.3430721759796143e-01" nType="-99"/>
          </Node>
        </Node>
      </Node>
    </BinaryTree>
    <BinaryTree type="DecisionTree" boostWeight="1.0000000000000000e+00" itree="9">
      <Node pos="s" depth="0" NCoef="0" IVar="6" Cut="2.8002285957336426e+00" cType="1" res="9.5949983224272728e-03" rms="4.5362293720245361e-01" purity="5.0000000000000000e-01" nType="0">
        <Node pos="l" depth="1" NCoef="0" IVar="6" Cut="2.1959452629089355e+00" cType="1" res="-2.1001517772674561e-01" rms="4.0593481063842773e-01" purity="2.1579010784626007e-01" nType="0">
          <Node pos="l" depth="2" NCoef="0" IVar="7" Cut="3.2405059337615967e+00" cType="1" res="-2.3619420826435089e-01" rms="3.8407242298126221e-01" purity="1.8166898190975189e-01" nType="0">
            <Node pos="l" depth="3" NCoef="0" IVar="-1" Cut="0.0000000000000000e+00" cType="1" res="-2.3508336395025253e-02" rms="3.3513477444648743e-01" purity="1.2958151102066040e-01" nType="-99"/>
            <Node pos="r" depth="3" NCoef="0" IVar="-1" Cut="0.0000000000000000e+00" cType="1" res="-9.3998434022068977e-03" rms="4.3123665452003479e-01" purity="2.4899622797966003e-01" nType="-99"/>
          </Node>
          <Node pos="r" depth="2" NCoef="0" IVar="3" Cut="1.2866384887695312e+02" cType="1" res="-7.1625135838985443e-02" rms="4.8302203416824341e-01" purity="3.9616453647613525e-01" nType="0">
            <Node pos="l" depth="3" NCoef="0" IVar="-1" Cut="0.0000000000000000e+00" cType="1" res="-1.0361833497881889e-02" rms="4.6495005488395691e-01" purity="3.2537987828254700e-01" nType="-99"/>
            <Node pos="r" depth="3" NCoef="0" IVar="-1" Cut="0.0000000000000000e+00" cType="1" res="3.2384775113314390e-03" rms="4.9654942750930786e-01" purity="5.3946852684020996e-01" nType="-99"/>
          </Node>
        </Node>
        <Node pos="r" depth="1" NCoef="0" IVar="5" Cut="4.4176361083984375e+02" cType="1" res="2.6381918787956238e-01" rms="3.6436948180198669e-01" purity="8.2900577783584595e-01" nType="0">
          <Node pos="l" depth="2" NCoef="0" IVar="7" Cut="3.8557939529418945e+00" cType="1" res="5.9804059565067291e-02" rms="4.8685017228126526e-01" purity="5.8024692535400391e-01" nType="0">
            <Node pos="l" depth="3" NCoef="0" IVar="-1" Cut="0.0000000000000000e+00" cType="1" res="7.0763421244919300e-03" rms="4.7477191686630249e-01" purity="6.4981430768966675e-01" nType="-99"/>
            <Node pos="r" depth="3" NCoef="0" IVar="-1" Cut="0.0000000000000000e+00" cType="1" res="-5.0443578511476517e-03" rms="4.7992798686027527e-01" purity="3.6963939666748047e-01" nType="-99"/>
          </Node>
          <Node pos="r" depth="2" NCoef="0" IVar="6" Cut="4.0377860069274902e+00" cType="1" res="3.3146890997886658e-01" rms="2.8251722455024719e-01" purity="9.1149216890335083e-01" nType="0">
            <Node pos="l" depth="3" NCoef="0" IVar="-1" Cut="0.0000000000000000e+00" cType="1" res="1.2791341170668602e-02" rms="3.9961111545562744e-01" purity="8.0048161745071411e-01" nType="-99"/>
            <Node pos="r" depth="3" NCoef="0" IVar="-1" Cut="0.0000000000000000e+00" cType="1" res="1.7229231074452400e-02" rms="2.3414090275764465e-01" purity="9.4166797399520874e-01" nType="-99"/>
          </Node>
        </Node>
      </Node>
    </BinaryTree>
    <BinaryTree type="DecisionTree" boostWeight="1.0000000000000000e+00" itree="10">
      <Node pos="s" depth="0" NCoef="0" IVar="6" Cut="3.0234951972961426e+00" cType="1" res="1.0649343952536583e-02" rms="4.4925829768180847e-01" purity="5.0000000000000000e-01" nType="0">
        <Node pos="l" depth="1" NCoef="0" IVar="6" Cut="2.2532012462615967e+00" cType="1" res="-1.8879991769790649e-01" rms="4.1412505507469177e-01" purity="2.3592974245548248e-01" nType="0">
          <Node pos="l" depth="2" NCoef="0" IVar="1" Cut="5.2823436737060547e+01" cType="1" res="-2.2641280293464661e-01" rms="3.8499519228935242e-01" purity="1.8366199731826782e-01" nType="0">
            <Node pos="l" depth="3" NCoef="0" IVar="-1" Cut="0.0000000000000000e+00" cType="1" res="-1.6475133597850800e-02" rms="3.5479635000228882e-01" purity="1.4897593855857849e-01" nType="-99"/>
            <Node pos="r" depth="3" NCoef="0" IVar="-1" Cut="0.0000000000000000e+00" cType="1" res="-1.1001706123352051e-02" rms="4.5046946406364441e-01" purity="2.8697854280471802e-01" nType="-99"/>
          </Node>
          <Node pos="r" depth="2" NCoef="0" IVar="7" Cut="3.7523074150085449e+00" cType="1" res="-3.2485865056514740e-02" rms="4.8777800798416138e-01" purity="4.5314741134643555e-01" nType="0">
            <Node pos="l" depth="3" NCoef="0" IVar="-1" Cut="0.0000000000000000e+00" cType="1" res="1.3251004274934530e-03" rms="4.9039542675018311e-01" purity="5.0937408208847046e-01" nType="-99"/>
            <Node pos="r" depth="3" NCoef="0" IVar="-1" Cut="0.0000000000000000e+00" cType="1" res="-1.8059104681015015e-02" rms="4.3502023816108704e-01" purity="2.6366436481475830e-01" nType="-99"/>
          </Node>
        </Node>
        <Node pos="r" depth="1" NCoef="0" IVar="5" Cut="3.7341799926757812e+02" cType="1" res="2.7440175414085388e-01" rms="3.4608599543571472e-01" purity="8.4920746088027954e-01" nType="0">
          <Node pos="l" depth="2" NCoef="0" IVar="-1" Cut="0.0000000000000000e+00" cType="1" res="4.5661188778467476e-04" rms="4.9362698197364807e-01" purity="5.2525132894515991e-01" nType="-99"/>
          <Node pos="r" depth="2" NCoef="0" IVar="5" Cut="6.7944677734375000e+02" cType="1" res="3.1608083844184875e-01" rms="2.9583114385604858e-01" purity="9.0010881423950195e-01" nType="0">
            <Node pos="l" depth="3" NCoef="0" IVar="-1" Cut="0.0000000000000000e+00" cType="1" res="1.2947759591042995e-02" rms="3.9236041903495789e-01" purity="8.0522477626800537e-01" nType="-99"/>
            <Node pos="r" depth="3" NCoef="0" IVar="-1" Cut="0.0000000000000000e+00" cType="1" res="1.7009738832712173e-02" rms="2.2518636286258698e-01" purity="9.4604599475860596e-01" nType="-99"/>
          </Node>
        </Node>
      </Node>
    </BinaryTree>
    <BinaryTree type="DecisionTree" boostWeight="1.0000000000000000e+00" itree="11">
      <Node pos="s" depth="0" NCoef="0" IVar="6" Cut="2.8188340663909912e+00" cType="1" res="1.1323475278913975e-02" rms="4.4540399312973022e-01" purity="5.0000000000000000e-01" nType="0">
        <Node pos="l" depth="1" NCoef="0" IVar="6" Cut="2.1964395046234131e+00" cType="1" res="-1.9483384490013123e-01" rms="4.0548145771026611e-01" purity="2.1736319363117218e-01" nType="0">
          <Node pos="l" depth="2" NCoef="0" IVar="1" Cut="4.4617694854736328e+01" cType="1" res="-2.2051927447319031e-01" rms="3.8345599174499512e-01" purity="1.8166720867156982e-01" nType="0">
            <Node pos="l" depth="3" NCoef="0" IVar="-1" Cut="0.0000000000000000e+00" cType="1" res="-1.5765413641929626e-02" rms="3.4581941366195679e-01" purity="1.3972611725330353e-01" nType="-99"/>
            <Node pos="r" depth="3" NCoef="0" IVar="-1" Cut="0.0000000000000000e+00" cType="1" res="-1.2844485230743885e-02" rms="4.3911921977996826e-01" purity="2.6412540674209595e-01" nType="-99"/>
          </Node>
          <Node pos="r" depth="2" NCoef="0" IVar="1" Cut="4.6980823516845703e+01" cType="1" res="-6.3495188951492310e-02" rms="4.8233306407928467e-01" purity="3.9988923072814941e-01" nType="0">
            <Node pos="l" depth="3" NCoef="0" IVar="-1" Cut="0.0000000000000000e+00" cType="1" res="-9.6530197188258171e-03" rms="4.6482115983963013e-01" purity="3.3268758654594421e-01" nType="-99"/>
            <Node pos="r" depth="3" NCoef="0" IVar="-1" Cut="0.0000000000000000e+00" cType="1" res="3.6519155837595463e-03" rms="4.9583756923675537e-01" purity="5.3826713562011719e-01" nType="-99"/>
          </Node>
        </Node>
        <Node pos="r" depth="1" NCoef="0" IVar="5" Cut="3.7281808471679688e+02" cType="1" res="2.5276726484298706e-01" rms="3.6069104075431824e-01" purity="8.3101379871368408e-01" nType="0">
          <Node pos="l" depth="2" NCoef="0" IVar="5" Cut="2.9468728637695312e+02" cType="1" res="4.9625663086771965e-03" rms="4.9325692653656006e-01" purity="5.2188205718994141e-01" nType="0">
            <Node pos="l" depth="3" NCoef="0" IVar="-1" Cut="0.0000000000000000e+00" cType="1" res="-4.7763125039637089e-03" rms="4.9118664860725403e-01" purity="4.4424989819526672e-01" nType="-99"/>
            <Node pos="r" depth="3" NCoef="0" IVar="-1" Cut="0.0000000000000000e+00" cType="1" res="3.7471330724656582e-03" rms="4.8161232471466064e-01" purity="6.1340242624282837e-01" nType="-99"/>
          </Node>
          <Node pos="r" depth="2" NCoef="0" IVar="5" Cut="6.5874401855468750e+02" cType="1" res="3.0274847149848938e-01" rms="3.0394318699836731e-01" purity="8.9336431026458740e-01" nType="0">
            <Node pos="l" depth="3" NCoef="0" IVar="-1" Cut="0.0000000000000000e+00" cType="1" res="1.2173796072602272e-02" rms="4.0207344293594360e-01" purity="7.9191762208938599e-01" nType="-99"/>
            <Node pos="r" depth="3" NCoef="0" IVar="-1" Cut="0.0000000000000000e+00" cType="1" res="1.6599413007497787e-02" rms="2.3416815698146820e-01" purity="9.4118833541870117e-01" nType="-99"/>
          </Node>
        </Node>
      </Node>
    </BinaryTree>
    <BinaryTree type="DecisionTree" boostWeight="1.0000000000000000e+00" itree="12">
      <Node pos="s" depth="0" NCoef="0" IVar="6" Cut="3.0234951972961426e+00" cType="1" res="1.1983562260866165e-02" rms="4.4175150990486145e-01" purity="5.0000000000000000e-01" nType="0">
        <Node pos="l" depth="1" NCoef="0" IVar="6" Cut="2.2532012462615967e+00" cType="1" res="-1.7670555412769318e-01" rms="4.1279950737953186e-01" purity="2.3592974245548248e-01" nType="0">
          <Node pos="l" depth="2" NCoef="0" IVar="3" Cut="1.4592152404785156e+02" cType="1" res="-2.1213187277317047e-01" rms="3.8473680615425110e-01" purity="1.8366199731826782e-01" nType="0">
            <Node pos="l" depth="3" NCoef="0" IVar="-1" Cut="0.0000000000000000e+00" cType="1" res="-1.5564302913844585e-02" rms="3.5455012321472168e-01" purity="1.4915066957473755e-01" nType="-99"/>
            <Node pos="r" depth="3" NCoef="0" IVar="-1" Cut="0.0000000000000000e+00" cType="1" res="-1.0829406790435314e-02" rms="4.4412305951118469e-01" purity="2.7629995346069336e-01" nType="-99"/>
          </Node>
          <Node pos="r" depth="2" NCoef="0" IVar="7" Cut="3.7523074150085449e+00" cType="1" res="-2.9478514567017555e-02" rms="4.8633769154548645e-01" purity="4.5314741134643555e-01" nType="0">
            <Node pos="l" depth="3" NCoef="0" IVar="-1" Cut="0.0000000000000000e+00" cType="1" res="1.3674366055056453e-03" rms="4.8971095681190491e-01" purity="5.0937408208847046e-01" nType="-99"/>
            <Node pos="r" depth="3" NCoef="0" IVar="-1" Cut="0.0000000000000000e+00" cType="1" res="-1.7155192792415619e-02" rms="4.3470829725265503e-01" purity="2.6366436481475830e-01" nType="-99"/>
          </Node>
        </Node>
        <Node pos="r" depth="1" NCoef="0" IVar="5" Cut="3.7341799926757812e+02" cType="1" res="2.6150670647621155e-01" rms="3.4426423907279968e-01" purity="8.4920746088027954e-01" nType="0">
          <Node pos="l" depth="2" NCoef="0" IVar="-1" Cut="0.0000000000000000e+00" cType="1" res="4.5427735312841833e-04" rms="4.9328616261482239e-01" purity="5.2525132894515991e-01" nType="-99"/>
          <Node pos="r" depth="2" NCoef="0" IVar="5" Cut="6.7944677734375000e+02" cType="1" res="3.0116704106330872e-01" rms="2.9550448060035706e-01" purity="9.0010881423950195e-01" nType="0">
            <Node pos="l" depth="3" NCoef="0" IVar="-1" Cut="0.0000000000000000e+00" cType="1" res="1.2363807298243046e-02" rms="3.9235457777976990e-01" purity="8.0522477626800537e-01" nType="-99"/>
            <Node pos="r" depth="3" NCoef="0" IVar="-1" Cut="0.0000000000000000e+00" cType="1" res="1.6454624012112617e-02" rms="2.2519482672214508e-01" purity="9.4604599475860596e-01" nType="-99"/>
          </Node>
        </Node>
      </Node>
    </BinaryTree>
    <BinaryTree type="DecisionTree" boostWeight="1.0000000000000000e+00" itree="13">
      <Node pos="s" depth="0" NCoef="0" IVar="6" Cut="2.8002285957336426e+00" cType="1" res="1.2560592964291573e-02" rms="4.3825209140777588e-01" purity="5.0000000000000000e-01" nType="0">
        <Node pos="l" depth="1" NCoef="0" IVar="1" Cut="4.7079418182373047e+01" cType="1" res="-1.8361978232860565e-01" rms="4.0381932258605957e-01" purity="2.1579010784626007e-01" nType="0">
          <Node pos="l" depth="2" NCoef="0" IVar="3" Cut="7.7719993591308594e+01" cType="1" res="-2.2115762531757355e-01" rms="3.7186065316200256e-01" purity="1.7208996415138245e-01" nType="0">
            <Node pos="l" depth="3" NCoef="0" IVar="-1" Cut="0.0000000000000000e+00" cType="1" res="-2.0219996571540833e-02" rms="3.1066825985908508e-01" purity="1.1120956391096115e-01" nType="-99"/>
            <Node pos="r" depth="3" NCoef="0" IVar="-1" Cut="0.0000000000000000e+00" cType="1" res="-1.0771305300295353e-02" rms="4.0611943602561951e-01" purity="2.1760043501853943e-01" nType="-99"/>
          </Node>
          <Node pos="r" depth="2" NCoef="0" IVar="6" Cut="1.7539738416671753e+00" cType="1" res="-9.9568970501422882e-02" rms="4.5646134018898010e-01" purity="3.1363892555236816e-01" nType="0">
            <Node pos="l" depth="3" NCoef="0" IVar="-1" Cut="0.0000000000000000e+00" cType="1" res="-1.3317056931555271e-02" rms="4.3172740936279297e-01" purity="2.5127097964286804e-01" nType="-99"/>
            <Node pos="r" depth="3" NCoef="0" IVar="-1" Cut="0.0000000000000000e+00" cType="1" res="1.2831515632569790e-03" rms="4.9227145314216614e-01" purity="4.6594780683517456e-01" nType="-99"/>
          </Node>
        </Node>
        <Node pos="r" depth="1" NCoef="0" IVar="5" Cut="4.4176361083984375e+02" cType="1" res="2.3966208100318909e-01" rms="3.5986360907554626e-01" purity="8.2900577783584595e-01" nType="0">
          <Node pos="l" depth="2" NCoef="0" IVar="7" Cut="3.8557939529418945e+00" cType="1" res="5.3174808621406555e-02" rms="4.8425731062889099e-01" purity="5.8024692535400391e-01" nType="0">
            <Node pos="l" depth="3" NCoef="0" IVar="-1" Cut="0.0000000000000000e+00" cType="1" res="6.5557970665395260e-03" rms="4.7315886616706848e-01" purity="6.4981430768966675e-01" nType="-99"/>
            <Node pos="r" depth="3" NCoef="0" IVar="-1" Cut="0.0000000000000000e+00" cType="1" res="-5.0084479153156281e-03" rms="4.7781884670257568e-01" purity="3.6963939666748047e-01" nType="-99"/>
          </Node>
          <Node pos="r" depth="2" NCoef="0" IVar="6" Cut="4.0377860069274902e+00" cType="1" res="3.0149969458580017e-01" rms="2.8165185451507568e-01" purity="9.1149216890335083e-01" nType="0">
            <Node pos="l" depth="3" NCoef="0" IVar="-1" Cut="0.0000000000000000e+00" cType="1" res="1.1611063964664936e-02" rms="3.9886087179183960e-01" purity="8.0048161745071411e-01" nType="-99"/>
            <Node pos="r" depth="3" NCoef="0" IVar="-1" Cut="0.0000000000000000e+00" cType="1" res="1.6139162704348564e-02" rms="2.3384019732475281e-01" purity="9.4166797399520874e-01" nType="-99"/>
          </Node>
        </Node>
      </Node>
    </BinaryTree>
    <BinaryTree type="DecisionTree" boostWeight="1.0000000000000000e+00" itree="14">
      <Node pos="s" depth="0" NCoef="0" IVar="6" Cut="3.0421006679534912e+00" cType="1" res="1.3173387385904789e-02" rms="4.3477463722229004e-01" purity="5.0000000000000000e-01" nType="0">
        <Node pos="l" depth="1" NCoef="0" IVar="6" Cut="2.2543797492980957e+00" cType="1" res="-1.6404506564140320e-01" rms="4.1217043995857239e-01" purity="2.3805315792560577e-01" nType="0">
          <Node pos="l" depth="2" NCoef="0" IVar="3" Cut="1.5767596435546875e+02" cType="1" res="-1.9892337918281555e-01" rms="3.8421767950057983e-01" purity="1.8363675475120544e-01" nType="0">
            <Node pos="l" depth="3" NCoef="0" IVar="-1" Cut="0.0000000000000000e+00" cType="1" res="-1.4851200394332409e-02" rms="3.5760009288787842e-01" purity="1.5273731946945190e-01" nType="-99"/>
            <Node pos="r" depth="3" NCoef="0" IVar="-1" Cut="0.0000000000000000e+00" cType="1" res="-9.1644357889890671e-03" rms="4.4917345046997070e-01" purity="2.8681567311286926e-01" nType="-99"/>
          </Node>
          <Node pos="r" depth="2" NCoef="0" IVar="5" Cut="2.2531486511230469e+02" cType="1" res="-2.3453526198863983e-02" rms="4.8471435904502869e-01" purity="4.5740100741386414e-01" nType="0">
            <Node pos="l" depth="3" NCoef="0" IVar="-1" Cut="0.0000000000000000e+00" cType="1" res="-1.1300935409963131e-02" rms="4.5538344979286194e-01" purity="3.0833452939987183e-01" nType="-99"/>
            <Node pos="r" depth="3" NCoef="0" IVar="-1" Cut="0.0000000000000000e+00" cType="1" res="3.0321408994495869e-03" rms="4.8810696601867676e-01" purity="5.4503113031387329e-01" nType="-99"/>
          </Node>
        </Node>
        <Node pos="r" depth="1" NCoef="0" IVar="5" Cut="3.7341799926757812e+02" cType="1" res="2.5090259313583374e-01" rms="3.4068334102630615e-01" purity="8.5138785839080811e-01" nType="0">
          <Node pos="l" depth="2" NCoef="0" IVar="-1" Cut="0.0000000000000000e+00" cType="1" res="3.6298955092206597e-04" rms="4.9282589554786682e-01" purity="5.2526468038558960e-01" nType="-99"/>
          <Node pos="r" depth="2" NCoef="0" IVar="5" Cut="6.7944677734375000e+02" cType="1" res="2.8800341486930847e-01" rms="2.9383081197738647e-01" purity="9.0105992555618286e-01" nType="0">
            <Node pos="l" depth="3" NCoef="0" IVar="-1" Cut="0.0000000000000000e+00" cType="1" res="1.1882744729518890e-02" rms="3.9136463403701782e-01" purity="8.0624526739120483e-01" nType="-99"/>
            <Node pos="r" depth="3" NCoef="0" IVar="-1" Cut="0.0000000000000000e+00" cType="1" res="1.5968464314937592e-02" rms="2.2417622804641724e-01" purity="9.4653964042663574e-01" nType="-99"/>
          </Node>
        </Node>
      </Node>
    </BinaryTree>
    <BinaryTree type="DecisionTree" boostWeight="1.0000000000000000e+00" itree="15">
      <Node pos="s" depth="0" NCoef="0" IVar="6" Cut="3.2095506191253662e+00" cType="1" res="1.3654324226081371e-02" rms="4.3158340454101562e-01" purity="5.0000000000000000e-01" nType="0">
        <Node pos="l" depth="1" NCoef="0" IVar="6" Cut="2.2540209293365479e+00" cType="1" res="-1.5155492722988129e-01" rms="4.1571384668350220e-01" purity="2.5078719854354858e-01" nType="0">
          <Node pos="l" depth="2" NCoef="0" IVar="7" Cut="3.3384222984313965e+00" cType="1" res="-1.9255699217319489e-01" rms="3.8408234715461731e-01" purity="1.8363688886165619e-01" nType="0">
            <Node pos="l" depth="3" NCoef="0" IVar="-1" Cut="0.0000000000000000e+00" cType="1" res="-2.0290412008762360e-02" rms="3.4387478232383728e-01" purity="1.3897186517715454e-01" nType="-99"/>
            <Node pos="r" depth="3" NCoef="0" IVar="-1" Cut="0.0000000000000000e+00" cType="1" res="-6.6190506331622601e-03" rms="4.3466281890869141e-01" purity="2.5779184699058533e-01" nType="-99"/>
          </Node>
          <Node pos="r" depth="2" NCoef="0" IVar="5" Cut="2.9543545532226562e+02" cType="1" res="-1.1762995272874832e-02" rms="4.8352634906768799e-01" purity="4.7972860932350159e-01" nType="0">
            <Node pos="l" depth="3" NCoef="0" IVar="-1" Cut="0.0000000000000000e+00" cType="1" res="-7.1295648813247681e-03" rms="4.7235754132270813e-01" purity="3.6518290638923645e-01" nType="-99"/>
            <Node pos="r" depth="3" NCoef="0" IVar="-1" Cut="0.0000000000000000e+00" cType="1" res="5.6259660050272942e-03" rms="4.7797116637229919e-01" purity="6.1564528942108154e-01" nType="-99"/>
          </Node>
        </Node>
        <Node pos="r" depth="1" NCoef="0" IVar="5" Cut="3.4950912475585938e+02" cType="1" res="2.5503718852996826e-01" rms="3.2827699184417725e-01" purity="8.6411821842193604e-01" nType="0">
          <Node pos="l" depth="2" NCoef="0" IVar="-1" Cut="0.0000000000000000e+00" cType="1" res="-2.1320284577086568e-04" rms="4.9293509125709534e-01" purity="5.1294153928756714e-01" nType="-99"/>
          <Node pos="r" depth="2" NCoef="0" IVar="5" Cut="6.5649096679687500e+02" cType="1" res="2.8306967020034790e-01" rms="2.9173234105110168e-01" purity="9.0200591087341309e-01" nType="0">
            <Node pos="l" depth="3" NCoef="0" IVar="-1" Cut="0.0000000000000000e+00" cType="1" res="1.1575643904507160e-02" rms="3.9595359563827515e-01" purity="7.9925972223281860e-01" nType="-99"/>
            <Node pos="r" depth="3" NCoef="0" IVar="-1" Cut="0.0000000000000000e+00" cType="1" res="1.5748869627714157e-02" rms="2.2499862313270569e-01" purity="9.4613218307495117e-01" nType="-99"/>
          </Node>
        </Node>
      </Node>
    </BinaryTree>
    <BinaryTree type="DecisionTree" boostWeight="1.0000000000000000e+00" itree="16">
      <Node pos="s" depth="0" NCoef="0" IVar="6" Cut="3.2188532352447510e+00" cType="1" res="1.4495151117444038e-02" rms="4.2823287844657898e-01" purity="5.0000000000000000e-01" nType="0">
        <Node pos="l" depth="1" NCoef="0" IVar="6" Cut="2.2541780471801758e+00" cType="1" res="-1.4555719494819641e-01" rms="4.1507917642593384e-01" purity="2.5148358941078186e-01" nType="0">
          <Node pos="l" depth="2" NCoef="0" IVar="1" Cut="5.2823436737060547e+01" cType="1" res="-1.8550267815589905e-01" rms="3.8369494676589966e-01" purity="1.8363688886165619e-01" nType="0">
            <Node pos="l" depth="3" NCoef="0" IVar="-1" Cut="0.0000000000000000e+00" cType="1" res="-1.4322303235530853e-02" rms="3.5396447777748108e-01" purity="1.4895029366016388e-01" nType="-99"/>
            <Node pos="r" depth="3" NCoef="0" IVar="-1" Cut="0.0000000000000000e+00" cType="1" res="-8.2449913024902344e-03" rms="4.4934710860252380e-01" purity="2.8696954250335693e-01" nType="-99"/>
          </Node>
          <Node pos="r" depth="2" NCoef="0" IVar="7" Cut="3.9158494472503662e+00" cType="1" res="-1.0581093840301037e-02" rms="4.8310309648513794e-01" purity="4.8073819279670715e-01" nType="0">
            <Node pos="l" depth="3" NCoef="0" IVar="-1" Cut="0.0000000000000000e+00" cType="1" res="2.1877612452954054e-03" rms="4.8471444845199585e-01" purity="5.3251421451568604e-01" nType="-99"/>
            <Node pos="r" depth="3" NCoef="0" IVar="-1" Cut="0.0000000000000000e+00" cType="1" res="-1.6305822879076004e-02" rms="4.3420460820198059e-01" purity="2.7126255631446838e-01" nType="-99"/>
          </Node>
        </Node>
        <Node pos="r" depth="1" NCoef="0" IVar="5" Cut="3.7009457397460938e+02" cType="1" res="2.4952036142349243e-01" rms="3.2683175802230835e-01" purity="8.6492824554443359e-01" nType="0">
          <Node pos="l" depth="2" NCoef="0" IVar="-1" Cut="0.0000000000000000e+00" cType="1" res="5.6614831555634737e-04" rms="4.9223095178604126e-01" purity="5.3142112493515015e-01" nType="-99"/>
          <Node pos="r" depth="2" NCoef="0" IVar="5" Cut="6.5606378173828125e+02" cType="1" res="2.7897021174430847e-01" rms="2.8661122918128967e-01" purity="9.0633726119995117e-01" nType="0">
            <Node pos="l" depth="3" NCoef="0" IVar="-1" Cut="0.0000000000000000e+00" cType="1" res="1.1490530334413052e-02" rms="3.9064985513687134e-01" purity="8.0742692947387695e-01" nType="-99"/>
            <Node pos="r" depth="3" NCoef="0" IVar="-1" Cut="0.0000000000000000e+00" cType="1" res="1.5522184781730175e-02" rms="2.2474189102649689e-01" purity="9.4627004861831665e-01" nType="-99"/>
          </Node>
        </Node>
      </Node>
    </BinaryTree>
    <BinaryTree type="DecisionTree" boostWeight="1.0000000000000000e+00" itree="17">
      <Node pos="s" depth="0" NCoef="0" IVar="6" Cut="3.2560644149780273e+00" cType="1" res="1.4896480366587639e-02" rms="4.2531642317771912e-01" purity="5.0000000000000000e-01" nType="0">
        <Node pos="l" depth="1" NCoef="0" IVar="6" Cut="2.2540192604064941e+00" cType="1" res="-1.3928458094596863e-01" rms="4.1530039906501770e-01" purity="2.5439885258674622e-01" nType="0">
          <Node pos="l" depth="2" NCoef="0" IVar="3" Cut="1.4592152404785156e+02" cType="1" res="-1.7958113551139832e-01" rms="3.8355082273483276e-01" purity="1.8363688886165619e-01" nType="0">
            <Node pos="l" depth="3" NCoef="0" IVar="-1" Cut="0.0000000000000000e+00" cType="1" res="-1.3862513005733490e-02" rms="3.5381314158439636e-01" purity="1.4912477135658264e-01" nType="-99"/>
            <Node pos="r" depth="3" NCoef="0" IVar="-1" Cut="0.0000000000000000e+00" cType="1" res="-8.6237359791994095e-03" rms="4.4319170713424683e-01" purity="2.7628961205482483e-01" nType="-99"/>
          </Node>
          <Node pos="r" depth="2" NCoef="0" IVar="5" Cut="2.9835714721679688e+02" cType="1" res="-7.7906996011734009e-03" rms="4.8233711719512939e-01" purity="4.8530620336532593e-01" nType="0">
            <Node pos="l" depth="3" NCoef="0" IVar="-1" Cut="0.0000000000000000e+00" cType="1" res="-6.6564930602908134e-03" rms="4.7273486852645874e-01" purity="3.6842417716979980e-01" nType="-99"/>
            <Node pos="r" depth="3" NCoef="0" IVar="-1" Cut="0.0000000000000000e+00" cType="1" res="5.5333008058369160e-03" rms="4.7620198130607605e-01" purity="6.2069386243820190e-01" nType="-99"/>
          </Node>
        </Node>
        <Node pos="r" depth="1" NCoef="0" IVar="5" Cut="3.7009457397460938e+02" cType="1" res="2.4588580429553986e-01" rms="3.2332310080528259e-01" purity="8.6795204877853394e-01" nType="0">
          <Node pos="l" depth="2" NCoef="0" IVar="-1" Cut="0.0000000000000000e+00" cType="1" res="5.6100310757756233e-04" rms="4.9206253886222839e-01" purity="5.3167527914047241e-01" nType="-99"/>
          <Node pos="r" depth="2" NCoef="0" IVar="5" Cut="6.5606378173828125e+02" cType="1" res="2.7346491813659668e-01" rms="2.8475961089134216e-01" purity="9.0766513347625732e-01" nType="0">
            <Node pos="l" depth="3" NCoef="0" IVar="-1" Cut="0.0000000000000000e+00" cType="1" res="1.1338617652654648e-02" rms="3.8888004422187805e-01" purity="8.0987256765365601e-01" nType="-99"/>
            <Node pos="r" depth="3" NCoef="0" IVar="-1" Cut="0.0000000000000000e+00" cType="1" res="1.5319066122174263e-02" rms="2.2380076348781586e-01" purity="9.4676160812377930e-01" nType="-99"/>
          </Node>
        </Node>
      </Node>
    </BinaryTree>
    <BinaryTree type="DecisionTree" boostWeight="1.0000000000000000e+00" itree="18">
      <Node pos="s" depth="0" NCoef="0" IVar="6" Cut="3.2560644149780273e+00" cType="1" res="1.5244265086948872e-02" rms="4.2255729436874390e-01" purity="5.0000000000000000e-01" nType="0">
        <Node pos="l" depth="1" NCoef="0" IVar="6" Cut="2.2540192604064941e+00" cType="1" res="-1.3478845357894897e-01" rms="4.1468897461891174e-01" purity="2.5439885258674622e-01" nType="0">
          <Node pos="l" depth="2" NCoef="0" IVar="1" Cut="3.7232532501220703e+01" cType="1" res="-1.7385962605476379e-01" rms="3.8343000411987305e-01" purity="1.8363688886165619e-01" nType="0">
            <Node pos="l" depth="3" NCoef="0" IVar="-1" Cut="0.0000000000000000e+00" cType="1" res="-1.5251122415065765e-02" rms="3.3366566896438599e-01" purity="1.2920342385768890e-01" nType="-99"/>
            <Node pos="r" depth="3" NCoef="0" IVar="-1" Cut="0.0000000000000000e+00" cType="1" res="-8.8740838691592216e-03" rms="4.2775902152061462e-01" purity="2.4694414436817169e-01" nType="-99"/>
          </Node>
          <Node pos="r" depth="2" NCoef="0" IVar="5" Cut="2.2531486511230469e+02" cType="1" res="-7.2931968607008457e-03" rms="4.8181006312370300e-01" purity="4.8530620336532593e-01" nType="0">
            <Node pos="l" depth="3" NCoef="0" IVar="-1" Cut="0.0000000000000000e+00" cType="1" res="-1.0505689308047295e-02" rms="4.5640105009078979e-01" purity="3.1175544857978821e-01" nType="-99"/>
            <Node pos="r" depth="3" NCoef="0" IVar="-1" Cut="0.0000000000000000e+00" cType="1" res="3.3316784538328648e-03" rms="4.8273569345474243e-01" purity="5.6880635023117065e-01" nType="-99"/>
          </Node>
        </Node>
        <Node pos="r" depth="1" NCoef="0" IVar="5" Cut="3.4264727783203125e+02" cType="1" res="2.4001868069171906e-01" rms="3.2276481389999390e-01" purity="8.6795204877853394e-01" nType="0">
          <Node pos="l" depth="2" NCoef="0" IVar="-1" Cut="0.0000000000000000e+00" cType="1" res="-6.5637956140562892e-04" rms="4.9242073297500610e-01" purity="5.0310283899307251e-01" nType="-99"/>
          <Node pos="r" depth="2" NCoef="0" IVar="5" Cut="6.5659509277343750e+02" cType="1" res="2.6406973600387573e-01" rms="2.9056879878044128e-01" purity="9.0231978893280029e-01" nType="0">
            <Node pos="l" depth="3" NCoef="0" IVar="-1" Cut="0.0000000000000000e+00" cType="1" res="1.0912989266216755e-02" rms="3.9543893933296204e-01" purity="7.9937386512756348e-01" nType="-99"/>
            <Node pos="r" depth="3" NCoef="0" IVar="-1" Cut="0.0000000000000000e+00" cType="1" res="1.5098022297024727e-02" rms="2.2386570274829865e-01" purity="9.4673007726669312e-01" nType="-99"/>
          </Node>
        </Node>
      </Node>
    </BinaryTree>
    <BinaryTree type="DecisionTree" boostWeight="1.0000000000000000e+00" itree="19">
      <Node pos="s" depth="0" NCoef="0" IVar="6" Cut="3.2560644149780273e+00" cType="1" res="1.5595913864672184e-02" rms="4.1987735033035278e-01" purity="5.0000000000000000e-01" nType="0">
        <Node pos="l" depth="1" NCoef="0" IVar="6" Cut="2.2540192604064941e+00" cType="1" res="-1.3036295771598816e-01" rms="4.1406384110450745e-01" purity="2.5439885258674622e-01" nType="0">
          <Node pos="l" depth="2" NCoef="0" IVar="3" Cut="1.5767596435546875e+02" cType="1" res="-1.6824984550476074e-01" rms="3.8326251506805420e-01" purity="1.8363688886165619e-01" nType="0">
            <Node pos="l" depth="3" NCoef="0" IVar="-1" Cut="0.0000000000000000e+00" cType="1" res="-1.3237859122455120e-02" rms="3.5706797242164612e-01" purity="1.5273743867874146e-01" nType="-99"/>
            <Node pos="r" depth="3" NCoef="0" IVar="-1" Cut="0.0000000000000000e+00" cType="1" res="-7.0479311980307102e-03" rms="4.4829359650611877e-01" purity="2.8681567311286926e-01" nType="-99"/>
          </Node>
          <Node pos="r" depth="2" NCoef="0" IVar="5" Cut="2.9835714721679688e+02" cType="1" res="-6.7322123795747757e-03" rms="4.8126825690269470e-01" purity="4.8530620336532593e-01" nType="0">
            <Node pos="l" depth="3" NCoef="0" IVar="-1" Cut="0.0000000000000000e+00" cType="1" res="-6.2417997978627682e-03" rms="4.7238567471504211e-01" purity="3.6842417716979980e-01" nType="-99"/>
            <Node pos="r" depth="3" NCoef="0" IVar="-1" Cut="0.0000000000000000e+00" cType="1" res="5.2616829052567482e-03" rms="4.7620677947998047e-01" purity="6.2069386243820190e-01" nType="-99"/>
          </Node>
        </Node>
        <Node pos="r" depth="1" NCoef="0" IVar="5" Cut="3.7009457397460938e+02" cType="1" res="2.3426701128482819e-01" rms="3.2222083210945129e-01" purity="8.6795204877853394e-01" nType="0">
          <Node pos="l" depth="2" NCoef="0" IVar="-1" Cut="0.0000000000000000e+00" cType="1" res="5.1496783271431923e-04" rms="4.9180704355239868e-01" purity="5.3167527914047241e-01" nType="-99"/>
          <Node pos="r" depth="2" NCoef="0" IVar="5" Cut="6.5606378173828125e+02" cType="1" res="2.6059395074844360e-01" rms="2.8453680872917175e-01" purity="9.0766513347625732e-01" nType="0">
            <Node pos="l" depth="3" NCoef="0" IVar="-1" Cut="0.0000000000000000e+00" cType="1" res="1.0855494067072868e-02" rms="3.8890027999877930e-01" purity="8.0987256765365601e-01" nType="-99"/>
            <Node pos="r" depth="3" NCoef="0" IVar="-1" Cut="0.0000000000000000e+00" cType="1" res="1.4891271479427814e-02" rms="2.2381225228309631e-01" purity="9.4676160812377930e-01" nType="-99"/>
          </Node>
        </Node>
      </Node>
    </BinaryTree>
    <BinaryTree type="DecisionTree" boostWeight="1.0000000000000000e+00" itree="20">
      <Node pos="s" depth="0" NCoef="0" IVar="6" Cut="3.2560644149780273e+00" cType="1" res="1.5878260135650635e-02" rms="4.1736963391304016e-01" purity="5.0000000000000000e-01" nType="0">
        <Node pos="l" depth="1" NCoef="0" IVar="6" Cut="2.2540192604064941e+00" cType="1" res="-1.2616235017776489e-01" rms="4.1350594162940979e-01" purity="2.5439885258674622e-01" nType="0">
          <Node pos="l" depth="2" NCoef="0" IVar="7" Cut="3.2405059337615967e+00" cType="1" res="-1.6289895772933960e-01" rms="3.8313284516334534e-01" purity="1.8363688886165619e-01" nType="0">
            <Node pos="l" depth="3" NCoef="0" IVar="-1" Cut="0.0000000000000000e+00" cType="1" res="-1.8458496779203415e-02" rms="3.3655974268913269e-01" purity="1.3228946924209595e-01" nType="-99"/>
            <Node pos="r" depth="3" NCoef="0" IVar="-1" Cut="0.0000000000000000e+00" cType="1" res="-6.2076817266643047e-03" rms="4.2958661913871765e-01" purity="2.5007385015487671e-01" nType="-99"/>
          </Node>
          <Node pos="r" depth="2" NCoef="0" IVar="7" Cut="3.9873988628387451e+00" cType="1" res="-6.2851132825016975e-03" rms="4.8080065846443176e-01" purity="4.8530620336532593e-01" nType="0">
            <Node pos="l" depth="3" NCoef="0" IVar="-1" Cut="0.0000000000000000e+00" cType="1" res="2.1044213790446520e-03" rms="4.8293387889862061e-01" purity="5.3275388479232788e-01" nType="-99"/>
            <Node pos="r" depth="3" NCoef="0" IVar="-1" Cut="0.0000000000000000e+00" cType="1" res="-1.5613089315593243e-02" rms="4.3014678359031677e-01" purity="2.6749765872955322e-01" nType="-99"/>
          </Node>
        </Node>
        <Node pos="r" depth="1" NCoef="0" IVar="5" Cut="4.7988375854492188e+02" cType="1" res="2.2867913544178009e-01" rms="3.2170841097831726e-01" purity="8.6795204877853394e-01" nType="0">
          <Node pos="l" depth="2" NCoef="0" IVar="5" Cut="3.4827642822265625e+02" cType="1" res="8.2952424883842468e-02" rms="4.6453577280044556e-01" purity="6.4501643180847168e-01" nType="0">
            <Node pos="l" depth="3" NCoef="0" IVar="-1" Cut="0.0000000000000000e+00" cType="1" res="-5.6754198158159852e-04" rms="4.9264511466026306e-01" purity="5.0558459758758545e-01" nType="-99"/>
            <Node pos="r" depth="3" NCoef="0" IVar="-1" Cut="0.0000000000000000e+00" cType="1" res="9.0376315638422966e-03" rms="4.2799213528633118e-01" purity="7.5055444240570068e-01" nType="-99"/>
          </Node>
          <Node pos="r" depth="2" NCoef="0" IVar="5" Cut="1.1993380126953125e+03" cType="1" res="2.6724329590797424e-01" rms="2.5820863246917725e-01" purity="9.2694830894470215e-01" nType="0">
            <Node pos="l" depth="3" NCoef="0" IVar="-1" Cut="0.0000000000000000e+00" cType="1" res="1.2754894793033600e-02" rms="3.0147638916969299e-01" purity="8.9761948585510254e-01" nType="-99"/>
            <Node pos="r" depth="3" NCoef="0" IVar="-1" Cut="0.0000000000000000e+00" cType="1" res="1.6455540433526039e-02" rms="1.5746831893920898e-01" purity="9.7440719604492188e-01" nType="-99"/>
          </Node>
        </Node>
      </Node>
    </BinaryTree>
    <BinaryTree type="DecisionTree" boostWeight="1.0000000000000000e+00" itree="21">
      <Node pos="s" depth="0" NCoef="0" IVar="6" Cut="3.2653672695159912e+00" cType="1" res="1.6447179019451141e-02" rms="4.1472509503364563e-01" purity="5.0000000000000000e-01" nType="0">
        <Node pos="l" depth="1" NCoef="0" IVar="6" Cut="2.3976721763610840e+00" cType="1" res="-1.2103834003210068e-01" rms="4.1301035881042480e-01" purity="2.5545972585678101e-01" nType="0">
          <Node pos="l" depth="2" NCoef="0" IVar="1" Cut="3.4770809173583984e+01" cType="1" res="-1.5392179787158966e-01" rms="3.8715884089469910e-01" purity="1.9105377793312073e-01" nType="0">
            <Node pos="l" depth="3" NCoef="0" IVar="-1" Cut="0.0000000000000000e+00" cType="1" res="-1.5516306273639202e-02" rms="3.3051276206970215e-01" purity="1.2689290940761566e-01" nType="-99"/>
            <Node pos="r" depth="3" NCoef="0" IVar="-1" Cut="0.0000000000000000e+00" cType="1" res="-7.5176940299570560e-03" rms="4.2687669396400452e-01" purity="2.5017824769020081e-01" nType="-99"/>
          </Node>
          <Node pos="r" depth="2" NCoef="0" IVar="5" Cut="2.1975363159179688e+02" cType="1" res="7.2618373669683933e-03" rms="4.8021447658538818e-01" purity="5.0674992799758911e-01" nType="0">
            <Node pos="l" depth="3" NCoef="0" IVar="-1" Cut="0.0000000000000000e+00" cType="1" res="-1.1690993793308735e-02" rms="4.4920024275779724e-01" purity="2.9157882928848267e-01" nType="-99"/>
            <Node pos="r" depth="3" NCoef="0" IVar="-1" Cut="0.0000000000000000e+00" cType="1" res="4.1271178051829338e-03" rms="4.7918486595153809e-01" purity="5.8791720867156982e-01" nType="-99"/>
          </Node>
        </Node>
        <Node pos="r" depth="1" NCoef="0" IVar="5" Cut="4.7988375854492188e+02" cType="1" res="2.2379153966903687e-01" rms="3.2037311792373657e-01" purity="8.6879557371139526e-01" nType="0">
          <Node pos="l" depth="2" NCoef="0" IVar="5" Cut="3.4827642822265625e+02" cType="1" res="8.1425584852695465e-02" rms="4.6387818455696106e-01" purity="6.4606153964996338e-01" nType="0">
            <Node pos="l" depth="3" NCoef="0" IVar="-1" Cut="0.0000000000000000e+00" cType="1" res="-5.5387080647051334e-04" rms="4.9277374148368835e-01" purity="5.0529271364212036e-01" nType="-99"/>
            <Node pos="r" depth="3" NCoef="0" IVar="-1" Cut="0.0000000000000000e+00" cType="1" res="8.8240895420312881e-03" rms="4.2798087000846863e-01" purity="7.5058174133300781e-01" nType="-99"/>
          </Node>
          <Node pos="r" depth="2" NCoef="0" IVar="5" Cut="1.1993380126953125e+03" cType="1" res="2.6111683249473572e-01" rms="2.5773102045059204e-01" purity="9.2719161510467529e-01" nType="0">
            <Node pos="l" depth="3" NCoef="0" IVar="-1" Cut="0.0000000000000000e+00" cType="1" res="1.2563955970108509e-02" rms="3.0109748244285583e-01" purity="8.9791542291641235e-01" nType="-99"/>
            <Node pos="r" depth="3" NCoef="0" IVar="-1" Cut="0.0000000000000000e+00" cType="1" res="1.6247842460870743e-02" rms="1.5746451914310455e-01" purity="9.7441005706787109e-01" nType="-99"/>
          </Node>
        </Node>
      </Node>
    </BinaryTree>
    <BinaryTree type="DecisionTree" boostWeight="1.0000000000000000e+00" itree="22">
      <Node pos="s" depth="0" NCoef="0" IVar="6" Cut="3.2653672695159912e+00" cType="1" res="1.6743004322052002e-02" rms="4.1233518719673157e-01" purity="5.0000000000000000e-01" nType="0">
        <Node pos="l" depth="1" NCoef="0" IVar="6" Cut="2.3976721763610840e+00" cType="1" res="-1.1698601394891739e-01" rms="4.1239020228385925e-01" purity="2.5545972585678101e-01" nType="0">
          <Node pos="l" depth="2" NCoef="0" IVar="1" Cut="3.7232532501220703e+01" cType="1" res="-1.4885313808917999e-01" rms="3.8695126771926880e-01" purity="1.9105377793312073e-01" nType="0">
            <Node pos="l" depth="3" NCoef="0" IVar="-1" Cut="0.0000000000000000e+00" cType="1" res="-1.4139479957520962e-02" rms="3.3668568730354309e-01" purity="1.3288682699203491e-01" nType="-99"/>
            <Node pos="r" depth="3" NCoef="0" IVar="-1" Cut="0.0000000000000000e+00" cType="1" res="-7.1960217319428921e-03" rms="4.3148550391197205e-01" purity="2.5798216462135315e-01" nType="-99"/>
          </Node>
          <Node pos="r" depth="2" NCoef="0" IVar="5" Cut="2.9854910278320312e+02" cType="1" res="7.3487143963575363e-03" rms="4.7956478595733643e-01" purity="5.0674992799758911e-01" nType="0">
            <Node pos="l" depth="3" NCoef="0" IVar="-1" Cut="0.0000000000000000e+00" cType="1" res="-6.0216970741748810e-03" rms="4.7201785445213318e-01" purity="3.6953118443489075e-01" nType="-99"/>
            <Node pos="r" depth="3" NCoef="0" IVar="-1" Cut="0.0000000000000000e+00" cType="1" res="6.2046125531196594e-03" rms="4.7011202573776245e-01" purity="6.4778172969818115e-01" nType="-99"/>
          </Node>
        </Node>
        <Node pos="r" depth="1" NCoef="0" IVar="5" Cut="5.2791650390625000e+02" cType="1" res="2.1842212975025177e-01" rms="3.1985476613044739e-01" purity="8.6879557371139526e-01" nType="0">
          <Node pos="l" depth="2" NCoef="0" IVar="7" Cut="3.6683976650238037e+00" cType="1" res="9.5978505909442902e-02" rms="4.5130288600921631e-01" purity="6.7787665128707886e-01" nType="0">
            <Node pos="l" depth="3" NCoef="0" IVar="-1" Cut="0.0000000000000000e+00" cType="1" res="8.8985832408070564e-03" rms="4.2401957511901855e-01" purity="7.4777674674987793e-01" nType="-99"/>
            <Node pos="r" depth="3" NCoef="0" IVar="-1" Cut="0.0000000000000000e+00" cType="1" res="-1.0403674095869064e-03" rms="4.8089948296546936e-01" purity="5.3461706638336182e-01" nType="-99"/>
          </Node>
          <Node pos="r" depth="2" NCoef="0" IVar="5" Cut="1.2031418457031250e+03" cType="1" res="2.6007306575775146e-01" rms="2.4696332216262817e-01" purity="9.3373936414718628e-01" nType="0">
            <Node pos="l" depth="3" NCoef="0" IVar="-1" Cut="0.0000000000000000e+00" cType="1" res="1.2583151459693909e-02" rms="2.9044970870018005e-01" purity="9.0602993965148926e-01" nType="-99"/>
            <Node pos="r" depth="3" NCoef="0" IVar="-1" Cut="0.0000000000000000e+00" cType="1" res="1.6050754114985466e-02" rms="1.5720526874065399e-01" purity="9.7449702024459839e-01" nType="-99"/>
          </Node>
        </Node>
      </Node>
    </BinaryTree>
    <BinaryTree type="DecisionTree" boostWeight="1.0000000000000000e+00" itree="23">
      <Node pos="s" depth="0" NCoef="0" IVar="6" Cut="3.4235143661499023e+00" cType="1" res="1.6966320574283600e-02" rms="4.1009435057640076e-01" purity="5.0000000000000000e-01" nType="0">
        <Node pos="l" depth="1" NCoef="0" IVar="6" Cut="2.3974845409393311e+00" cType="1" res="-1.0608882457017899e-01" rms="4.1554537415504456e-01" purity="2.7156981825828552e-01" nType="0">
          <Node pos="l" depth="2" NCoef="0" IVar="1" Cut="4.4617694854736328e+01" cType="1" res="-1.4399401843547821e-01" rms="3.8678377866744995e-01" purity="1.9106720387935638e-01" nType="0">
            <Node pos="l" depth="3" NCoef="0" IVar="-1" Cut="0.0000000000000000e+00" cType="1" res="-1.2187536805868149e-02" rms="3.4947955608367920e-01" purity="1.4575600624084473e-01" nType="-99"/>
            <Node pos="r" depth="3" NCoef="0" IVar="-1" Cut="0.0000000000000000e+00" cType="1" res="-6.8861949257552624e-03" rms="4.4249877333641052e-01" purity="2.7888378500938416e-01" nType="-99"/>
          </Node>
          <Node pos="r" depth="2" NCoef="0" IVar="7" Cut="4.0589485168457031e+00" cType="1" res="1.5098611824214458e-02" rms="4.7662934660911560e-01" purity="5.2894628047943115e-01" nType="0">
            <Node pos="l" depth="3" NCoef="0" IVar="-1" Cut="0.0000000000000000e+00" cType="1" res="3.5115461796522141e-03" rms="4.7452393174171448e-01" purity="5.7870888710021973e-01" nType="-99"/>
            <Node pos="r" depth="3" NCoef="0" IVar="-1" Cut="0.0000000000000000e+00" cType="1" res="-7.1964100934565067e-03" rms="4.4222003221511841e-01" purity="2.9743653535842896e-01" nType="-99"/>
          </Node>
        </Node>
        <Node pos="r" depth="1" NCoef="0" IVar="5" Cut="6.0319915771484375e+02" cType="1" res="2.2495676577091217e-01" rms="3.0284667015075684e-01" purity="8.8609755039215088e-01" nType="0">
          <Node pos="l" depth="2" NCoef="0" IVar="7" Cut="3.6584670543670654e+00" cType="1" res="1.3057787716388702e-01" rms="4.2497709393501282e-01" purity="7.3687660694122314e-01" nType="0">
            <Node pos="l" depth="3" NCoef="0" IVar="-1" Cut="0.0000000000000000e+00" cType="1" res="1.0421519167721272e-02" rms="3.9528486132621765e-01" purity="7.9413682222366333e-01" nType="-99"/>
            <Node pos="r" depth="3" NCoef="0" IVar="-1" Cut="0.0000000000000000e+00" cType="1" res="2.4906070902943611e-03" rms="4.6346104145050049e-01" purity="6.2543398141860962e-01" nType="-99"/>
          </Node>
          <Node pos="r" depth="2" NCoef="0" IVar="7" Cut="4.1078524589538574e+00" cType="1" res="2.6118302345275879e-01" rms="2.2992511093616486e-01" purity="9.4337439537048340e-01" nType="0">
            <Node pos="l" depth="3" NCoef="0" IVar="-1" Cut="0.0000000000000000e+00" cType="1" res="1.5334116294980049e-02" rms="2.0077387988567352e-01" purity="9.5741552114486694e-01" nType="-99"/>
            <Node pos="r" depth="3" NCoef="0" IVar="-1" Cut="0.0000000000000000e+00" cType="1" res="1.0782734490931034e-02" rms="2.9366815090179443e-01" purity="9.0338611602783203e-01" nType="-99"/>
          </Node>
        </Node>
      </Node>
    </BinaryTree>
    <BinaryTree type="DecisionTree" boostWeight="1.0000000000000000e+00" itree="24">
      <Node pos="s" depth="0" NCoef="0" IVar="6" Cut="3.4235143661499023e+00" cType="1" res="1.7021486535668373e-02" rms="4.0802851319313049e-01" purity="5.0000000000000000e-01" nType="0">
        <Node pos="l" depth="1" NCoef="0" IVar="6" Cut="2.1991269588470459e+00" cType="1" res="-1.0279743373394012e-01" rms="4.1500577330589294e-01" purity="2.7156981825828552e-01" nType="0">
          <Node pos="l" depth="2" NCoef="0" IVar="7" Cut="3.2405059337615967e+00" cType="1" res="-1.4380337297916412e-01" rms="3.8109156489372253e-01" purity="1.8174310028553009e-01" nType="0">
            <Node pos="l" depth="3" NCoef="0" IVar="-1" Cut="0.0000000000000000e+00" cType="1" res="-1.7266774550080299e-02" rms="3.3403712511062622e-01" purity="1.2986780703067780e-01" nType="-99"/>
            <Node pos="r" depth="3" NCoef="0" IVar="-1" Cut="0.0000000000000000e+00" cType="1" res="-5.3241946734488010e-03" rms="4.2843738198280334e-01" purity="2.4880850315093994e-01" nType="-99"/>
          </Node>
          <Node pos="r" depth="2" NCoef="0" IVar="7" Cut="4.1509408950805664e+00" cType="1" res="1.9838088192045689e-03" rms="4.7533541917800903e-01" purity="5.0110131502151489e-01" nType="0">
            <Node pos="l" depth="3" NCoef="0" IVar="-1" Cut="0.0000000000000000e+00" cType="1" res="2.5485677178949118e-03" rms="4.7607564926147461e-01" purity="5.4677796363830566e-01" nType="-99"/>
            <Node pos="r" depth="3" NCoef="0" IVar="-1" Cut="0.0000000000000000e+00" cType="1" res="-8.8604260236024857e-03" rms="4.1970917582511902e-01" purity="2.5514176487922668e-01" nType="-99"/>
          </Node>
        </Node>
        <Node pos="r" depth="1" NCoef="0" IVar="5" Cut="6.0319915771484375e+02" cType="1" res="2.1954198181629181e-01" rms="3.0249097943305969e-01" purity="8.8609755039215088e-01" nType="0">
          <Node pos="l" depth="2" NCoef="0" IVar="7" Cut="3.6584670543670654e+00" cType="1" res="1.2695637345314026e-01" rms="4.2472428083419800e-01" purity="7.3687660694122314e-01" nType="0">
            <Node pos="l" depth="3" NCoef="0" IVar="-1" Cut="0.0000000000000000e+00" cType="1" res="1.0187437757849693e-02" rms="3.9531010389328003e-01" purity="7.9413682222366333e-01" nType="-99"/>
            <Node pos="r" depth="3" NCoef="0" IVar="-1" Cut="0.0000000000000000e+00" cType="1" res="2.4139080196619034e-03" rms="4.6347182989120483e-01" purity="6.2543398141860962e-01" nType="-99"/>
          </Node>
          <Node pos="r" depth="2" NCoef="0" IVar="5" Cut="1.1999484863281250e+03" cType="1" res="2.5507995486259460e-01" rms="2.2984370589256287e-01" purity="9.4337439537048340e-01" nType="0">
            <Node pos="l" depth="3" NCoef="0" IVar="-1" Cut="0.0000000000000000e+00" cType="1" res="1.2396997772157192e-02" rms="2.7469453215599060e-01" purity="9.1716951131820679e-01" nType="-99"/>
            <Node pos="r" depth="3" NCoef="0" IVar="-1" Cut="0.0000000000000000e+00" cType="1" res="1.5738341957330704e-02" rms="1.5415327250957489e-01" purity="9.7552478313446045e-01" nType="-99"/>
          </Node>
        </Node>
      </Node>
    </BinaryTree>
    <BinaryTree type="DecisionTree" boostWeight="1.0000000000000000e+00" itree="25">
      <Node pos="s" depth="0" NCoef="0" IVar="6" Cut="3.4235143661499023e+00" cType="1" res="1.7353303730487823e-02" rms="4.0587204694747925e-01" purity="5.0000000000000000e-01" nType="0">
        <Node pos="l" depth="1" NCoef="0" IVar="6" Cut="2.4761435985565186e+00" cType="1" res="-9.9159099161624908e-02" rms="4.1431412100791931e-01" purity="2.7156981825828552e-01" nType="0">
          <Node pos="l" depth="2" NCoef="0" IVar="3" Cut="9.2373497009277344e+01" cType="1" res="-1.3284622132778168e-01" rms="3.8872075080871582e-01" purity="1.9548363983631134e-01" nType="0">
            <Node pos="l" depth="3" NCoef="0" IVar="-1" Cut="0.0000000000000000e+00" cType="1" res="-1.5866501256823540e-02" rms="3.3401307463645935e-01" purity="1.3279610872268677e-01" nType="-99"/>
            <Node pos="r" depth="3" NCoef="0" IVar="-1" Cut="0.0000000000000000e+00" cType="1" res="-6.2091141007840633e-03" rms="4.2266976833343506e-01" purity="2.4578669667243958e-01" nType="-99"/>
          </Node>
          <Node pos="r" depth="2" NCoef="0" IVar="7" Cut="3.8549327850341797e+00" cType="1" res="2.0170064643025398e-02" rms="4.7560396790504456e-01" purity="5.4108822345733643e-01" nType="0">
            <Node pos="l" depth="3" NCoef="0" IVar="-1" Cut="0.0000000000000000e+00" cType="1" res="4.0667336434125900e-03" rms="4.7290802001953125e-01" purity="5.9856832027435303e-01" nType="-99"/>
            <Node pos="r" depth="3" NCoef="0" IVar="-1" Cut="0.0000000000000000e+00" cType="1" res="-6.1549902893602848e-03" rms="4.5067298412322998e-01" purity="3.3181160688400269e-01" nType="-99"/>
          </Node>
        </Node>
        <Node pos="r" depth="1" NCoef="0" IVar="5" Cut="4.5271673583984375e+02" cType="1" res="2.1428506076335907e-01" rms="3.0216178297996521e-01" purity="8.8609755039215088e-01" nType="0">
          <Node pos="l" depth="2" NCoef="0" IVar="-1" Cut="0.0000000000000000e+00" cType="1" res="4.9933674745261669e-03" rms="4.6266618371009827e-01" purity="6.5087956190109253e-01" nType="-99"/>
          <Node pos="r" depth="2" NCoef="0" IVar="5" Cut="6.7599444580078125e+02" cType="1" res="2.3782613873481750e-01" rms="2.5733011960983276e-01" purity="9.2698925733566284e-01" nType="0">
            <Node pos="l" depth="3" NCoef="0" IVar="-1" Cut="0.0000000000000000e+00" cType="1" res="1.0848296806216240e-02" rms="3.5758322477340698e-01" purity="8.4808713197708130e-01" nType="-99"/>
            <Node pos="r" depth="3" NCoef="0" IVar="-1" Cut="0.0000000000000000e+00" cType="1" res="1.3851884752511978e-02" rms="2.1687141060829163e-01" purity="9.5009368658065796e-01" nType="-99"/>
          </Node>
        </Node>
      </Node>
    </BinaryTree>
    <BinaryTree type="DecisionTree" boostWeight="1.0000000000000000e+00" itree="26">
      <Node pos="s" depth="0" NCoef="0" IVar="6" Cut="3.4235143661499023e+00" cType="1" res="1.7557123675942421e-02" rms="4.0391516685485840e-01" purity="5.0000000000000000e-01" nType="0">
        <Node pos="l" depth="1" NCoef="0" IVar="6" Cut="2.1991269588470459e+00" cType="1" res="-9.5802187919616699e-02" rms="4.1372457146644592e-01" purity="2.7156981825828552e-01" nType="0">
          <Node pos="l" depth="2" NCoef="0" IVar="3" Cut="1.5767596435546875e+02" cType="1" res="-1.3406884670257568e-01" rms="3.8059112429618835e-01" purity="1.8174310028553009e-01" nType="0">
            <Node pos="l" depth="3" NCoef="0" IVar="-1" Cut="0.0000000000000000e+00" cType="1" res="-1.1324715800583363e-02" rms="3.5530212521553040e-01" purity="1.5178385376930237e-01" nType="-99"/>
            <Node pos="r" depth="3" NCoef="0" IVar="-1" Cut="0.0000000000000000e+00" cType="1" res="-4.8347297124564648e-03" rms="4.4534587860107422e-01" purity="2.8241005539894104e-01" nType="-99"/>
          </Node>
          <Node pos="r" depth="2" NCoef="0" IVar="7" Cut="4.1509408950805664e+00" cType="1" res="1.9794763065874577e-03" rms="4.7446349263191223e-01" purity="5.0110131502151489e-01" nType="0">
            <Node pos="l" depth="3" NCoef="0" IVar="-1" Cut="0.0000000000000000e+00" cType="1" res="2.4543579202145338e-03" rms="4.7576522827148438e-01" purity="5.4677796363830566e-01" nType="-99"/>
            <Node pos="r" depth="3" NCoef="0" IVar="-1" Cut="0.0000000000000000e+00" cType="1" res="-8.5202297195792198e-03" rms="4.1961202025413513e-01" purity="2.5514176487922668e-01" nType="-99"/>
          </Node>
        </Node>
        <Node pos="r" depth="1" NCoef="0" IVar="5" Cut="5.2795794677734375e+02" cType="1" res="2.0915944874286652e-01" rms="3.0192652344703674e-01" purity="8.8609755039215088e-01" nType="0">
          <Node pos="l" depth="2" NCoef="0" IVar="3" Cut="7.6611412048339844e+01" cType="1" res="1.0389162600040436e-01" rms="4.3931597471237183e-01" purity="7.0638310909271240e-01" nType="0">
            <Node pos="l" depth="3" NCoef="0" IVar="-1" Cut="0.0000000000000000e+00" cType="1" res="1.8956833519041538e-03" rms="4.7027850151062012e-01" purity="6.1356735229492188e-01" nType="-99"/>
            <Node pos="r" depth="3" NCoef="0" IVar="-1" Cut="0.0000000000000000e+00" cType="1" res="9.9475299939513206e-03" rms="4.0002474188804626e-01" purity="7.8544336557388306e-01" nType="-99"/>
          </Node>
          <Node pos="r" depth="2" NCoef="0" IVar="5" Cut="1.2031418457031250e+03" cType="1" res="2.3826080560684204e-01" rms="2.4309641122817993e-01" purity="9.3577980995178223e-01" nType="0">
            <Node pos="l" depth="3" NCoef="0" IVar="-1" Cut="0.0000000000000000e+00" cType="1" res="1.1870454065501690e-02" rms="2.8764927387237549e-01" purity="9.0787208080291748e-01" nType="-99"/>
            <Node pos="r" depth="3" NCoef="0" IVar="-1" Cut="0.0000000000000000e+00" cType="1" res="1.5399962663650513e-02" rms="1.5438722074031830e-01" purity="9.7545093297958374e-01" nType="-99"/>
          </Node>
        </Node>
      </Node>
    </BinaryTree>
    <BinaryTree type="DecisionTree" boostWeight="1.0000000000000000e+00" itree="27">
      <Node pos="s" depth="0" NCoef="0" IVar="6" Cut="3.4235143661499023e+00" cType="1" res="1.7531819641590118e-02" rms="4.0213528275489807e-01" purity="5.0000000000000000e-01" nType="0">
        <Node pos="l" depth="1" NCoef="0" IVar="6" Cut="2.4761435985565186e+00" cType="1" res="-9.2881910502910614e-02" rms="4.1324722766876221e-01" purity="2.7156981825828552e-01" nType="0">
          <Node pos="l" depth="2" NCoef="0" IVar="1" Cut="4.7079418182373047e+01" cType="1" res="-1.2443542480468750e-01" rms="3.8832184672355652e-01" purity="1.9548363983631134e-01" nType="0">
            <Node pos="l" depth="3" NCoef="0" IVar="-1" Cut="0.0000000000000000e+00" cType="1" res="-1.1159691959619522e-02" rms="3.5501512885093689e-01" purity="1.5328381955623627e-01" nType="-99"/>
            <Node pos="r" depth="3" NCoef="0" IVar="-1" Cut="0.0000000000000000e+00" cType="1" res="-4.8591145314276218e-03" rms="4.4620269536972046e-01" purity="2.9021084308624268e-01" nType="-99"/>
          </Node>
          <Node pos="r" depth="2" NCoef="0" IVar="1" Cut="3.1634195327758789e+01" cType="1" res="1.8889432772994041e-02" rms="4.7489610314369202e-01" purity="5.4108822345733643e-01" nType="0">
            <Node pos="l" depth="3" NCoef="0" IVar="-1" Cut="0.0000000000000000e+00" cType="1" res="-4.5274174772202969e-03" rms="4.7026908397674561e-01" purity="4.1169166564941406e-01" nType="-99"/>
            <Node pos="r" depth="3" NCoef="0" IVar="-1" Cut="0.0000000000000000e+00" cType="1" res="5.2467589266598225e-03" rms="4.6600067615509033e-01" purity="6.1901932954788208e-01" nType="-99"/>
          </Node>
        </Node>
        <Node pos="r" depth="1" NCoef="0" IVar="5" Cut="4.5271673583984375e+02" cType="1" res="2.0415547490119934e-01" rms="3.0160298943519592e-01" purity="8.8609755039215088e-01" nType="0">
          <Node pos="l" depth="2" NCoef="0" IVar="-1" Cut="0.0000000000000000e+00" cType="1" res="4.6789674088358879e-03" rms="4.6234086155891418e-01" purity="6.5087956190109253e-01" nType="-99"/>
          <Node pos="r" depth="2" NCoef="0" IVar="7" Cut="4.3396954536437988e+00" cType="1" res="2.2684872150421143e-01" rms="2.5717651844024658e-01" purity="9.2698925733566284e-01" nType="0">
            <Node pos="l" depth="3" NCoef="0" IVar="-1" Cut="0.0000000000000000e+00" cType="1" res="1.4111474156379700e-02" rms="2.3265148699283600e-01" purity="9.4119220972061157e-01" nType="-99"/>
            <Node pos="r" depth="3" NCoef="0" IVar="-1" Cut="0.0000000000000000e+00" cType="1" res="8.4817009046673775e-03" rms="3.3206969499588013e-01" purity="8.6954337358474731e-01" nType="-99"/>
          </Node>
        </Node>
      </Node>
    </BinaryTree>
    <BinaryTree type="DecisionTree" boostWeight="1.0000000000000000e+00" itree="28">
      <Node pos="s" depth="0" NCoef="0" IVar="6" Cut="3.4235143661499023e+00" cType="1" res="1.7514625564217567e-02" rms="4.0042412281036377e-01" purity="5.0000000000000000e-01" nType="0">
        <Node pos="l" depth="1" NCoef="0" IVar="6" Cut="1.7476923465728760e+00" cType="1" res="-8.9978478848934174e-02" rms="4.1278541088104248e-01" purity="2.7156981825828552e-01" nType="0">
          <Node pos="l" depth="2" NCoef="0" IVar="7" Cut="3.3384222984313965e+00" cType="1" res="-1.3683667778968811e-01" rms="3.7042036652565002e-01" purity="1.7046500742435455e-01" nType="0">
            <Node pos="l" depth="3" NCoef="0" IVar="-1" Cut="0.0000000000000000e+00" cType="1" res="-1.7676448449492455e-02" rms="3.1888386607170105e-01" purity="1.1690887808799744e-01" nType="-99"/>
            <Node pos="r" depth="3" NCoef="0" IVar="-1" Cut="0.0000000000000000e+00" cType="1" res="-3.9597679860889912e-03" rms="4.3460685014724731e-01" purity="2.6201027631759644e-01" nType="-99"/>
          </Node>
          <Node pos="r" depth="2" NCoef="0" IVar="1" Cut="4.3266654968261719e+01" cType="1" res="-1.8387900665402412e-02" rms="4.6109181642532349e-01" purity="4.2603906989097595e-01" nType="0">
            <Node pos="l" depth="3" NCoef="0" IVar="-1" Cut="0.0000000000000000e+00" cType="1" res="-4.5064198784530163e-03" rms="4.4462206959724426e-01" purity="3.4506037831306458e-01" nType="-99"/>
            <Node pos="r" depth="3" NCoef="0" IVar="-1" Cut="0.0000000000000000e+00" cType="1" res="5.1702214404940605e-03" rms="4.7064056992530823e-01" purity="5.5679351091384888e-01" nType="-99"/>
          </Node>
        </Node>
        <Node pos="r" depth="1" NCoef="0" IVar="5" Cut="6.0319915771484375e+02" cType="1" res="1.9920177757740021e-01" rms="3.0134448409080505e-01" purity="8.8609755039215088e-01" nType="0">
          <Node pos="l" depth="2" NCoef="0" IVar="7" Cut="3.6584670543670654e+00" cType="1" res="1.1252723634243011e-01" rms="4.2383047938346863e-01" purity="7.3687660694122314e-01" nType="0">
            <Node pos="l" depth="3" NCoef="0" IVar="-1" Cut="0.0000000000000000e+00" cType="1" res="9.4357924535870552e-03" rms="3.9482963085174561e-01" purity="7.9413682222366333e-01" nType="-99"/>
            <Node pos="r" depth="3" NCoef="0" IVar="-1" Cut="0.0000000000000000e+00" cType="1" res="1.6627622535452247e-03" rms="4.6270966529846191e-01" purity="6.2543398141860962e-01" nType="-99"/>
          </Node>
          <Node pos="r" depth="2" NCoef="0" IVar="7" Cut="4.1078524589538574e+00" cType="1" res="2.3247082531452179e-01" rms="2.2961722314357758e-01" purity="9.4337439537048340e-01" nType="0">
            <Node pos="l" depth="3" NCoef="0" IVar="-1" Cut="0.0000000000000000e+00" cType="1" res="1.4466464519500732e-02" rms="2.0071196556091309e-01" purity="9.5741552114486694e-01" nType="-99"/>
            <Node pos="r" depth="3" NCoef="0" IVar="-1" Cut="0.0000000000000000e+00" cType="1" res="9.9678756669163704e-03" rms="2.9333743453025818e-01" purity="9.0338611602783203e-01" nType="-99"/>
          </Node>
        </Node>
      </Node>
    </BinaryTree>
    <BinaryTree type="DecisionTree" boostWeight="1.0000000000000000e+00" itree="29">
      <Node pos="s" depth="0" NCoef="0" IVar="6" Cut="3.2560644149780273e+00" cType="1" res="1.7819518223404884e-02" rms="3.9853271842002869e-01" purity="5.0000000000000000e-01" nType="0">
        <Node pos="l" depth="1" NCoef="0" IVar="1" Cut="4.4617694854736328e+01" cType="1" res="-9.3182317912578583e-02" rms="4.0851929783821106e-01" purity="2.5439885258674622e-01" nType="0">
          <Node pos="l" depth="2" NCoef="0" IVar="0" Cut="3.8691406250000000e+01" cType="1" res="-1.3067026436328888e-01" rms="3.7860050797462463e-01" purity="2.0130418241024017e-01" nType="0">
            <Node pos="l" depth="3" NCoef="0" IVar="-1" Cut="0.0000000000000000e+00" cType="1" res="-1.3329081237316132e-02" rms="3.2650956511497498e-01" purity="1.4134138822555542e-01" nType="-99"/>
            <Node pos="r" depth="3" NCoef="0" IVar="-1" Cut="0.0000000000000000e+00" cType="1" res="-6.0848733410239220e-03" rms="4.1188758611679077e-01" purity="2.5149154663085938e-01" nType="-99"/>
          </Node>
          <Node pos="r" depth="2" NCoef="0" IVar="6" Cut="1.7528614997863770e+00" cType="1" res="-2.2654015570878983e-02" rms="4.5119309425354004e-01" purity="3.5428914427757263e-01" nType="0">
            <Node pos="l" depth="3" NCoef="0" IVar="-1" Cut="0.0000000000000000e+00" cType="1" res="-7.4971141293644905e-03" rms="4.2641401290893555e-01" purity="2.4783681333065033e-01" nType="-99"/>
            <Node pos="r" depth="3" NCoef="0" IVar="-1" Cut="0.0000000000000000e+00" cType="1" res="4.3460400775074959e-03" rms="4.7688227891921997e-01" purity="5.3015381097793579e-01" nType="-99"/>
          </Node>
        </Node>
        <Node pos="r" depth="1" NCoef="0" IVar="5" Cut="3.4264727783203125e+02" cType="1" res="1.8411906063556671e-01" rms="3.1723570823669434e-01" purity="8.6795204877853394e-01" nType="0">
          <Node pos="l" depth="2" NCoef="0" IVar="-1" Cut="0.0000000000000000e+00" cType="1" res="-1.2414657976478338e-03" rms="4.8944497108459473e-01" purity="5.0310283899307251e-01" nType="-99"/>
          <Node pos="r" depth="2" NCoef="0" IVar="5" Cut="6.5659509277343750e+02" cType="1" res="2.0417533814907074e-01" rms="2.8788924217224121e-01" purity="9.0231978893280029e-01" nType="0">
            <Node pos="l" depth="3" NCoef="0" IVar="-1" Cut="0.0000000000000000e+00" cType="1" res="8.7849106639623642e-03" rms="3.9339727163314819e-01" purity="7.9937386512756348e-01" nType="-99"/>
            <Node pos="r" depth="3" NCoef="0" IVar="-1" Cut="0.0000000000000000e+00" cType="1" res="1.3133211061358452e-02" rms="2.2302810847759247e-01" purity="9.4673007726669312e-01" nType="-99"/>
          </Node>
        </Node>
      </Node>
    </BinaryTree>
    <BinaryTree type="DecisionTree" boostWeight="1.0000000000000000e+00" itree="30">
      <Node pos="s" depth="0" NCoef="0" IVar="6" Cut="3.0234951972961426e+00" cType="1" res="1.7885249108076096e-02" rms="3.9694008231163025e-01" purity="5.0000000000000000e-01" nType="0">
        <Node pos="l" depth="1" NCoef="0" IVar="2" Cut="5.7016269683837891e+01" cType="1" res="-9.7151100635528564e-02" rms="4.0331286191940308e-01" purity="2.3592974245548248e-01" nType="0">
          <Node pos="l" depth="2" NCoef="0" IVar="3" Cut="1.4567405700683594e+02" cType="1" res="-1.3178974390029907e-01" rms="3.7887135148048401e-01" purity="1.9745357334613800e-01" nType="0">
            <Node pos="l" depth="3" NCoef="0" IVar="-1" Cut="0.0000000000000000e+00" cType="1" res="-1.0995986871421337e-02" rms="3.4653580188751221e-01" purity="1.5381377935409546e-01" nType="-99"/>
            <Node pos="r" depth="3" NCoef="0" IVar="-1" Cut="0.0000000000000000e+00" cType="1" res="-4.7951070591807365e-03" rms="4.3918991088867188e-01" purity="3.0638277530670166e-01" nType="-99"/>
          </Node>
          <Node pos="r" depth="2" NCoef="0" IVar="3" Cut="7.9313003540039062e+01" cType="1" res="-2.1705241873860359e-02" rms="4.4271424412727356e-01" purity="3.1973400712013245e-01" nType="0">
            <Node pos="l" depth="3" NCoef="0" IVar="-1" Cut="0.0000000000000000e+00" cType="1" res="-1.0901648551225662e-02" rms="3.9299860596656799e-01" purity="2.1638286113739014e-01" nType="-99"/>
            <Node pos="r" depth="3" NCoef="0" IVar="-1" Cut="0.0000000000000000e+00" cType="1" res="2.6373716536909342e-03" rms="4.6374258399009705e-01" purity="3.8641554117202759e-01" nType="-99"/>
          </Node>
        </Node>
        <Node pos="r" depth="1" NCoef="0" IVar="5" Cut="3.7341799926757812e+02" cType="1" res="1.7000971734523773e-01" rms="3.3192726969718933e-01" purity="8.4920746088027954e-01" nType="0">
          <Node pos="l" depth="2" NCoef="0" IVar="-1" Cut="0.0000000000000000e+00" cType="1" res="-2.3923827393446118e-04" rms="4.8762986063957214e-01" purity="5.2525132894515991e-01" nType="-99"/>
          <Node pos="r" depth="2" NCoef="0" IVar="5" Cut="6.7944677734375000e+02" cType="1" res="1.9746926426887512e-01" rms="2.9081365466117859e-01" purity="9.0010881423950195e-01" nType="0">
            <Node pos="l" depth="3" NCoef="0" IVar="-1" Cut="0.0000000000000000e+00" cType="1" res="8.6379460990428925e-03" rms="3.8914063572883606e-01" purity="8.0522477626800537e-01" nType="-99"/>
            <Node pos="r" depth="3" NCoef="0" IVar="-1" Cut="0.0000000000000000e+00" cType="1" res="1.2940537184476852e-02" rms="2.2365897893905640e-01" purity="9.4604599475860596e-01" nType="-99"/>
          </Node>
        </Node>
      </Node>
    </BinaryTree>
    <BinaryTree type="DecisionTree" boostWeight="1.0000000000000000e+00" itree="31">
      <Node pos="s" depth="0" NCoef="0" IVar="6" Cut="2.7630174160003662e+00" cType="1" res="1.7869014292955399e-02" rms="3.9541751146316528e-01" purity="5.0000000000000000e-01" nType="0">
        <Node pos="l" depth="1" NCoef="0" IVar="2" Cut="5.7842884063720703e+01" cType="1" res="-1.0331394523382187e-01" rms="3.9539003372192383e-01" purity="2.1304960548877716e-01" nType="0">
          <Node pos="l" depth="2" NCoef="0" IVar="3" Cut="1.4567405700683594e+02" cType="1" res="-1.3468289375305176e-01" rms="3.7048485875129700e-01" purity="1.7812713980674744e-01" nType="0">
            <Node pos="l" depth="3" NCoef="0" IVar="-1" Cut="0.0000000000000000e+00" cType="1" res="-1.1018807999789715e-02" rms="3.3761784434318542e-01" purity="1.3936117291450500e-01" nType="-99"/>
            <Node pos="r" depth="3" NCoef="0" IVar="-1" Cut="0.0000000000000000e+00" cType="1" res="-6.0746190138161182e-03" rms="4.3493947386741638e-01" purity="2.7701929211616516e-01" nType="-99"/>
          </Node>
          <Node pos="r" depth="2" NCoef="0" IVar="3" Cut="8.4537200927734375e+01" cType="1" res="-3.0575299635529518e-02" rms="4.3930646777153015e-01" purity="2.9402822256088257e-01" nType="0">
            <Node pos="l" depth="3" NCoef="0" IVar="-1" Cut="0.0000000000000000e+00" cType="1" res="-1.1330472305417061e-02" rms="3.9015293121337891e-01" purity="2.0194812119007111e-01" nType="-99"/>
            <Node pos="r" depth="3" NCoef="0" IVar="-1" Cut="0.0000000000000000e+00" cType="1" res="2.1134770940989256e-03" rms="4.6495190262794495e-01" purity="3.6340221762657166e-01" nType="-99"/>
          </Node>
        </Node>
        <Node pos="r" depth="1" NCoef="0" IVar="5" Cut="3.4700375366210938e+02" cType="1" res="1.5508811175823212e-01" rms="3.4773826599121094e-01" purity="8.2492256164550781e-01" nType="0">
