<?xml version="1.0"?>
<MethodSetup Method="BDT::BDT_mt_OneJets_FinalBDT">
  <GeneralInfo>
    <Info name="TMVA Release" value="4.2.0 [262656]"/>
    <Info name="ROOT Release" value="5.34/18 [336402]"/>
    <Info name="Creator" value="mschmitt"/>
    <Info name="Date" value="Sun Jul 24 22:56:33 2016"/>
    <Info name="Host" value="Linux cmsdev04.cern.ch 2.6.32-431.11.2.el6.x86_64 #1 SMP Wed Mar 26 09:39:43 CET 2014 x86_64 x86_64 x86_64 GNU/Linux"/>
    <Info name="Dir" value="/tmp/264391.1.medium/8198_25/8348/CMSSW_7_1_5/workdir"/>
    <Info name="Training events" value="106398"/>
    <Info name="TrainingTime" value="1.82879001e+02"/>
    <Info name="AnalysisType" value="Classification"/>
  </GeneralInfo>
  <Options>
    <Option name="V" modified="No">False</Option>
    <Option name="VerbosityLevel" modified="No">Default</Option>
    <Option name="VarTransform" modified="No">None</Option>
    <Option name="H" modified="No">False</Option>
    <Option name="CreateMVAPdfs" modified="No">False</Option>
    <Option name="IgnoreNegWeightsInTraining" modified="No">False</Option>
    <Option name="NTrees" modified="Yes">750</Option>
    <Option name="MaxDepth" modified="Yes">3</Option>
    <Option name="MinNodeSize" modified="Yes">5</Option>
    <Option name="nCuts" modified="Yes">1000</Option>
    <Option name="BoostType" modified="Yes">Grad</Option>
    <Option name="AdaBoostR2Loss" modified="No">quadratic</Option>
    <Option name="UseBaggedBoost" modified="No">False</Option>
    <Option name="Shrinkage" modified="Yes">1.000000e-01</Option>
    <Option name="AdaBoostBeta" modified="No">5.000000e-01</Option>
    <Option name="UseRandomisedTrees" modified="No">False</Option>
    <Option name="UseNvars" modified="No">3</Option>
    <Option name="UsePoissonNvars" modified="No">True</Option>
    <Option name="BaggedSampleFraction" modified="No">6.000000e-01</Option>
    <Option name="UseYesNoLeaf" modified="No">True</Option>
    <Option name="NegWeightTreatment" modified="No">ignorenegweightsintraining</Option>
    <Option name="Css" modified="No">1.000000e+00</Option>
    <Option name="Cts_sb" modified="No">1.000000e+00</Option>
    <Option name="Ctb_ss" modified="No">1.000000e+00</Option>
    <Option name="Cbb" modified="No">1.000000e+00</Option>
    <Option name="NodePurityLimit" modified="No">5.000000e-01</Option>
    <Option name="SeparationType" modified="Yes">giniindex</Option>
    <Option name="DoBoostMonitor" modified="No">False</Option>
    <Option name="UseFisherCuts" modified="No">False</Option>
    <Option name="MinLinCorrForFisher" modified="No">8.000000e-01</Option>
    <Option name="UseExclusiveVars" modified="No">False</Option>
    <Option name="DoPreselection" modified="No">False</Option>
    <Option name="SigToBkgFraction" modified="No">1.000000e+00</Option>
    <Option name="PruneMethod" modified="No">nopruning</Option>
    <Option name="PruneStrength" modified="No">0.000000e+00</Option>
    <Option name="PruningValFraction" modified="No">5.000000e-01</Option>
    <Option name="nEventsMin" modified="No">0</Option>
    <Option name="UseBaggedGrad" modified="No">False</Option>
    <Option name="GradBaggingFraction" modified="No">6.000000e-01</Option>
    <Option name="UseNTrainEvents" modified="No">0</Option>
    <Option name="NNodesMax" modified="No">0</Option>
  </Options>
  <Variables NVar="10">
    <Variable VarIndex="0" Expression="pt_1" Label="pt_1" Title="pt_1" Unit="" Internal="pt_1" Type="F" Min="1.90000038e+01" Max="4.17114105e+02"/>
    <Variable VarIndex="1" Expression="mt_1" Label="mt_1" Title="mt_1" Unit="" Internal="mt_1" Type="F" Min="1.15565972e-05" Max="3.99996033e+01"/>
    <Variable VarIndex="2" Expression="pt_2" Label="pt_2" Title="pt_2" Unit="" Internal="pt_2" Type="F" Min="2.00001640e+01" Max="8.71813477e+02"/>
    <Variable VarIndex="3" Expression="mt_2" Label="mt_2" Title="mt_2" Unit="" Internal="mt_2" Type="F" Min="7.76567031e-04" Max="1.30274609e+03"/>
    <Variable VarIndex="4" Expression="mvamet" Label="mvamet" Title="mvamet" Unit="" Internal="mvamet" Type="F" Min="1.08303413e-01" Max="6.18320374e+02"/>
    <Variable VarIndex="5" Expression="pZetaMissVis" Label="pZetaMissVis" Title="pZetaMissVis" Unit="" Internal="pZetaMissVis" Type="F" Min="-6.14930481e+02" Max="4.37205780e+02"/>
    <Variable VarIndex="6" Expression="H_pt" Label="H_pt" Title="H_pt" Unit="" Internal="H_pt" Type="F" Min="4.84008372e-01" Max="1.11322144e+03"/>
    <Variable VarIndex="7" Expression="diLepDeltaR" Label="diLepDeltaR" Title="diLepDeltaR" Unit="" Internal="diLepDeltaR" Type="F" Min="5.00167727e-01" Max="6.92837620e+00"/>
    <Variable VarIndex="8" Expression="diLepJet1DeltaR" Label="diLepJet1DeltaR" Title="diLepJet1DeltaR" Unit="" Internal="diLepJet1DeltaR" Type="F" Min="1.69561822e-02" Max="1.02609129e+01"/>
    <Variable VarIndex="9" Expression="m_sv" Label="m_sv" Title="m_sv" Unit="" Internal="m_sv" Type="F" Min="1.47900810e+01" Max="2.01988953e+03"/>
  </Variables>
  <Spectators NSpec="0"/>
  <Classes NClass="2">
    <Class Name="Background" Index="0"/>
    <Class Name="Signal" Index="1"/>
  </Classes>
  <Transformations NTransformations="0"/>
  <MVAPdfs/>
  <Weights NTrees="750" AnalysisType="1">
    <BinaryTree type="DecisionTree" boostWeight="1.0000000000000000e+00" itree="0">
      <Node pos="s" depth="0" NCoef="0" IVar="9" Cut="9.8920127868652344e+01" cType="1" res="-5.3126018948353024e-17" rms="5.0000000000000000e-01" purity="5.0000000000000000e-01" nType="0">
        <Node pos="l" depth="1" NCoef="0" IVar="9" Cut="8.3791603088378906e+01" cType="1" res="-2.7788412570953369e-01" rms="4.1566863656044006e-01" purity="2.2211587429046631e-01" nType="0">
          <Node pos="l" depth="2" NCoef="0" IVar="5" Cut="-1.9185928106307983e+00" cType="1" res="-3.9769858121871948e-01" rms="3.0304428935050964e-01" purity="1.0230141878128052e-01" nType="0">
            <Node pos="l" depth="3" NCoef="0" IVar="-1" Cut="0.0000000000000000e+00" cType="1" res="-1.8332185223698616e-02" rms="2.2692684829235077e-01" purity="5.4461896419525146e-02" nType="-99"/>
            <Node pos="r" depth="3" NCoef="0" IVar="-1" Cut="0.0000000000000000e+00" cType="1" res="-1.1381070129573345e-02" rms="4.0503570437431335e-01" purity="2.0683437585830688e-01" nType="-99"/>
          </Node>
          <Node pos="r" depth="2" NCoef="0" IVar="5" Cut="8.7413209676742554e-01" cType="1" res="-1.8541669845581055e-01" rms="4.6434968709945679e-01" purity="3.1458327174186707e-01" nType="0">
            <Node pos="l" depth="3" NCoef="0" IVar="-1" Cut="0.0000000000000000e+00" cType="1" res="-9.7560798749327660e-03" rms="4.3531829118728638e-01" purity="2.5403666496276855e-01" nType="-99"/>
            <Node pos="r" depth="3" NCoef="0" IVar="-1" Cut="0.0000000000000000e+00" cType="1" res="-2.0150255877524614e-03" rms="4.9441236257553101e-01" purity="4.2545872926712036e-01" nType="-99"/>
          </Node>
        </Node>
        <Node pos="r" depth="1" NCoef="0" IVar="9" Cut="1.1235389709472656e+02" cType="1" res="1.6830444335937500e-01" rms="4.7082227468490601e-01" purity="6.6830444335937500e-01" nType="0">
          <Node pos="l" depth="2" NCoef="0" IVar="6" Cut="6.5060707092285156e+01" cType="1" res="3.4897752106189728e-02" rms="4.9878066778182983e-01" purity="5.3489768505096436e-01" nType="0">
            <Node pos="l" depth="3" NCoef="0" IVar="-1" Cut="0.0000000000000000e+00" cType="1" res="-5.4336071480065584e-04" rms="4.9944451451301575e-01" purity="4.7643762826919556e-01" nType="-99"/>
            <Node pos="r" depth="3" NCoef="0" IVar="-1" Cut="0.0000000000000000e+00" cType="1" res="2.8579463250935078e-03" rms="4.7824841737747192e-01" purity="6.4587134122848511e-01" nType="-99"/>
          </Node>
          <Node pos="r" depth="2" NCoef="0" IVar="9" Cut="1.5808905029296875e+02" cType="1" res="2.3009218275547028e-01" rms="4.4391170144081116e-01" purity="7.3009222745895386e-01" nType="0">
            <Node pos="l" depth="3" NCoef="0" IVar="-1" Cut="0.0000000000000000e+00" cType="1" res="4.1586183942854404e-03" rms="4.1682165861129761e-01" purity="7.7615159749984741e-01" nType="-99"/>
            <Node pos="r" depth="3" NCoef="0" IVar="-1" Cut="0.0000000000000000e+00" cType="1" res="-2.2552951704710722e-03" rms="4.9019402265548706e-01" purity="4.0146160125732422e-01" nType="-99"/>
          </Node>
        </Node>
      </Node>
    </BinaryTree>
    <BinaryTree type="DecisionTree" boostWeight="1.0000000000000000e+00" itree="1">
      <Node pos="s" depth="0" NCoef="0" IVar="9" Cut="9.8920127868652344e+01" cType="1" res="1.2947008945047855e-03" rms="4.9810630083084106e-01" purity="5.0000000000000000e-01" nType="0">
        <Node pos="l" depth="1" NCoef="0" IVar="9" Cut="8.3791603088378906e+01" cType="1" res="-2.7238556742668152e-01" rms="4.1477924585342407e-01" purity="2.2211587429046631e-01" nType="0">
          <Node pos="l" depth="2" NCoef="0" IVar="5" Cut="-1.9185928106307983e+00" cType="1" res="-3.8962447643280029e-01" rms="3.0267202854156494e-01" purity="1.0230141878128052e-01" nType="0">
            <Node pos="l" depth="3" NCoef="0" IVar="-1" Cut="0.0000000000000000e+00" cType="1" res="-1.7961112782359123e-02" rms="2.2692684829235077e-01" purity="5.4461896419525146e-02" nType="-99"/>
            <Node pos="r" depth="3" NCoef="0" IVar="-1" Cut="0.0000000000000000e+00" cType="1" res="-1.1161612346768379e-02" rms="4.0503570437431335e-01" purity="2.0683437585830688e-01" nType="-99"/>
          </Node>
          <Node pos="r" depth="2" NCoef="0" IVar="5" Cut="8.7413209676742554e-01" cType="1" res="-1.8190585076808929e-01" rms="4.6402683854103088e-01" purity="3.1458327174186707e-01" nType="0">
            <Node pos="l" depth="3" NCoef="0" IVar="-1" Cut="0.0000000000000000e+00" cType="1" res="-9.5635093748569489e-03" rms="4.3531829118728638e-01" purity="2.5403666496276855e-01" nType="-99"/>
            <Node pos="r" depth="3" NCoef="0" IVar="-1" Cut="0.0000000000000000e+00" cType="1" res="-1.9877988379448652e-03" rms="4.9441236257553101e-01" purity="4.2545872926712036e-01" nType="-99"/>
          </Node>
        </Node>
        <Node pos="r" depth="1" NCoef="0" IVar="9" Cut="1.1235389709472656e+02" cType="1" res="1.6705301403999329e-01" rms="4.7046887874603271e-01" purity="6.6830444335937500e-01" nType="0">
          <Node pos="l" depth="2" NCoef="0" IVar="6" Cut="6.5060707092285156e+01" cType="1" res="3.4582652151584625e-02" rms="4.9865075945854187e-01" purity="5.3489768505096436e-01" nType="0">
            <Node pos="l" depth="3" NCoef="0" IVar="-1" Cut="0.0000000000000000e+00" cType="1" res="-5.3709582425653934e-04" rms="4.9944451451301575e-01" purity="4.7643762826919556e-01" nType="-99"/>
            <Node pos="r" depth="3" NCoef="0" IVar="-1" Cut="0.0000000000000000e+00" cType="1" res="2.8299728874117136e-03" rms="4.7824841737747192e-01" purity="6.4587134122848511e-01" nType="-99"/>
          </Node>
          <Node pos="r" depth="2" NCoef="0" IVar="9" Cut="1.5808905029296875e+02" cType="1" res="2.2840709984302521e-01" rms="4.4362100958824158e-01" purity="7.3009222745895386e-01" nType="0">
            <Node pos="l" depth="3" NCoef="0" IVar="-1" Cut="0.0000000000000000e+00" cType="1" res="4.1273771785199642e-03" rms="4.1682165861129761e-01" purity="7.7615159749984741e-01" nType="-99"/>
            <Node pos="r" depth="3" NCoef="0" IVar="-1" Cut="0.0000000000000000e+00" cType="1" res="-2.2294970694929361e-03" rms="4.9019402265548706e-01" purity="4.0146160125732422e-01" nType="-99"/>
          </Node>
        </Node>
      </Node>
    </BinaryTree>
    <BinaryTree type="DecisionTree" boostWeight="1.0000000000000000e+00" itree="2">
      <Node pos="s" depth="0" NCoef="0" IVar="9" Cut="1.0092322540283203e+02" cType="1" res="2.5534222368150949e-03" rms="4.9626705050468445e-01" purity="5.0000000000000000e-01" nType="0">
        <Node pos="l" depth="1" NCoef="0" IVar="9" Cut="8.3885826110839844e+01" cType="1" res="-2.4918957054615021e-01" rms="4.2556300759315491e-01" purity="2.4083471298217773e-01" nType="0">
          <Node pos="l" depth="2" NCoef="0" IVar="5" Cut="-1.9185928106307983e+00" cType="1" res="-3.8094088435173035e-01" rms="3.0337658524513245e-01" purity="1.0313917696475983e-01" nType="0">
            <Node pos="l" depth="3" NCoef="0" IVar="-1" Cut="0.0000000000000000e+00" cType="1" res="-1.7695730552077293e-02" rms="2.2680757939815521e-01" purity="5.4399546235799789e-02" nType="-99"/>
            <Node pos="r" depth="3" NCoef="0" IVar="-1" Cut="0.0000000000000000e+00" cType="1" res="-1.0788518004119396e-02" rms="4.0671938657760620e-01" purity="2.0925301313400269e-01" nType="-99"/>
          </Node>
          <Node pos="r" depth="2" NCoef="0" IVar="5" Cut="8.7413209676742554e-01" cType="1" res="-1.6004861891269684e-01" rms="4.7082307934761047e-01" purity="3.3399739861488342e-01" nType="0">
            <Node pos="l" depth="3" NCoef="0" IVar="-1" Cut="0.0000000000000000e+00" cType="1" res="-7.6848901808261871e-03" rms="4.4910639524459839e-01" purity="2.8128033876419067e-01" nType="-99"/>
            <Node pos="r" depth="3" NCoef="0" IVar="-1" Cut="0.0000000000000000e+00" cType="1" res="-1.8016091780737042e-03" rms="4.9518188834190369e-01" purity="4.3124559521675110e-01" nType="-99"/>
          </Node>
        </Node>
        <Node pos="r" depth="1" NCoef="0" IVar="9" Cut="1.5843518066406250e+02" cType="1" res="1.7738479375839233e-01" rms="4.6579700708389282e-01" purity="6.7998605966567993e-01" nType="0">
          <Node pos="l" depth="2" NCoef="0" IVar="9" Cut="1.1229869842529297e+02" cType="1" res="2.0433342456817627e-01" rms="4.5450809597969055e-01" purity="7.0739334821701050e-01" nType="0">
            <Node pos="l" depth="3" NCoef="0" IVar="-1" Cut="0.0000000000000000e+00" cType="1" res="1.0437036398798227e-03" rms="4.9724331498146057e-01" purity="5.4983681440353394e-01" nType="-99"/>
            <Node pos="r" depth="3" NCoef="0" IVar="-1" Cut="0.0000000000000000e+00" cType="1" res="4.0940726175904274e-03" rms="4.1682678461074829e-01" purity="7.7614444494247437e-01" nType="-99"/>
          </Node>
          <Node pos="r" depth="2" NCoef="0" IVar="-1" Cut="0.0000000000000000e+00" cType="1" res="-2.5147949345409870e-03" rms="4.8787799477577209e-01" purity="3.9056938886642456e-01" nType="-99"/>
        </Node>
      </Node>
    </BinaryTree>
    <BinaryTree type="DecisionTree" boostWeight="1.0000000000000000e+00" itree="3">
      <Node pos="s" depth="0" NCoef="0" IVar="9" Cut="9.8920127868652344e+01" cType="1" res="3.7314919754862785e-03" rms="4.9453896284103394e-01" purity="5.0000000000000000e-01" nType="0">
        <Node pos="l" depth="1" NCoef="0" IVar="9" Cut="8.3791603088378906e+01" cType="1" res="-2.6202681660652161e-01" rms="4.1307482123374939e-01" purity="2.2211587429046631e-01" nType="0">
          <Node pos="l" depth="2" NCoef="0" IVar="5" Cut="-1.9185928106307983e+00" cType="1" res="-3.7396687269210815e-01" rms="3.0196365714073181e-01" purity="1.0230141878128052e-01" nType="0">
            <Node pos="l" depth="3" NCoef="0" IVar="-1" Cut="0.0000000000000000e+00" cType="1" res="-1.7272790893912315e-02" rms="2.2692684829235077e-01" purity="5.4461896419525146e-02" nType="-99"/>
            <Node pos="r" depth="3" NCoef="0" IVar="-1" Cut="0.0000000000000000e+00" cType="1" res="-1.0746259242296219e-02" rms="4.0503570437431335e-01" purity="2.0683437585830688e-01" nType="-99"/>
          </Node>
          <Node pos="r" depth="2" NCoef="0" IVar="5" Cut="8.7413209676742554e-01" cType="1" res="-1.7563651502132416e-01" rms="4.6347814798355103e-01" purity="3.1458327174186707e-01" nType="0">
            <Node pos="l" depth="3" NCoef="0" IVar="-1" Cut="0.0000000000000000e+00" cType="1" res="-9.2264730483293533e-03" rms="4.3530735373497009e-01" purity="2.5403666496276855e-01" nType="-99"/>
            <Node pos="r" depth="3" NCoef="0" IVar="-1" Cut="0.0000000000000000e+00" cType="1" res="-1.9359277794137597e-03" rms="4.9441680312156677e-01" purity="4.2545872926712036e-01" nType="-99"/>
          </Node>
        </Node>
        <Node pos="r" depth="1" NCoef="0" IVar="9" Cut="1.1235389709472656e+02" cType="1" res="1.6469176113605499e-01" rms="4.6975061297416687e-01" purity="6.6830444335937500e-01" nType="0">
          <Node pos="l" depth="2" NCoef="0" IVar="6" Cut="6.5060707092285156e+01" cType="1" res="3.4298788756132126e-02" rms="4.9843192100524902e-01" purity="5.3489768505096436e-01" nType="0">
            <Node pos="l" depth="3" NCoef="0" IVar="-1" Cut="0.0000000000000000e+00" cType="1" res="-5.2956549916416407e-04" rms="4.9937927722930908e-01" purity="4.7643762826919556e-01" nType="-99"/>
            <Node pos="r" depth="3" NCoef="0" IVar="-1" Cut="0.0000000000000000e+00" cType="1" res="2.8017933946102858e-03" rms="4.7812092304229736e-01" purity="6.4587134122848511e-01" nType="-99"/>
          </Node>
          <Node pos="r" depth="2" NCoef="0" IVar="9" Cut="1.5808905029296875e+02" cType="1" res="2.2508369386196136e-01" rms="4.4303789734840393e-01" purity="7.3009222745895386e-01" nType="0">
            <Node pos="l" depth="3" NCoef="0" IVar="-1" Cut="0.0000000000000000e+00" cType="1" res="4.0660295635461807e-03" rms="4.1682165861129761e-01" purity="7.7615159749984741e-01" nType="-99"/>
            <Node pos="r" depth="3" NCoef="0" IVar="-1" Cut="0.0000000000000000e+00" cType="1" res="-2.1771353203803301e-03" rms="4.9012264609336853e-01" purity="4.0146160125732422e-01" nType="-99"/>
          </Node>
        </Node>
      </Node>
    </BinaryTree>
    <BinaryTree type="DecisionTree" boostWeight="1.0000000000000000e+00" itree="4">
      <Node pos="s" depth="0" NCoef="0" IVar="9" Cut="1.0092322540283203e+02" cType="1" res="4.9223406240344048e-03" rms="4.9280163645744324e-01" purity="5.0000000000000000e-01" nType="0">
        <Node pos="l" depth="1" NCoef="0" IVar="9" Cut="8.3885826110839844e+01" cType="1" res="-2.3964332044124603e-01" rms="4.2380073666572571e-01" purity="2.4083471298217773e-01" nType="0">
          <Node pos="l" depth="2" NCoef="0" IVar="5" Cut="-1.9185928106307983e+00" cType="1" res="-3.6563715338706970e-01" rms="3.0267783999443054e-01" purity="1.0313917696475983e-01" nType="0">
            <Node pos="l" depth="3" NCoef="0" IVar="-1" Cut="0.0000000000000000e+00" cType="1" res="-1.7038939520716667e-02" rms="2.2680966556072235e-01" purity="5.4399546235799789e-02" nType="-99"/>
            <Node pos="r" depth="3" NCoef="0" IVar="-1" Cut="0.0000000000000000e+00" cType="1" res="-1.0389621369540691e-02" rms="4.0669342875480652e-01" purity="2.0925301313400269e-01" nType="-99"/>
          </Node>
          <Node pos="r" depth="2" NCoef="0" IVar="9" Cut="9.6293685913085938e+01" cType="1" res="-1.5439780056476593e-01" rms="4.7024965286254883e-01" purity="3.3399739861488342e-01" nType="0">
            <Node pos="l" depth="3" NCoef="0" IVar="-1" Cut="0.0000000000000000e+00" cType="1" res="-7.2785611264407635e-03" rms="4.5160323381423950e-01" purity="2.8831556439399719e-01" nType="-99"/>
            <Node pos="r" depth="3" NCoef="0" IVar="-1" Cut="0.0000000000000000e+00" cType="1" res="-1.3663023710250854e-03" rms="4.9567598104476929e-01" purity="4.3840643763542175e-01" nType="-99"/>
          </Node>
        </Node>
        <Node pos="r" depth="1" NCoef="0" IVar="9" Cut="1.5843518066406250e+02" cType="1" res="1.7476917803287506e-01" rms="4.6517777442932129e-01" purity="6.7998605966567993e-01" nType="0">
          <Node pos="l" depth="2" NCoef="0" IVar="9" Cut="1.1229869842529297e+02" cType="1" res="2.0124796032905579e-01" rms="4.5413291454315186e-01" purity="7.0739334821701050e-01" nType="0">
            <Node pos="l" depth="3" NCoef="0" IVar="-1" Cut="0.0000000000000000e+00" cType="1" res="1.0259333066642284e-03" rms="4.9711388349533081e-01" purity="5.4983681440353394e-01" nType="-99"/>
            <Node pos="r" depth="3" NCoef="0" IVar="-1" Cut="0.0000000000000000e+00" cType="1" res="4.0336898528039455e-03" rms="4.1682711243629456e-01" purity="7.7614444494247437e-01" nType="-99"/>
          </Node>
          <Node pos="r" depth="2" NCoef="0" IVar="-1" Cut="0.0000000000000000e+00" cType="1" res="-2.4599153548479080e-03" rms="4.8787799477577209e-01" purity="3.9056938886642456e-01" nType="-99"/>
        </Node>
      </Node>
    </BinaryTree>
    <BinaryTree type="DecisionTree" boostWeight="1.0000000000000000e+00" itree="5">
      <Node pos="s" depth="0" NCoef="0" IVar="9" Cut="1.0092322540283203e+02" cType="1" res="6.0426290147006512e-03" rms="4.9116680026054382e-01" purity="5.0000000000000000e-01" nType="0">
        <Node pos="l" depth="1" NCoef="0" IVar="9" Cut="8.3885826110839844e+01" cType="1" res="-2.3501180112361908e-01" rms="4.2302235960960388e-01" purity="2.4083471298217773e-01" nType="0">
          <Node pos="l" depth="2" NCoef="0" IVar="5" Cut="-1.9185928106307983e+00" cType="1" res="-3.5820510983467102e-01" rms="3.0235102772712708e-01" purity="1.0313917696475983e-01" nType="0">
            <Node pos="l" depth="3" NCoef="0" IVar="-1" Cut="0.0000000000000000e+00" cType="1" res="-1.6732534393668175e-02" rms="2.2680963575839996e-01" purity="5.4399546235799789e-02" nType="-99"/>
            <Node pos="r" depth="3" NCoef="0" IVar="-1" Cut="0.0000000000000000e+00" cType="1" res="-1.0199687443673611e-02" rms="4.0669351816177368e-01" purity="2.0925301313400269e-01" nType="-99"/>
          </Node>
          <Node pos="r" depth="2" NCoef="0" IVar="9" Cut="9.6293685913085938e+01" cType="1" res="-1.5166108310222626e-01" rms="4.7005847096443176e-01" purity="3.3399739861488342e-01" nType="0">
            <Node pos="l" depth="3" NCoef="0" IVar="-1" Cut="0.0000000000000000e+00" cType="1" res="-7.1481028571724892e-03" rms="4.5160374045372009e-01" purity="2.8831556439399719e-01" nType="-99"/>
            <Node pos="r" depth="3" NCoef="0" IVar="-1" Cut="0.0000000000000000e+00" cType="1" res="-1.3488236581906676e-03" rms="4.9567601084709167e-01" purity="4.3840643763542175e-01" nType="-99"/>
          </Node>
        </Node>
        <Node pos="r" depth="1" NCoef="0" IVar="9" Cut="1.5843518066406250e+02" cType="1" res="1.7345096170902252e-01" rms="4.6489667892456055e-01" purity="6.7998605966567993e-01" nType="0">
          <Node pos="l" depth="2" NCoef="0" IVar="9" Cut="1.1229869842529297e+02" cType="1" res="1.9968844950199127e-01" rms="4.5397967100143433e-01" purity="7.0739334821701050e-01" nType="0">
            <Node pos="l" depth="3" NCoef="0" IVar="-1" Cut="0.0000000000000000e+00" cType="1" res="1.0150583693757653e-03" rms="4.9711388349533081e-01" purity="5.4983681440353394e-01" nType="-99"/>
            <Node pos="r" depth="3" NCoef="0" IVar="-1" Cut="0.0000000000000000e+00" cType="1" res="4.0039336308836937e-03" rms="4.1682711243629456e-01" purity="7.7614444494247437e-01" nType="-99"/>
          </Node>
          <Node pos="r" depth="2" NCoef="0" IVar="-1" Cut="0.0000000000000000e+00" cType="1" res="-2.4311845190823078e-03" rms="4.8787799477577209e-01" purity="3.9056938886642456e-01" nType="-99"/>
        </Node>
      </Node>
    </BinaryTree>
    <BinaryTree type="DecisionTree" boostWeight="1.0000000000000000e+00" itree="6">
      <Node pos="s" depth="0" NCoef="0" IVar="9" Cut="1.0092322540283203e+02" cType="1" res="7.1314955130219460e-03" rms="4.8957857489585876e-01" purity="5.0000000000000000e-01" nType="0">
        <Node pos="l" depth="1" NCoef="0" IVar="9" Cut="8.3885826110839844e+01" cType="1" res="-2.3047125339508057e-01" rms="4.2227643728256226e-01" purity="2.4083471298217773e-01" nType="0">
          <Node pos="l" depth="2" NCoef="0" IVar="5" Cut="-1.9185928106307983e+00" cType="1" res="-3.5092583298683167e-01" rms="3.0203893780708313e-01" purity="1.0313917696475983e-01" nType="0">
            <Node pos="l" depth="3" NCoef="0" IVar="-1" Cut="0.0000000000000000e+00" cType="1" res="-1.6440141946077347e-02" rms="2.2680962085723877e-01" purity="5.4399546235799789e-02" nType="-99"/>
            <Node pos="r" depth="3" NCoef="0" IVar="-1" Cut="0.0000000000000000e+00" cType="1" res="-1.0015155188739300e-02" rms="4.0669354796409607e-01" purity="2.0925301313400269e-01" nType="-99"/>
          </Node>
          <Node pos="r" depth="2" NCoef="0" IVar="5" Cut="8.7413209676742554e-01" cType="1" res="-1.4897352457046509e-01" rms="4.6987491846084595e-01" purity="3.3399739861488342e-01" nType="0">
            <Node pos="l" depth="3" NCoef="0" IVar="-1" Cut="0.0000000000000000e+00" cType="1" res="-7.2148726321756840e-03" rms="4.4832435250282288e-01" purity="2.8128033876419067e-01" nType="-99"/>
            <Node pos="r" depth="3" NCoef="0" IVar="-1" Cut="0.0000000000000000e+00" cType="1" res="-1.6085269162431359e-03" rms="4.9502199888229370e-01" purity="4.3124559521675110e-01" nType="-99"/>
          </Node>
        </Node>
        <Node pos="r" depth="1" NCoef="0" IVar="9" Cut="1.5843518066406250e+02" cType="1" res="1.7214269936084747e-01" rms="4.6461990475654602e-01" purity="6.7998605966567993e-01" nType="0">
          <Node pos="l" depth="2" NCoef="0" IVar="9" Cut="1.1229869842529297e+02" cType="1" res="1.9814120233058929e-01" rms="4.5382842421531677e-01" purity="7.0739334821701050e-01" nType="0">
            <Node pos="l" depth="3" NCoef="0" IVar="-1" Cut="0.0000000000000000e+00" cType="1" res="1.0043012443929911e-03" rms="4.9711385369300842e-01" purity="5.4983681440353394e-01" nType="-99"/>
            <Node pos="r" depth="3" NCoef="0" IVar="-1" Cut="0.0000000000000000e+00" cType="1" res="3.9745206013321877e-03" rms="4.1682711243629456e-01" purity="7.7614444494247437e-01" nType="-99"/>
          </Node>
          <Node pos="r" depth="2" NCoef="0" IVar="-1" Cut="0.0000000000000000e+00" cType="1" res="-2.4028166662901640e-03" rms="4.8787802457809448e-01" purity="3.9056938886642456e-01" nType="-99"/>
        </Node>
      </Node>
    </BinaryTree>
    <BinaryTree type="DecisionTree" boostWeight="1.0000000000000000e+00" itree="7">
      <Node pos="s" depth="0" NCoef="0" IVar="9" Cut="1.0092322540283203e+02" cType="1" res="8.1840436905622482e-03" rms="4.8803555965423584e-01" purity="5.0000000000000000e-01" nType="0">
        <Node pos="l" depth="1" NCoef="0" IVar="9" Cut="8.3885826110839844e+01" cType="1" res="-2.2603350877761841e-01" rms="4.2155399918556213e-01" purity="2.4083471298217773e-01" nType="0">
          <Node pos="l" depth="2" NCoef="0" IVar="8" Cut="3.6418457031250000e+00" cType="1" res="-3.4379607439041138e-01" rms="3.0174088478088379e-01" purity="1.0313917696475983e-01" nType="0">
            <Node pos="l" depth="3" NCoef="0" IVar="-1" Cut="0.0000000000000000e+00" cType="1" res="-1.8816059455275536e-02" rms="2.3770596086978912e-01" purity="6.1001829802989960e-02" nType="-99"/>
            <Node pos="r" depth="3" NCoef="0" IVar="-1" Cut="0.0000000000000000e+00" cType="1" res="-7.6375221833586693e-03" rms="3.9289966225624084e-01" purity="1.9511412084102631e-01" nType="-99"/>
          </Node>
          <Node pos="r" depth="2" NCoef="0" IVar="9" Cut="9.6293685913085938e+01" cType="1" res="-1.4635714888572693e-01" rms="4.6969088912010193e-01" purity="3.3399739861488342e-01" nType="0">
            <Node pos="l" depth="3" NCoef="0" IVar="-1" Cut="0.0000000000000000e+00" cType="1" res="-6.9285742938518524e-03" rms="4.5134612917900085e-01" purity="2.8831556439399719e-01" nType="-99"/>
            <Node pos="r" depth="3" NCoef="0" IVar="-1" Cut="0.0000000000000000e+00" cType="1" res="-1.2634602608159184e-03" rms="4.9562683701515198e-01" purity="4.3840643763542175e-01" nType="-99"/>
          </Node>
        </Node>
        <Node pos="r" depth="1" NCoef="0" IVar="9" Cut="1.5843518066406250e+02" cType="1" res="1.7084428668022156e-01" rms="4.6434742212295532e-01" purity="6.7998605966567993e-01" nType="0">
          <Node pos="l" depth="2" NCoef="0" IVar="9" Cut="1.1229869842529297e+02" cType="1" res="1.9660608470439911e-01" rms="4.5367914438247681e-01" purity="7.0739334821701050e-01" nType="0">
            <Node pos="l" depth="3" NCoef="0" IVar="-1" Cut="0.0000000000000000e+00" cType="1" res="9.9365983624011278e-04" rms="4.9711388349533081e-01" purity="5.4983681440353394e-01" nType="-99"/>
            <Node pos="r" depth="3" NCoef="0" IVar="-1" Cut="0.0000000000000000e+00" cType="1" res="3.9454442448914051e-03" rms="4.1682714223861694e-01" purity="7.7614444494247437e-01" nType="-99"/>
          </Node>
          <Node pos="r" depth="2" NCoef="0" IVar="-1" Cut="0.0000000000000000e+00" cType="1" res="-2.3748059757053852e-03" rms="4.8787799477577209e-01" purity="3.9056938886642456e-01" nType="-99"/>
        </Node>
      </Node>
    </BinaryTree>
    <BinaryTree type="DecisionTree" boostWeight="1.0000000000000000e+00" itree="8">
      <Node pos="s" depth="0" NCoef="0" IVar="9" Cut="1.0092322540283203e+02" cType="1" res="9.3062790110707283e-03" rms="4.8644581437110901e-01" purity="5.0000000000000000e-01" nType="0">
        <Node pos="l" depth="1" NCoef="0" IVar="9" Cut="8.3885826110839844e+01" cType="1" res="-2.2143983840942383e-01" rms="4.2073938250541687e-01" purity="2.4083471298217773e-01" nType="0">
          <Node pos="l" depth="2" NCoef="0" IVar="5" Cut="-1.9185928106307983e+00" cType="1" res="-3.3624911308288574e-01" rms="3.0123478174209595e-01" purity="1.0313917696475983e-01" nType="0">
            <Node pos="l" depth="3" NCoef="0" IVar="-1" Cut="0.0000000000000000e+00" cType="1" res="-1.5900177881121635e-02" rms="2.2646920382976532e-01" purity="5.4399546235799789e-02" nType="-99"/>
            <Node pos="r" depth="3" NCoef="0" IVar="-1" Cut="0.0000000000000000e+00" cType="1" res="-9.5703853294253349e-03" rms="4.0596976876258850e-01" purity="2.0925301313400269e-01" nType="-99"/>
          </Node>
          <Node pos="r" depth="2" NCoef="0" IVar="5" Cut="8.7413209676742554e-01" cType="1" res="-1.4376160502433777e-01" rms="4.6951544284820557e-01" purity="3.3399739861488342e-01" nType="0">
            <Node pos="l" depth="3" NCoef="0" IVar="-1" Cut="0.0000000000000000e+00" cType="1" res="-6.9970875047147274e-03" rms="4.4806802272796631e-01" purity="2.8128033876419067e-01" nType="-99"/>
            <Node pos="r" depth="3" NCoef="0" IVar="-1" Cut="0.0000000000000000e+00" cType="1" res="-1.5165202785283327e-03" rms="4.9496558308601379e-01" purity="4.3124559521675110e-01" nType="-99"/>
          </Node>
        </Node>
        <Node pos="r" depth="1" NCoef="0" IVar="9" Cut="1.5843518066406250e+02" cType="1" res="1.6955566406250000e-01" rms="4.6407911181449890e-01" purity="6.7998605966567993e-01" nType="0">
          <Node pos="l" depth="2" NCoef="0" IVar="9" Cut="1.1229869842529297e+02" cType="1" res="1.9508302211761475e-01" rms="4.5353177189826965e-01" purity="7.0739334821701050e-01" nType="0">
            <Node pos="l" depth="3" NCoef="0" IVar="-1" Cut="0.0000000000000000e+00" cType="1" res="9.8313298076391220e-04" rms="4.9711388349533081e-01" purity="5.4983681440353394e-01" nType="-99"/>
            <Node pos="r" depth="3" NCoef="0" IVar="-1" Cut="0.0000000000000000e+00" cType="1" res="3.9166971109807491e-03" rms="4.1682714223861694e-01" purity="7.7614444494247437e-01" nType="-99"/>
          </Node>
          <Node pos="r" depth="2" NCoef="0" IVar="-1" Cut="0.0000000000000000e+00" cType="1" res="-2.3471461609005928e-03" rms="4.8787799477577209e-01" purity="3.9056938886642456e-01" nType="-99"/>
        </Node>
      </Node>
    </BinaryTree>
    <BinaryTree type="DecisionTree" boostWeight="1.0000000000000000e+00" itree="9">
      <Node pos="s" depth="0" NCoef="0" IVar="9" Cut="1.0092322540283203e+02" cType="1" res="1.0298427194356918e-02" rms="4.8498892784118652e-01" purity="5.0000000000000000e-01" nType="0">
        <Node pos="l" depth="1" NCoef="0" IVar="9" Cut="8.3885826110839844e+01" cType="1" res="-2.1717751026153564e-01" rms="4.2007207870483398e-01" purity="2.4083471298217773e-01" nType="0">
          <Node pos="l" depth="2" NCoef="0" IVar="5" Cut="-1.9185928106307983e+00" cType="1" res="-3.2942140102386475e-01" rms="3.0095309019088745e-01" purity="1.0313917696475983e-01" nType="0">
            <Node pos="l" depth="3" NCoef="0" IVar="-1" Cut="0.0000000000000000e+00" cType="1" res="-1.5643278136849403e-02" rms="2.2647064924240112e-01" purity="5.4399546235799789e-02" nType="-99"/>
            <Node pos="r" depth="3" NCoef="0" IVar="-1" Cut="0.0000000000000000e+00" cType="1" res="-9.4025647267699242e-03" rms="4.0597116947174072e-01" purity="2.0925301313400269e-01" nType="-99"/>
          </Node>
          <Node pos="r" depth="2" NCoef="0" IVar="8" Cut="3.6843845844268799e+00" cType="1" res="-1.4123500883579254e-01" rms="4.6933951973915100e-01" purity="3.3399739861488342e-01" nType="0">
            <Node pos="l" depth="3" NCoef="0" IVar="-1" Cut="0.0000000000000000e+00" cType="1" res="-6.8890885449945927e-03" rms="4.5020174980163574e-01" purity="2.8765711188316345e-01" nType="-99"/>
            <Node pos="r" depth="3" NCoef="0" IVar="-1" Cut="0.0000000000000000e+00" cType="1" res="-1.3959317002445459e-03" rms="4.9216452240943909e-01" purity="4.2320081591606140e-01" nType="-99"/>
          </Node>
        </Node>
        <Node pos="r" depth="1" NCoef="0" IVar="9" Cut="1.5843518066406250e+02" cType="1" res="1.6827672719955444e-01" rms="4.6381497383117676e-01" purity="6.7998605966567993e-01" nType="0">
          <Node pos="l" depth="2" NCoef="0" IVar="9" Cut="1.1229869842529297e+02" cType="1" res="1.9357188045978546e-01" rms="4.5338633656501770e-01" purity="7.0739334821701050e-01" nType="0">
            <Node pos="l" depth="3" NCoef="0" IVar="-1" Cut="0.0000000000000000e+00" cType="1" res="9.7271933918818831e-04" rms="4.9711388349533081e-01" purity="5.4983681440353394e-01" nType="-99"/>
            <Node pos="r" depth="3" NCoef="0" IVar="-1" Cut="0.0000000000000000e+00" cType="1" res="3.8882724475115538e-03" rms="4.1682714223861694e-01" purity="7.7614444494247437e-01" nType="-99"/>
          </Node>
          <Node pos="r" depth="2" NCoef="0" IVar="-1" Cut="0.0000000000000000e+00" cType="1" res="-2.3198320996016264e-03" rms="4.8787802457809448e-01" purity="3.9056938886642456e-01" nType="-99"/>
        </Node>
      </Node>
    </BinaryTree>
    <BinaryTree type="DecisionTree" boostWeight="1.0000000000000000e+00" itree="10">
      <Node pos="s" depth="0" NCoef="0" IVar="9" Cut="1.0092322540283203e+02" cType="1" res="1.1265893466770649e-02" rms="4.8357111215591431e-01" purity="5.0000000000000000e-01" nType="0">
        <Node pos="l" depth="1" NCoef="0" IVar="9" Cut="8.8876556396484375e+01" cType="1" res="-2.1298928558826447e-01" rms="4.1943126916885376e-01" purity="2.4083471298217773e-01" nType="0">
          <Node pos="l" depth="2" NCoef="0" IVar="5" Cut="-1.9185928106307983e+00" cType="1" res="-2.9398113489151001e-01" rms="3.4465089440345764e-01" purity="1.4353272318840027e-01" nType="0">
            <Node pos="l" depth="3" NCoef="0" IVar="-1" Cut="0.0000000000000000e+00" cType="1" res="-1.5402792021632195e-02" rms="2.7430233359336853e-01" purity="8.4085911512374878e-02" nType="-99"/>
            <Node pos="r" depth="3" NCoef="0" IVar="-1" Cut="0.0000000000000000e+00" cType="1" res="-7.0792189799249172e-03" rms="4.3541026115417480e-01" purity="2.5953617691993713e-01" nType="-99"/>
          </Node>
          <Node pos="r" depth="2" NCoef="0" IVar="8" Cut="3.6897156238555908e+00" cType="1" res="-1.1194749921560287e-01" rms="4.7834384441375732e-01" purity="3.6222428083419800e-01" nType="0">
            <Node pos="l" depth="3" NCoef="0" IVar="-1" Cut="0.0000000000000000e+00" cType="1" res="-5.2474858239293098e-03" rms="4.6324539184570312e-01" purity="3.1781843304634094e-01" nType="-99"/>
            <Node pos="r" depth="3" NCoef="0" IVar="-1" Cut="0.0000000000000000e+00" cType="1" res="-7.4565969407558441e-04" rms="4.9549064040184021e-01" purity="4.4678694009780884e-01" nType="-99"/>
          </Node>
        </Node>
        <Node pos="r" depth="1" NCoef="0" IVar="9" Cut="1.5843518066406250e+02" cType="1" res="1.6700743138790131e-01" rms="4.6355488896369934e-01" purity="6.7998605966567993e-01" nType="0">
          <Node pos="l" depth="2" NCoef="0" IVar="9" Cut="1.1229869842529297e+02" cType="1" res="1.9207260012626648e-01" rms="4.5324277877807617e-01" purity="7.0739334821701050e-01" nType="0">
            <Node pos="l" depth="3" NCoef="0" IVar="-1" Cut="0.0000000000000000e+00" cType="1" res="9.6241768915206194e-04" rms="4.9711391329765320e-01" purity="5.4983681440353394e-01" nType="-99"/>
            <Node pos="r" depth="3" NCoef="0" IVar="-1" Cut="0.0000000000000000e+00" cType="1" res="3.8601642008870840e-03" rms="4.1682711243629456e-01" purity="7.7614444494247437e-01" nType="-99"/>
          </Node>
          <Node pos="r" depth="2" NCoef="0" IVar="-1" Cut="0.0000000000000000e+00" cType="1" res="-2.2928586695343256e-03" rms="4.8787799477577209e-01" purity="3.9056938886642456e-01" nType="-99"/>
        </Node>
      </Node>
    </BinaryTree>
    <BinaryTree type="DecisionTree" boostWeight="1.0000000000000000e+00" itree="11">
      <Node pos="s" depth="0" NCoef="0" IVar="9" Cut="1.0092322540283203e+02" cType="1" res="1.2258492410182953e-02" rms="4.8214134573936462e-01" purity="5.0000000000000000e-01" nType="0">
        <Node pos="l" depth="1" NCoef="0" IVar="9" Cut="8.3885826110839844e+01" cType="1" res="-2.0875351130962372e-01" rms="4.1873911023139954e-01" purity="2.4083471298217773e-01" nType="0">
          <Node pos="l" depth="2" NCoef="0" IVar="8" Cut="3.6418457031250000e+00" cType="1" res="-3.1651669740676880e-01" rms="3.0033388733863831e-01" purity="1.0313917696475983e-01" nType="0">
            <Node pos="l" depth="3" NCoef="0" IVar="-1" Cut="0.0000000000000000e+00" cType="1" res="-1.7687441781163216e-02" rms="2.3714829981327057e-01" purity="6.1001829802989960e-02" nType="-99"/>
            <Node pos="r" depth="3" NCoef="0" IVar="-1" Cut="0.0000000000000000e+00" cType="1" res="-7.0231887511909008e-03" rms="3.9156740903854370e-01" purity="1.9511412084102631e-01" nType="-99"/>
          </Node>
          <Node pos="r" depth="2" NCoef="0" IVar="5" Cut="8.7413209676742554e-01" cType="1" res="-1.3584257662296295e-01" rms="4.6880179643630981e-01" purity="3.3399739861488342e-01" nType="0">
            <Node pos="l" depth="3" NCoef="0" IVar="-1" Cut="0.0000000000000000e+00" cType="1" res="-6.6704940982162952e-03" rms="4.4752115011215210e-01" purity="2.8128033876419067e-01" nType="-99"/>
            <Node pos="r" depth="3" NCoef="0" IVar="-1" Cut="0.0000000000000000e+00" cType="1" res="-1.3732714578509331e-03" rms="4.9463900923728943e-01" purity="4.3124559521675110e-01" nType="-99"/>
          </Node>
        </Node>
        <Node pos="r" depth="1" NCoef="0" IVar="9" Cut="1.5843518066406250e+02" cType="1" res="1.6574768722057343e-01" rms="4.6329879760742188e-01" purity="6.7998605966567993e-01" nType="0">
          <Node pos="l" depth="2" NCoef="0" IVar="9" Cut="1.1229869842529297e+02" cType="1" res="1.9058507680892944e-01" rms="4.5310109853744507e-01" purity="7.0739334821701050e-01" nType="0">
            <Node pos="l" depth="3" NCoef="0" IVar="-1" Cut="0.0000000000000000e+00" cType="1" res="9.5222680829465389e-04" rms="4.9711391329765320e-01" purity="5.4983681440353394e-01" nType="-99"/>
            <Node pos="r" depth="3" NCoef="0" IVar="-1" Cut="0.0000000000000000e+00" cType="1" res="3.8323658518493176e-03" rms="4.1682711243629456e-01" purity="7.7614444494247437e-01" nType="-99"/>
          </Node>
          <Node pos="r" depth="2" NCoef="0" IVar="-1" Cut="0.0000000000000000e+00" cType="1" res="-2.2662198171019554e-03" rms="4.8787799477577209e-01" purity="3.9056938886642456e-01" nType="-99"/>
        </Node>
      </Node>
    </BinaryTree>
    <BinaryTree type="DecisionTree" boostWeight="1.0000000000000000e+00" itree="12">
      <Node pos="s" depth="0" NCoef="0" IVar="9" Cut="1.0492942047119141e+02" cType="1" res="1.3254771009087563e-02" rms="4.8072227835655212e-01" purity="5.0000000000000000e-01" nType="0">
        <Node pos="l" depth="1" NCoef="0" IVar="9" Cut="9.3042778015136719e+01" cType="1" res="-1.7939159274101257e-01" rms="4.3435463309288025e-01" purity="2.7367228269577026e-01" nType="0">
          <Node pos="l" depth="2" NCoef="0" IVar="5" Cut="-2.5491495132446289e+00" cType="1" res="-2.6029035449028015e-01" rms="3.7067085504531860e-01" purity="1.7345358431339264e-01" nType="0">
            <Node pos="l" depth="3" NCoef="0" IVar="-1" Cut="0.0000000000000000e+00" cType="1" res="-1.4591346494853497e-02" rms="2.9983821511268616e-01" purity="1.0337656736373901e-01" nType="-99"/>
            <Node pos="r" depth="3" NCoef="0" IVar="-1" Cut="0.0000000000000000e+00" cType="1" res="-5.3981756791472435e-03" rms="4.5071300864219666e-01" purity="2.9362303018569946e-01" nType="-99"/>
          </Node>
          <Node pos="r" depth="2" NCoef="0" IVar="6" Cut="6.9897293090820312e+01" cType="1" res="-5.3114689886569977e-02" rms="4.9246975779533386e-01" purity="4.3010610342025757e-01" nType="0">
            <Node pos="l" depth="3" NCoef="0" IVar="-1" Cut="0.0000000000000000e+00" cType="1" res="-2.7285083197057247e-03" rms="4.8414820432662964e-01" purity="3.8447061181068420e-01" nType="-99"/>
            <Node pos="r" depth="3" NCoef="0" IVar="-1" Cut="0.0000000000000000e+00" cType="1" res="1.3453949941322207e-03" rms="4.9523395299911499e-01" purity="5.4406112432479858e-01" nType="-99"/>
          </Node>
        </Node>
        <Node pos="r" depth="1" NCoef="0" IVar="9" Cut="1.5849609375000000e+02" cType="1" res="1.8426281213760376e-01" rms="4.5449998974800110e-01" purity="7.0090627670288086e-01" nType="0">
          <Node pos="l" depth="2" NCoef="0" IVar="2" Cut="3.6175380706787109e+01" cType="1" res="2.1407097578048706e-01" rms="4.4044566154479980e-01" purity="7.3398506641387939e-01" nType="0">
            <Node pos="l" depth="3" NCoef="0" IVar="-1" Cut="0.0000000000000000e+00" cType="1" res="2.0893614273518324e-03" rms="4.7878846526145935e-01" purity="6.3955563306808472e-01" nType="-99"/>
            <Node pos="r" depth="3" NCoef="0" IVar="-1" Cut="0.0000000000000000e+00" cType="1" res="4.2205569334328175e-03" rms="3.9982178807258606e-01" purity="7.9871636629104614e-01" nType="-99"/>
          </Node>
          <Node pos="r" depth="2" NCoef="0" IVar="-1" Cut="0.0000000000000000e+00" cType="1" res="-2.2373457904905081e-03" rms="4.8789775371551514e-01" purity="3.9065748453140259e-01" nType="-99"/>
        </Node>
      </Node>
    </BinaryTree>
    <BinaryTree type="DecisionTree" boostWeight="1.0000000000000000e+00" itree="13">
      <Node pos="s" depth="0" NCoef="0" IVar="9" Cut="1.0492942047119141e+02" cType="1" res="1.4217891730368137e-02" rms="4.7931510210037231e-01" purity="5.0000000000000000e-01" nType="0">
        <Node pos="l" depth="1" NCoef="0" IVar="9" Cut="9.3042778015136719e+01" cType="1" res="-1.7576116323471069e-01" rms="4.3355232477188110e-01" purity="2.7367228269577026e-01" nType="0">
          <Node pos="l" depth="2" NCoef="0" IVar="5" Cut="-2.5491495132446289e+00" cType="1" res="-2.5483363866806030e-01" rms="3.7025031447410583e-01" purity="1.7345358431339264e-01" nType="0">
            <Node pos="l" depth="3" NCoef="0" IVar="-1" Cut="0.0000000000000000e+00" cType="1" res="-1.4336348511278629e-02" rms="2.9985418915748596e-01" purity="1.0337656736373901e-01" nType="-99"/>
            <Node pos="r" depth="3" NCoef="0" IVar="-1" Cut="0.0000000000000000e+00" cType="1" res="-5.3133233450353146e-03" rms="4.5071741938591003e-01" purity="2.9362303018569946e-01" nType="-99"/>
          </Node>
          <Node pos="r" depth="2" NCoef="0" IVar="6" Cut="6.9897293090820312e+01" cType="1" res="-5.2334994077682495e-02" rms="4.9233877658843994e-01" purity="4.3010610342025757e-01" nType="0">
            <Node pos="l" depth="3" NCoef="0" IVar="-1" Cut="0.0000000000000000e+00" cType="1" res="-2.6910733431577682e-03" rms="4.8414874076843262e-01" purity="3.8447061181068420e-01" nType="-99"/>
            <Node pos="r" depth="3" NCoef="0" IVar="-1" Cut="0.0000000000000000e+00" cType="1" res="1.3299757847562432e-03" rms="4.9523368477821350e-01" purity="5.4406112432479858e-01" nType="-99"/>
          </Node>
        </Node>
        <Node pos="r" depth="1" NCoef="0" IVar="9" Cut="1.5849609375000000e+02" cType="1" res="1.8285822868347168e-01" rms="4.5425584912300110e-01" purity="7.0090627670288086e-01" nType="0">
          <Node pos="l" depth="2" NCoef="0" IVar="2" Cut="3.6175380706787109e+01" cType="1" res="2.1239747107028961e-01" rms="4.4035497307777405e-01" purity="7.3398506641387939e-01" nType="0">
            <Node pos="l" depth="3" NCoef="0" IVar="-1" Cut="0.0000000000000000e+00" cType="1" res="2.0717247389256954e-03" rms="4.7878858447074890e-01" purity="6.3955563306808472e-01" nType="-99"/>
            <Node pos="r" depth="3" NCoef="0" IVar="-1" Cut="0.0000000000000000e+00" cType="1" res="4.1901576332747936e-03" rms="3.9982205629348755e-01" purity="7.9871636629104614e-01" nType="-99"/>
          </Node>
          <Node pos="r" depth="2" NCoef="0" IVar="-1" Cut="0.0000000000000000e+00" cType="1" res="-2.2113972809165716e-03" rms="4.8789775371551514e-01" purity="3.9065748453140259e-01" nType="-99"/>
        </Node>
      </Node>
    </BinaryTree>
    <BinaryTree type="DecisionTree" boostWeight="1.0000000000000000e+00" itree="14">
      <Node pos="s" depth="0" NCoef="0" IVar="9" Cut="1.0492942047119141e+02" cType="1" res="1.5151251107454300e-02" rms="4.7795075178146362e-01" purity="5.0000000000000000e-01" nType="0">
        <Node pos="l" depth="1" NCoef="0" IVar="9" Cut="9.3042778015136719e+01" cType="1" res="-1.7220598459243774e-01" rms="4.3278571963310242e-01" purity="2.7367228269577026e-01" nType="0">
          <Node pos="l" depth="2" NCoef="0" IVar="5" Cut="-2.5491495132446289e+00" cType="1" res="-2.4949307739734650e-01" rms="3.6985278129577637e-01" purity="1.7345358431339264e-01" nType="0">
            <Node pos="l" depth="3" NCoef="0" IVar="-1" Cut="0.0000000000000000e+00" cType="1" res="-1.4090247452259064e-02" rms="2.9987126588821411e-01" purity="1.0337656736373901e-01" nType="-99"/>
            <Node pos="r" depth="3" NCoef="0" IVar="-1" Cut="0.0000000000000000e+00" cType="1" res="-5.2300342358648777e-03" rms="4.5072200894355774e-01" purity="2.9362303018569946e-01" nType="-99"/>
          </Node>
          <Node pos="r" depth="2" NCoef="0" IVar="6" Cut="6.9897293090820312e+01" cType="1" res="-5.1566641777753830e-02" rms="4.9221116304397583e-01" purity="4.3010610342025757e-01" nType="0">
            <Node pos="l" depth="3" NCoef="0" IVar="-1" Cut="0.0000000000000000e+00" cType="1" res="-2.6541857514530420e-03" rms="4.8414927721023560e-01" purity="3.8447061181068420e-01" nType="-99"/>
            <Node pos="r" depth="3" NCoef="0" IVar="-1" Cut="0.0000000000000000e+00" cType="1" res="1.3147388817742467e-03" rms="4.9523344635963440e-01" purity="5.4406112432479858e-01" nType="-99"/>
          </Node>
        </Node>
        <Node pos="r" depth="1" NCoef="0" IVar="9" Cut="1.5849609375000000e+02" cType="1" res="1.8146423995494843e-01" rms="4.5401567220687866e-01" purity="7.0090627670288086e-01" nType="0">
          <Node pos="l" depth="2" NCoef="0" IVar="2" Cut="3.6175380706787109e+01" cType="1" res="2.1073707938194275e-01" rms="4.4026553630828857e-01" purity="7.3398506641387939e-01" nType="0">
            <Node pos="l" depth="3" NCoef="0" IVar="-1" Cut="0.0000000000000000e+00" cType="1" res="2.0542514976114035e-03" rms="4.7878876328468323e-01" purity="6.3955563306808472e-01" nType="-99"/>
            <Node pos="r" depth="3" NCoef="0" IVar="-1" Cut="0.0000000000000000e+00" cType="1" res="4.1601122356951237e-03" rms="3.9982235431671143e-01" purity="7.9871636629104614e-01" nType="-99"/>
          </Node>
          <Node pos="r" depth="2" NCoef="0" IVar="-1" Cut="0.0000000000000000e+00" cType="1" res="-2.1857675164937973e-03" rms="4.8789775371551514e-01" purity="3.9065748453140259e-01" nType="-99"/>
        </Node>
      </Node>
    </BinaryTree>
    <BinaryTree type="DecisionTree" boostWeight="1.0000000000000000e+00" itree="15">
      <Node pos="s" depth="0" NCoef="0" IVar="9" Cut="1.0492942047119141e+02" cType="1" res="1.6055574640631676e-02" rms="4.7662782669067383e-01" purity="5.0000000000000000e-01" nType="0">
        <Node pos="l" depth="1" NCoef="0" IVar="9" Cut="8.8900512695312500e+01" cType="1" res="-1.6872440278530121e-01" rms="4.3205332756042480e-01" purity="2.7367228269577026e-01" nType="0">
          <Node pos="l" depth="2" NCoef="0" IVar="8" Cut="3.6913647651672363e+00" cType="1" res="-2.6622593402862549e-01" rms="3.4237229824066162e-01" purity="1.4330445230007172e-01" nType="0">
            <Node pos="l" depth="3" NCoef="0" IVar="-1" Cut="0.0000000000000000e+00" cType="1" res="-1.5146418474614620e-02" rms="2.9089084267616272e-01" purity="9.8065041005611420e-02" nType="-99"/>
            <Node pos="r" depth="3" NCoef="0" IVar="-1" Cut="0.0000000000000000e+00" cType="1" res="-5.2696224302053452e-03" rms="4.2535564303398132e-01" purity="2.5081190466880798e-01" nType="-99"/>
          </Node>
          <Node pos="r" depth="2" NCoef="0" IVar="9" Cut="9.6282592773437500e+01" cType="1" res="-7.7029809355735779e-02" rms="4.8439317941665649e-01" purity="3.9627572894096375e-01" nType="0">
            <Node pos="l" depth="3" NCoef="0" IVar="-1" Cut="0.0000000000000000e+00" cType="1" res="-4.9818339757621288e-03" rms="4.5921987295150757e-01" purity="3.1106707453727722e-01" nType="-99"/>
            <Node pos="r" depth="3" NCoef="0" IVar="-1" Cut="0.0000000000000000e+00" cType="1" res="-5.7624751934781671e-04" rms="4.9709987640380859e-01" purity="4.6416151523590088e-01" nType="-99"/>
          </Node>
        </Node>
        <Node pos="r" depth="1" NCoef="0" IVar="9" Cut="1.5849609375000000e+02" cType="1" res="1.8008078634738922e-01" rms="4.5377942919731140e-01" purity="7.0090627670288086e-01" nType="0">
          <Node pos="l" depth="2" NCoef="0" IVar="2" Cut="3.6175380706787109e+01" cType="1" res="2.0908974111080170e-01" rms="4.4017729163169861e-01" purity="7.3398506641387939e-01" nType="0">
            <Node pos="l" depth="3" NCoef="0" IVar="-1" Cut="0.0000000000000000e+00" cType="1" res="2.0369400735944510e-03" rms="4.7878894209861755e-01" purity="6.3955563306808472e-01" nType="-99"/>
            <Node pos="r" depth="3" NCoef="0" IVar="-1" Cut="0.0000000000000000e+00" cType="1" res="4.1304132901132107e-03" rms="3.9982271194458008e-01" purity="7.9871636629104614e-01" nType="-99"/>
          </Node>
          <Node pos="r" depth="2" NCoef="0" IVar="-1" Cut="0.0000000000000000e+00" cType="1" res="-2.1604518406093121e-03" rms="4.8789775371551514e-01" purity="3.9065748453140259e-01" nType="-99"/>
        </Node>
      </Node>
    </BinaryTree>
    <BinaryTree type="DecisionTree" boostWeight="1.0000000000000000e+00" itree="16">
      <Node pos="s" depth="0" NCoef="0" IVar="9" Cut="1.0492942047119141e+02" cType="1" res="1.6968432813882828e-02" rms="4.7532302141189575e-01" purity="5.0000000000000000e-01" nType="0">
        <Node pos="l" depth="1" NCoef="0" IVar="9" Cut="9.3042778015136719e+01" cType="1" res="-1.6523642838001251e-01" rms="4.3133530020713806e-01" purity="2.7367228269577026e-01" nType="0">
          <Node pos="l" depth="2" NCoef="0" IVar="5" Cut="-2.5491495132446289e+00" cType="1" res="-2.3909974098205566e-01" rms="3.6904427409172058e-01" purity="1.7345358431339264e-01" nType="0">
            <Node pos="l" depth="3" NCoef="0" IVar="-1" Cut="0.0000000000000000e+00" cType="1" res="-1.3669573701918125e-02" rms="2.9960337281227112e-01" purity="1.0337656736373901e-01" nType="-99"/>
            <Node pos="r" depth="3" NCoef="0" IVar="-1" Cut="0.0000000000000000e+00" cType="1" res="-4.9909069202840328e-03" rms="4.5015504956245422e-01" purity="2.9362303018569946e-01" nType="-99"/>
          </Node>
          <Node pos="r" depth="2" NCoef="0" IVar="6" Cut="6.9897293090820312e+01" cType="1" res="-4.9941357225179672e-02" rms="4.9199923872947693e-01" purity="4.3010610342025757e-01" nType="0">
            <Node pos="l" depth="3" NCoef="0" IVar="-1" Cut="0.0000000000000000e+00" cType="1" res="-2.5939126498997211e-03" rms="4.8408144712448120e-01" purity="3.8447061181068420e-01" nType="-99"/>
            <Node pos="r" depth="3" NCoef="0" IVar="-1" Cut="0.0000000000000000e+00" cType="1" res="1.3191913021728396e-03" rms="4.9510234594345093e-01" purity="5.4406112432479858e-01" nType="-99"/>
          </Node>
        </Node>
        <Node pos="r" depth="1" NCoef="0" IVar="9" Cut="1.5849609375000000e+02" cType="1" res="1.7870777845382690e-01" rms="4.5354700088500977e-01" purity="7.0090627670288086e-01" nType="0">
          <Node pos="l" depth="2" NCoef="0" IVar="2" Cut="3.6175380706787109e+01" cType="1" res="2.0745530724525452e-01" rms="4.4009020924568176e-01" purity="7.3398506641387939e-01" nType="0">
            <Node pos="l" depth="3" NCoef="0" IVar="-1" Cut="0.0000000000000000e+00" cType="1" res="2.0197879057377577e-03" rms="4.7878909111022949e-01" purity="6.3955563306808472e-01" nType="-99"/>
            <Node pos="r" depth="3" NCoef="0" IVar="-1" Cut="0.0000000000000000e+00" cType="1" res="4.1010538116097450e-03" rms="3.9982309937477112e-01" purity="7.9871636629104614e-01" nType="-99"/>
          </Node>
          <Node pos="r" depth="2" NCoef="0" IVar="-1" Cut="0.0000000000000000e+00" cType="1" res="-2.1354462951421738e-03" rms="4.8789775371551514e-01" purity="3.9065748453140259e-01" nType="-99"/>
        </Node>
      </Node>
    </BinaryTree>
    <BinaryTree type="DecisionTree" boostWeight="1.0000000000000000e+00" itree="17">
      <Node pos="s" depth="0" NCoef="0" IVar="9" Cut="1.0492942047119141e+02" cType="1" res="1.7817407846450806e-02" rms="4.7407475113868713e-01" purity="5.0000000000000000e-01" nType="0">
        <Node pos="l" depth="1" NCoef="0" IVar="9" Cut="8.8900512695312500e+01" cType="1" res="-1.6189599037170410e-01" rms="4.3065729737281799e-01" purity="2.7367228269577026e-01" nType="0">
          <Node pos="l" depth="2" NCoef="0" IVar="8" Cut="3.6913647651672363e+00" cType="1" res="-2.5530782341957092e-01" rms="3.4168457984924316e-01" purity="1.4330445230007172e-01" nType="0">
            <Node pos="l" depth="3" NCoef="0" IVar="-1" Cut="0.0000000000000000e+00" cType="1" res="-1.4692596159875393e-02" rms="2.9072469472885132e-01" purity="9.8065041005611420e-02" nType="-99"/>
            <Node pos="r" depth="3" NCoef="0" IVar="-1" Cut="0.0000000000000000e+00" cType="1" res="-5.0627468153834343e-03" rms="4.2488342523574829e-01" purity="2.5081190466880798e-01" nType="-99"/>
          </Node>
          <Node pos="r" depth="2" NCoef="0" IVar="6" Cut="7.4774124145507812e+01" cType="1" res="-7.4047535657882690e-02" rms="4.8390802741050720e-01" purity="3.9627572894096375e-01" nType="0">
            <Node pos="l" depth="3" NCoef="0" IVar="-1" Cut="0.0000000000000000e+00" cType="1" res="-3.1260745599865913e-03" rms="4.7633713483810425e-01" purity="3.6179244518280029e-01" nType="-99"/>
            <Node pos="r" depth="3" NCoef="0" IVar="-1" Cut="0.0000000000000000e+00" cType="1" res="7.2876404738053679e-04" rms="4.9317887425422668e-01" purity="5.0578802824020386e-01" nType="-99"/>
          </Node>
        </Node>
        <Node pos="r" depth="1" NCoef="0" IVar="9" Cut="1.5849609375000000e+02" cType="1" res="1.7734512686729431e-01" rms="4.5331838726997375e-01" purity="7.0090627670288086e-01" nType="0">
          <Node pos="l" depth="2" NCoef="0" IVar="2" Cut="3.6175380706787109e+01" cType="1" res="2.0583370327949524e-01" rms="4.4000428915023804e-01" purity="7.3398506641387939e-01" nType="0">
            <Node pos="l" depth="3" NCoef="0" IVar="-1" Cut="0.0000000000000000e+00" cType="1" res="2.0027931313961744e-03" rms="4.7878929972648621e-01" purity="6.3955563306808472e-01" nType="-99"/>
            <Node pos="r" depth="3" NCoef="0" IVar="-1" Cut="0.0000000000000000e+00" cType="1" res="4.0720258839428425e-03" rms="3.9982348680496216e-01" purity="7.9871636629104614e-01" nType="-99"/>
          </Node>
          <Node pos="r" depth="2" NCoef="0" IVar="-1" Cut="0.0000000000000000e+00" cType="1" res="-2.1107457578182220e-03" rms="4.8789775371551514e-01" purity="3.9065748453140259e-01" nType="-99"/>
        </Node>
      </Node>
    </BinaryTree>
    <BinaryTree type="DecisionTree" boostWeight="1.0000000000000000e+00" itree="18">
      <Node pos="s" depth="0" NCoef="0" IVar="9" Cut="1.0492942047119141e+02" cType="1" res="1.8647547811269760e-02" rms="4.7285658121109009e-01" purity="5.0000000000000000e-01" nType="0">
        <Node pos="l" depth="1" NCoef="0" IVar="9" Cut="9.3042778015136719e+01" cType="1" res="-1.5860719978809357e-01" rms="4.2999896407127380e-01" purity="2.7367228269577026e-01" nType="0">
          <Node pos="l" depth="2" NCoef="0" IVar="5" Cut="-2.5491495132446289e+00" cType="1" res="-2.2939404845237732e-01" rms="3.6823287606239319e-01" purity="1.7345358431339264e-01" nType="0">
            <Node pos="l" depth="3" NCoef="0" IVar="-1" Cut="0.0000000000000000e+00" cType="1" res="-1.3282401487231255e-02" rms="2.9932218790054321e-01" purity="1.0337656736373901e-01" nType="-99"/>
            <Node pos="r" depth="3" NCoef="0" IVar="-1" Cut="0.0000000000000000e+00" cType="1" res="-4.7723236493766308e-03" rms="4.4955191016197205e-01" purity="2.9362303018569946e-01" nType="-99"/>
          </Node>
          <Node pos="r" depth="2" NCoef="0" IVar="6" Cut="6.9897293090820312e+01" cType="1" res="-4.8114247620105743e-02" rms="4.9176034331321716e-01" purity="4.3010610342025757e-01" nType="0">
            <Node pos="l" depth="3" NCoef="0" IVar="-1" Cut="0.0000000000000000e+00" cType="1" res="-2.5157139170914888e-03" rms="4.8408287763595581e-01" purity="3.8447061181068420e-01" nType="-99"/>
            <Node pos="r" depth="3" NCoef="0" IVar="-1" Cut="0.0000000000000000e+00" cType="1" res="1.3025144580751657e-03" rms="4.9503719806671143e-01" purity="5.4406112432479858e-01" nType="-99"/>
          </Node>
        </Node>
        <Node pos="r" depth="1" NCoef="0" IVar="9" Cut="1.5849609375000000e+02" cType="1" res="1.7599277198314667e-01" rms="4.5309349894523621e-01" purity="7.0090627670288086e-01" nType="0">
          <Node pos="l" depth="2" NCoef="0" IVar="2" Cut="3.6175380706787109e+01" cType="1" res="2.0422481000423431e-01" rms="4.3991956114768982e-01" purity="7.3398506641387939e-01" nType="0">
            <Node pos="l" depth="3" NCoef="0" IVar="-1" Cut="0.0000000000000000e+00" cType="1" res="1.9859541207551956e-03" rms="4.7878947854042053e-01" purity="6.3955563306808472e-01" nType="-99"/>
            <Node pos="r" depth="3" NCoef="0" IVar="-1" Cut="0.0000000000000000e+00" cType="1" res="4.0433234535157681e-03" rms="3.9982396364212036e-01" purity="7.9871636629104614e-01" nType="-99"/>
          </Node>
          <Node pos="r" depth="2" NCoef="0" IVar="-1" Cut="0.0000000000000000e+00" cType="1" res="-2.0863455720245838e-03" rms="4.8789775371551514e-01" purity="3.9065748453140259e-01" nType="-99"/>
        </Node>
      </Node>
    </BinaryTree>
    <BinaryTree type="DecisionTree" boostWeight="1.0000000000000000e+00" itree="19">
      <Node pos="s" depth="0" NCoef="0" IVar="9" Cut="1.0492942047119141e+02" cType="1" res="1.9444422796368599e-02" rms="4.7167789936065674e-01" purity="5.0000000000000000e-01" nType="0">
        <Node pos="l" depth="1" NCoef="0" IVar="9" Cut="8.8900512695312500e+01" cType="1" res="-1.5540063381195068e-01" rms="4.2937049269676208e-01" purity="2.7367228269577026e-01" nType="0">
          <Node pos="l" depth="2" NCoef="0" IVar="8" Cut="3.6913647651672363e+00" cType="1" res="-2.4484154582023621e-01" rms="3.4104999899864197e-01" purity="1.4330445230007172e-01" nType="0">
            <Node pos="l" depth="3" NCoef="0" IVar="-1" Cut="0.0000000000000000e+00" cType="1" res="-1.4265965670347214e-02" rms="2.9058042168617249e-01" purity="9.8065041005611420e-02" nType="-99"/>
            <Node pos="r" depth="3" NCoef="0" IVar="-1" Cut="0.0000000000000000e+00" cType="1" res="-4.8642694018781185e-03" rms="4.2443576455116272e-01" purity="2.5081190466880798e-01" nType="-99"/>
          </Node>
          <Node pos="r" depth="2" NCoef="0" IVar="8" Cut="3.9170751571655273e+00" cType="1" res="-7.1286596357822418e-02" rms="4.8347905278205872e-01" purity="3.9627572894096375e-01" nType="0">
            <Node pos="l" depth="3" NCoef="0" IVar="-1" Cut="0.0000000000000000e+00" cType="1" res="-3.1675854697823524e-03" rms="4.7435995936393738e-01" purity="3.6123570799827576e-01" nType="-99"/>
            <Node pos="r" depth="3" NCoef="0" IVar="-1" Cut="0.0000000000000000e+00" cType="1" res="6.3118309481069446e-04" rms="4.9591943621635437e-01" purity="4.9687492847442627e-01" nType="-99"/>
          </Node>
        </Node>
        <Node pos="r" depth="1" NCoef="0" IVar="9" Cut="1.5849609375000000e+02" cType="1" res="1.7465062439441681e-01" rms="4.5287224650382996e-01" purity="7.0090627670288086e-01" nType="0">
          <Node pos="l" depth="2" NCoef="0" IVar="2" Cut="4.4110073089599609e+01" cType="1" res="2.0262853801250458e-01" rms="4.3983593583106995e-01" purity="7.3398506641387939e-01" nType="0">
            <Node pos="l" depth="3" NCoef="0" IVar="-1" Cut="0.0000000000000000e+00" cType="1" res="2.4366979487240314e-03" rms="4.6753481030464172e-01" purity="6.7256408929824829e-01" nType="-99"/>
            <Node pos="r" depth="3" NCoef="0" IVar="-1" Cut="0.0000000000000000e+00" cType="1" res="4.3503232300281525e-03" rms="3.7424796819686890e-01" purity="8.3054059743881226e-01" nType="-99"/>
          </Node>
          <Node pos="r" depth="2" NCoef="0" IVar="-1" Cut="0.0000000000000000e+00" cType="1" res="-2.0622422453016043e-03" rms="4.8789775371551514e-01" purity="3.9065748453140259e-01" nType="-99"/>
        </Node>
      </Node>
    </BinaryTree>
    <BinaryTree type="DecisionTree" boostWeight="1.0000000000000000e+00" itree="20">
      <Node pos="s" depth="0" NCoef="0" IVar="9" Cut="1.0492942047119141e+02" cType="1" res="2.0230857655405998e-02" rms="4.7052907943725586e-01" purity="5.0000000000000000e-01" nType="0">
        <Node pos="l" depth="1" NCoef="0" IVar="9" Cut="9.4213417053222656e+01" cType="1" res="-1.5222863852977753e-01" rms="4.2876324057579041e-01" purity="2.7367228269577026e-01" nType="0">
          <Node pos="l" depth="2" NCoef="0" IVar="5" Cut="-1.9185928106307983e+00" cType="1" res="-2.1487043797969818e-01" rms="3.7445622682571411e-01" purity="1.8230776488780975e-01" nType="0">
            <Node pos="l" depth="3" NCoef="0" IVar="-1" Cut="0.0000000000000000e+00" cType="1" res="-1.2377738952636719e-02" rms="3.1069383025169373e-01" purity="1.1368653923273087e-01" nType="-99"/>
            <Node pos="r" depth="3" NCoef="0" IVar="-1" Cut="0.0000000000000000e+00" cType="1" res="-4.2117945849895477e-03" rms="4.5379868149757385e-01" purity="3.0459991097450256e-01" nType="-99"/>
          </Node>
          <Node pos="r" depth="2" NCoef="0" IVar="6" Cut="6.7721511840820312e+01" cType="1" res="-3.7262339144945145e-02" rms="4.9343228340148926e-01" purity="4.4135326147079468e-01" nType="0">
            <Node pos="l" depth="3" NCoef="0" IVar="-1" Cut="0.0000000000000000e+00" cType="1" res="-2.1121180616319180e-03" rms="4.8727914690971375e-01" purity="3.9719808101654053e-01" nType="-99"/>
            <Node pos="r" depth="3" NCoef="0" IVar="-1" Cut="0.0000000000000000e+00" cType="1" res="1.2400994310155511e-03" rms="4.9517226219177246e-01" purity="5.4210442304611206e-01" nType="-99"/>
          </Node>
        </Node>
        <Node pos="r" depth="1" NCoef="0" IVar="9" Cut="1.5849609375000000e+02" cType="1" res="1.7331944406032562e-01" rms="4.5265975594520569e-01" purity="7.0090627670288086e-01" nType="0">
          <Node pos="l" depth="2" NCoef="0" IVar="2" Cut="3.6175380706787109e+01" cType="1" res="2.0104569196701050e-01" rms="4.3975931406021118e-01" purity="7.3398506641387939e-01" nType="0">
            <Node pos="l" depth="3" NCoef="0" IVar="-1" Cut="0.0000000000000000e+00" cType="1" res="1.9488125108182430e-03" rms="4.7878995537757874e-01" purity="6.3955563306808472e-01" nType="-99"/>
            <Node pos="r" depth="3" NCoef="0" IVar="-1" Cut="0.0000000000000000e+00" cType="1" res="3.9891637861728668e-03" rms="3.9977616071701050e-01" purity="7.9871636629104614e-01" nType="-99"/>
          </Node>
          <Node pos="r" depth="2" NCoef="0" IVar="-1" Cut="0.0000000000000000e+00" cType="1" res="-2.0384297240525484e-03" rms="4.8789775371551514e-01" purity="3.9065748453140259e-01" nType="-99"/>
        </Node>
      </Node>
    </BinaryTree>
    <BinaryTree type="DecisionTree" boostWeight="1.0000000000000000e+00" itree="21">
      <Node pos="s" depth="0" NCoef="0" IVar="9" Cut="1.0492942047119141e+02" cType="1" res="2.0972115918993950e-02" rms="4.6942415833473206e-01" purity="5.0000000000000000e-01" nType="0">
        <Node pos="l" depth="1" NCoef="0" IVar="9" Cut="8.8900512695312500e+01" cType="1" res="-1.4916318655014038e-01" rms="4.2819523811340332e-01" purity="2.7367228269577026e-01" nType="0">
          <Node pos="l" depth="2" NCoef="0" IVar="8" Cut="3.6913647651672363e+00" cType="1" res="-2.3498836159706116e-01" rms="3.4046250581741333e-01" purity="1.4330445230007172e-01" nType="0">
            <Node pos="l" depth="3" NCoef="0" IVar="-1" Cut="0.0000000000000000e+00" cType="1" res="-1.3869337737560272e-02" rms="2.9044497013092041e-01" purity="9.8065041005611420e-02" nType="-99"/>
            <Node pos="r" depth="3" NCoef="0" IVar="-1" Cut="0.0000000000000000e+00" cType="1" res="-4.6785185113549232e-03" rms="4.2402318120002747e-01" purity="2.5081190466880798e-01" nType="-99"/>
          </Node>
          <Node pos="r" depth="2" NCoef="0" IVar="8" Cut="3.9170751571655273e+00" cType="1" res="-6.8449534475803375e-02" rms="4.8304170370101929e-01" purity="3.9627572894096375e-01" nType="0">
            <Node pos="l" depth="3" NCoef="0" IVar="-1" Cut="0.0000000000000000e+00" cType="1" res="-3.0706799589097500e-03" rms="4.7399774193763733e-01" purity="3.6123570799827576e-01" nType="-99"/>
            <Node pos="r" depth="3" NCoef="0" IVar="-1" Cut="0.0000000000000000e+00" cType="1" res="6.6623074235394597e-04" rms="4.9562853574752808e-01" purity="4.9687492847442627e-01" nType="-99"/>
          </Node>
        </Node>
        <Node pos="r" depth="1" NCoef="0" IVar="9" Cut="1.5849609375000000e+02" cType="1" res="1.7199756205081940e-01" rms="4.5244526863098145e-01" purity="7.0090627670288086e-01" nType="0">
          <Node pos="l" depth="2" NCoef="0" IVar="9" Cut="1.1788047027587891e+02" cType="1" res="1.9947443902492523e-01" rms="4.3967747688293457e-01" purity="7.3398506641387939e-01" nType="0">
            <Node pos="l" depth="3" NCoef="0" IVar="-1" Cut="0.0000000000000000e+00" cType="1" res="2.0014240872114897e-03" rms="4.8073235154151917e-01" purity="6.3092923164367676e-01" nType="-99"/>
            <Node pos="r" depth="3" NCoef="0" IVar="-1" Cut="0.0000000000000000e+00" cType="1" res="3.7279448006302118e-03" rms="4.0353062748908997e-01" purity="7.9422998428344727e-01" nType="-99"/>
          </Node>
          <Node pos="r" depth="2" NCoef="0" IVar="-1" Cut="0.0000000000000000e+00" cType="1" res="-2.0149052143096924e-03" rms="4.8789775371551514e-01" purity="3.9065748453140259e-01" nType="-99"/>
        </Node>
      </Node>
    </BinaryTree>
    <BinaryTree type="DecisionTree" boostWeight="1.0000000000000000e+00" itree="22">
      <Node pos="s" depth="0" NCoef="0" IVar="9" Cut="1.0492942047119141e+02" cType="1" res="2.1719830110669136e-02" rms="4.6834629774093628e-01" purity="5.0000000000000000e-01" nType="0">
        <Node pos="l" depth="1" NCoef="0" IVar="9" Cut="9.4213417053222656e+01" cType="1" res="-1.4611797034740448e-01" rms="4.2763254046440125e-01" purity="2.7367228269577026e-01" nType="0">
          <Node pos="l" depth="2" NCoef="0" IVar="5" Cut="-1.9185928106307983e+00" cType="1" res="-2.0629648864269257e-01" rms="3.7372606992721558e-01" purity="1.8230776488780975e-01" nType="0">
            <Node pos="l" depth="3" NCoef="0" IVar="-1" Cut="0.0000000000000000e+00" cType="1" res="-1.2041049078106880e-02" rms="3.1041339039802551e-01" purity="1.1368653923273087e-01" nType="-99"/>
            <Node pos="r" depth="3" NCoef="0" IVar="-1" Cut="0.0000000000000000e+00" cType="1" res="-4.0255831554532051e-03" rms="4.5323717594146729e-01" purity="3.0459991097450256e-01" nType="-99"/>
          </Node>
          <Node pos="r" depth="2" NCoef="0" IVar="6" Cut="6.7721511840820312e+01" cType="1" res="-3.5672541707754135e-02" rms="4.9326145648956299e-01" purity="4.4135326147079468e-01" nType="0">
            <Node pos="l" depth="3" NCoef="0" IVar="-1" Cut="0.0000000000000000e+00" cType="1" res="-2.0575146190822124e-03" rms="4.8720580339431763e-01" purity="3.9719808101654053e-01" nType="-99"/>
            <Node pos="r" depth="3" NCoef="0" IVar="-1" Cut="0.0000000000000000e+00" cType="1" res="1.2534843990579247e-03" rms="4.9504441022872925e-01" purity="5.4210442304611206e-01" nType="-99"/>
          </Node>
        </Node>
        <Node pos="r" depth="1" NCoef="0" IVar="9" Cut="1.5849609375000000e+02" cType="1" res="1.7070583999156952e-01" rms="4.5224693417549133e-01" purity="7.0090627670288086e-01" nType="0">
          <Node pos="l" depth="2" NCoef="0" IVar="2" Cut="4.4110073089599609e+01" cType="1" res="1.9793783128261566e-01" rms="4.3960979580879211e-01" purity="7.3398506641387939e-01" nType="0">
            <Node pos="l" depth="3" NCoef="0" IVar="-1" Cut="0.0000000000000000e+00" cType="1" res="2.3715302813798189e-03" rms="4.6743458509445190e-01" purity="6.7256408929824829e-01" nType="-99"/>
            <Node pos="r" depth="3" NCoef="0" IVar="-1" Cut="0.0000000000000000e+00" cType="1" res="4.2729750275611877e-03" rms="3.7419444322586060e-01" purity="8.3054059743881226e-01" nType="-99"/>
          </Node>
          <Node pos="r" depth="2" NCoef="0" IVar="-1" Cut="0.0000000000000000e+00" cType="1" res="-1.9916645251214504e-03" rms="4.8789778351783752e-01" purity="3.9065748453140259e-01" nType="-99"/>
        </Node>
      </Node>
    </BinaryTree>
    <BinaryTree type="DecisionTree" boostWeight="1.0000000000000000e+00" itree="23">
      <Node pos="s" depth="0" NCoef="0" IVar="9" Cut="1.0492942047119141e+02" cType="1" res="2.2414529696106911e-02" rms="4.6730387210845947e-01" purity="5.0000000000000000e-01" nType="0">
        <Node pos="l" depth="1" NCoef="0" IVar="9" Cut="8.3767715454101562e+01" cType="1" res="-1.4317490160465240e-01" rms="4.2710405588150024e-01" purity="2.7367228269577026e-01" nType="0">
          <Node pos="l" depth="2" NCoef="0" IVar="8" Cut="3.6227047443389893e+00" cType="1" res="-2.5298166275024414e-01" rms="2.9554867744445801e-01" purity="1.0242944955825806e-01" nType="0">
            <Node pos="l" depth="3" NCoef="0" IVar="-1" Cut="0.0000000000000000e+00" cType="1" res="-1.5187552198767662e-02" rms="2.3516148328781128e-01" purity="6.0377143323421478e-02" nType="-99"/>
            <Node pos="r" depth="3" NCoef="0" IVar="-1" Cut="0.0000000000000000e+00" cType="1" res="-5.9594861231744289e-03" rms="3.8427308201789856e-01" purity="1.9077914953231812e-01" nType="-99"/>
          </Node>
          <Node pos="r" depth="2" NCoef="0" IVar="9" Cut="9.6282913208007812e+01" cType="1" res="-8.4316693246364594e-02" rms="4.7270393371582031e-01" purity="3.6546123027801514e-01" nType="0">
            <Node pos="l" depth="3" NCoef="0" IVar="-1" Cut="0.0000000000000000e+00" cType="1" res="-5.1295161247253418e-03" rms="4.4622513651847839e-01" purity="2.8772997856140137e-01" nType="-99"/>
            <Node pos="r" depth="3" NCoef="0" IVar="-1" Cut="0.0000000000000000e+00" cType="1" res="-4.2967169429175556e-04" rms="4.9635985493659973e-01" purity="4.6416151523590088e-01" nType="-99"/>
          </Node>
        </Node>
        <Node pos="r" depth="1" NCoef="0" IVar="9" Cut="1.5849609375000000e+02" cType="1" res="1.6940471529960632e-01" rms="4.5204347372055054e-01" purity="7.0090627670288086e-01" nType="0">
          <Node pos="l" depth="2" NCoef="0" IVar="9" Cut="1.1788047027587891e+02" cType="1" res="1.9639207422733307e-01" rms="4.3953481316566467e-01" purity="7.3398506641387939e-01" nType="0">
            <Node pos="l" depth="3" NCoef="0" IVar="-1" Cut="0.0000000000000000e+00" cType="1" res="1.9557776395231485e-03" rms="4.8068234324455261e-01" purity="6.3092923164367676e-01" nType="-99"/>
            <Node pos="r" depth="3" NCoef="0" IVar="-1" Cut="0.0000000000000000e+00" cType="1" res="3.6816680803894997e-03" rms="4.0345931053161621e-01" purity="7.9422998428344727e-01" nType="-99"/>
          </Node>
          <Node pos="r" depth="2" NCoef="0" IVar="-1" Cut="0.0000000000000000e+00" cType="1" res="-1.9687029998749495e-03" rms="4.8789778351783752e-01" purity="3.9065748453140259e-01" nType="-99"/>
        </Node>
      </Node>
    </BinaryTree>
    <BinaryTree type="DecisionTree" boostWeight="1.0000000000000000e+00" itree="24">
      <Node pos="s" depth="0" NCoef="0" IVar="9" Cut="1.0492942047119141e+02" cType="1" res="2.3102311417460442e-02" rms="4.6628934144973755e-01" purity="5.0000000000000000e-01" nType="0">
        <Node pos="l" depth="1" NCoef="0" IVar="9" Cut="8.3767715454101562e+01" cType="1" res="-1.4027948677539825e-01" rms="4.2658060789108276e-01" purity="2.7367228269577026e-01" nType="0">
          <Node pos="l" depth="2" NCoef="0" IVar="7" Cut="2.2310061454772949e+00" cType="1" res="-2.4746432900428772e-01" rms="2.9526674747467041e-01" purity="1.0242944955825806e-01" nType="0">
            <Node pos="l" depth="3" NCoef="0" IVar="-1" Cut="0.0000000000000000e+00" cType="1" res="-1.2655174359679222e-02" rms="2.1675805747509003e-01" purity="5.0552837550640106e-02" nType="-99"/>
            <Node pos="r" depth="3" NCoef="0" IVar="-1" Cut="0.0000000000000000e+00" cType="1" res="-8.9305741712450981e-03" rms="3.5910707712173462e-01" purity="1.6253329813480377e-01" nType="-99"/>
          </Node>
          <Node pos="r" depth="2" NCoef="0" IVar="9" Cut="9.6282913208007812e+01" cType="1" res="-8.2826681435108185e-02" rms="4.7256779670715332e-01" purity="3.6546123027801514e-01" nType="0">
            <Node pos="l" depth="3" NCoef="0" IVar="-1" Cut="0.0000000000000000e+00" cType="1" res="-5.0429576076567173e-03" rms="4.4623357057571411e-01" purity="2.8772997856140137e-01" nType="-99"/>
            <Node pos="r" depth="3" NCoef="0" IVar="-1" Cut="0.0000000000000000e+00" cType="1" res="-4.2443379061296582e-04" rms="4.9635988473892212e-01" purity="4.6416151523590088e-01" nType="-99"/>
          </Node>
        </Node>
        <Node pos="r" depth="1" NCoef="0" IVar="9" Cut="1.5849609375000000e+02" cType="1" res="1.6813282668590546e-01" rms="4.5185062289237976e-01" purity="7.0090627670288086e-01" nType="0">
          <Node pos="l" depth="2" NCoef="0" IVar="2" Cut="3.6175380706787109e+01" cType="1" res="1.9487990438938141e-01" rms="4.3946778774261475e-01" purity="7.3398506641387939e-01" nType="0">
            <Node pos="l" depth="3" NCoef="0" IVar="-1" Cut="0.0000000000000000e+00" cType="1" res="1.8645098898559809e-03" rms="4.7869646549224854e-01" purity="6.3955563306808472e-01" nType="-99"/>
            <Node pos="r" depth="3" NCoef="0" IVar="-1" Cut="0.0000000000000000e+00" cType="1" res="3.8923819083720446e-03" rms="3.9960259199142456e-01" purity="7.9871636629104614e-01" nType="-99"/>
          </Node>
          <Node pos="r" depth="2" NCoef="0" IVar="-1" Cut="0.0000000000000000e+00" cType="1" res="-1.9460169132798910e-03" rms="4.8789775371551514e-01" purity="3.9065748453140259e-01" nType="-99"/>
        </Node>
      </Node>
    </BinaryTree>
    <BinaryTree type="DecisionTree" boostWeight="1.0000000000000000e+00" itree="25">
      <Node pos="s" depth="0" NCoef="0" IVar="9" Cut="1.0693251037597656e+02" cType="1" res="2.3679105564951897e-02" rms="4.6535682678222656e-01" purity="5.0000000000000000e-01" nType="0">
        <Node pos="l" depth="1" NCoef="0" IVar="9" Cut="9.6254554748535156e+01" cType="1" res="-1.2862206995487213e-01" rms="4.3211582303047180e-01" purity="2.8909045457839966e-01" nType="0">
          <Node pos="l" depth="2" NCoef="0" IVar="8" Cut="3.8601195812225342e+00" cType="1" res="-1.8609248101711273e-01" rms="3.8382709026336670e-01" purity="1.9697496294975281e-01" nType="0">
            <Node pos="l" depth="3" NCoef="0" IVar="-1" Cut="0.0000000000000000e+00" cType="1" res="-1.0682901367545128e-02" rms="3.4791466593742371e-01" purity="1.5260981023311615e-01" nType="-99"/>
            <Node pos="r" depth="3" NCoef="0" IVar="-1" Cut="0.0000000000000000e+00" cType="1" res="-2.0900666713714600e-03" rms="4.5815068483352661e-01" purity="3.3060836791992188e-01" nType="-99"/>
          </Node>
          <Node pos="r" depth="2" NCoef="0" IVar="6" Cut="6.5060707092285156e+01" cType="1" res="-1.1142479255795479e-02" rms="4.9670240283012390e-01" purity="4.7739064693450928e-01" nType="0">
            <Node pos="l" depth="3" NCoef="0" IVar="-1" Cut="0.0000000000000000e+00" cType="1" res="-1.3964042300358415e-03" rms="4.9308887124061584e-01" purity="4.2852526903152466e-01" nType="-99"/>
            <Node pos="r" depth="3" NCoef="0" IVar="-1" Cut="0.0000000000000000e+00" cType="1" res="1.6447295201942325e-03" rms="4.9233323335647583e-01" purity="5.7347971200942993e-01" nType="-99"/>
          </Node>
        </Node>
        <Node pos="r" depth="1" NCoef="0" IVar="9" Cut="1.5853077697753906e+02" cType="1" res="1.7532974481582642e-01" rms="4.4740128517150879e-01" purity="7.1000868082046509e-01" nType="0">
          <Node pos="l" depth="2" NCoef="0" IVar="2" Cut="4.7100753784179688e+01" cType="1" res="2.0459757745265961e-01" rms="4.3301078677177429e-01" purity="7.4631237983703613e-01" nType="0">
            <Node pos="l" depth="3" NCoef="0" IVar="-1" Cut="0.0000000000000000e+00" cType="1" res="2.5363531894981861e-03" rms="4.5982259511947632e-01" purity="6.9243806600570679e-01" nType="-99"/>
            <Node pos="r" depth="3" NCoef="0" IVar="-1" Cut="0.0000000000000000e+00" cType="1" res="4.4332598336040974e-03" rms="3.5532090067863464e-01" purity="8.5106801986694336e-01" nType="-99"/>
          </Node>
          <Node pos="r" depth="2" NCoef="0" IVar="-1" Cut="0.0000000000000000e+00" cType="1" res="-1.9721947610378265e-03" rms="4.8746687173843384e-01" purity="3.8875228166580200e-01" nType="-99"/>
        </Node>
      </Node>
    </BinaryTree>
    <BinaryTree type="DecisionTree" boostWeight="1.0000000000000000e+00" itree="26">
      <Node pos="s" depth="0" NCoef="0" IVar="9" Cut="1.0693251037597656e+02" cType="1" res="2.4377213791012764e-02" rms="4.6435880661010742e-01" purity="5.0000000000000000e-01" nType="0">
        <Node pos="l" depth="1" NCoef="0" IVar="9" Cut="9.2112289428710938e+01" cType="1" res="-1.2589968740940094e-01" rms="4.3159857392311096e-01" purity="2.8909045457839966e-01" nType="0">
          <Node pos="l" depth="2" NCoef="0" IVar="5" Cut="-1.9185928106307983e+00" cType="1" res="-1.9885291159152985e-01" rms="3.6056771874427795e-01" purity="1.6740092635154724e-01" nType="0">
            <Node pos="l" depth="3" NCoef="0" IVar="-1" Cut="0.0000000000000000e+00" cType="1" res="-1.2061721645295620e-02" rms="2.9384353756904602e-01" purity="9.9873349070549011e-02" nType="-99"/>
            <Node pos="r" depth="3" NCoef="0" IVar="-1" Cut="0.0000000000000000e+00" cType="1" res="-4.0135439485311508e-03" rms="4.4605988264083862e-01" purity="2.9019585251808167e-01" nType="-99"/>
          </Node>
          <Node pos="r" depth="2" NCoef="0" IVar="6" Cut="7.5221794128417969e+01" cType="1" res="-3.7182070314884186e-02" rms="4.9026674032211304e-01" purity="4.3707576394081116e-01" nType="0">
            <Node pos="l" depth="3" NCoef="0" IVar="-1" Cut="0.0000000000000000e+00" cType="1" res="-2.0204433239996433e-03" rms="4.8499548435211182e-01" purity="3.9702036976814270e-01" nType="-99"/>
            <Node pos="r" depth="3" NCoef="0" IVar="-1" Cut="0.0000000000000000e+00" cType="1" res="1.7664711922407150e-03" rms="4.8893207311630249e-01" purity="5.6472629308700562e-01" nType="-99"/>
          </Node>
        </Node>
        <Node pos="r" depth="1" NCoef="0" IVar="9" Cut="1.5853077697753906e+02" cType="1" res="1.7401222884654999e-01" rms="4.4718924164772034e-01" purity="7.1000868082046509e-01" nType="0">
          <Node pos="l" depth="2" NCoef="0" IVar="2" Cut="4.7100753784179688e+01" cType="1" res="2.0302009582519531e-01" rms="4.3293929100036621e-01" purity="7.4631237983703613e-01" nType="0">
            <Node pos="l" depth="3" NCoef="0" IVar="-1" Cut="0.0000000000000000e+00" cType="1" res="2.5166189298033714e-03" rms="4.5982316136360168e-01" purity="6.9243806600570679e-01" nType="-99"/>
            <Node pos="r" depth="3" NCoef="0" IVar="-1" Cut="0.0000000000000000e+00" cType="1" res="4.4050128199160099e-03" rms="3.5532137751579285e-01" purity="8.5106801986694336e-01" nType="-99"/>
          </Node>
          <Node pos="r" depth="2" NCoef="0" IVar="-1" Cut="0.0000000000000000e+00" cType="1" res="-1.9494548905640841e-03" rms="4.8746687173843384e-01" purity="3.8875228166580200e-01" nType="-99"/>
        </Node>
      </Node>
    </BinaryTree>
    <BinaryTree type="DecisionTree" boostWeight="1.0000000000000000e+00" itree="27">
      <Node pos="s" depth="0" NCoef="0" IVar="9" Cut="1.0693251037597656e+02" cType="1" res="2.4987155571579933e-02" rms="4.6340754628181458e-01" purity="5.0000000000000000e-01" nType="0">
        <Node pos="l" depth="1" NCoef="0" IVar="9" Cut="9.6254554748535156e+01" cType="1" res="-1.2336385995149612e-01" rms="4.3109577894210815e-01" purity="2.8909045457839966e-01" nType="0">
          <Node pos="l" depth="2" NCoef="0" IVar="8" Cut="3.8601195812225342e+00" cType="1" res="-1.7861841619014740e-01" rms="3.8324370980262756e-01" purity="1.9697496294975281e-01" nType="0">
            <Node pos="l" depth="3" NCoef="0" IVar="-1" Cut="0.0000000000000000e+00" cType="1" res="-1.0373000055551529e-02" rms="3.4770855307579041e-01" purity="1.5260981023311615e-01" nType="-99"/>
            <Node pos="r" depth="3" NCoef="0" IVar="-1" Cut="0.0000000000000000e+00" cType="1" res="-1.9758553244173527e-03" rms="4.5766833424568176e-01" purity="3.3060836791992188e-01" nType="-99"/>
          </Node>
          <Node pos="r" depth="2" NCoef="0" IVar="6" Cut="6.5060707092285156e+01" cType="1" res="-1.0413891635835171e-02" rms="4.9648955464363098e-01" purity="4.7739064693450928e-01" nType="0">
            <Node pos="l" depth="3" NCoef="0" IVar="-1" Cut="0.0000000000000000e+00" cType="1" res="-1.3536482583731413e-03" rms="4.9308919906616211e-01" purity="4.2852526903152466e-01" nType="-99"/>
            <Node pos="r" depth="3" NCoef="0" IVar="-1" Cut="0.0000000000000000e+00" cType="1" res="1.6189119778573513e-03" rms="4.9219948053359985e-01" purity="5.7347971200942993e-01" nType="-99"/>
          </Node>
        </Node>
        <Node pos="r" depth="1" NCoef="0" IVar="9" Cut="1.5853077697753906e+02" cType="1" res="1.7270450294017792e-01" rms="4.4698056578636169e-01" purity="7.1000868082046509e-01" nType="0">
          <Node pos="l" depth="2" NCoef="0" IVar="2" Cut="2.9232658386230469e+01" cType="1" res="2.0145481824874878e-01" rms="4.3286865949630737e-01" purity="7.4631237983703613e-01" nType="0">
            <Node pos="l" depth="3" NCoef="0" IVar="-1" Cut="0.0000000000000000e+00" cType="1" res="1.0628472082316875e-03" rms="4.8974403738975525e-01" purity="5.9633916616439819e-01" nType="-99"/>
            <Node pos="r" depth="3" NCoef="0" IVar="-1" Cut="0.0000000000000000e+00" cType="1" res="3.6403927952051163e-03" rms="4.1042774915695190e-01" purity="7.8302276134490967e-01" nType="-99"/>
          </Node>
          <Node pos="r" depth="2" NCoef="0" IVar="-1" Cut="0.0000000000000000e+00" cType="1" res="-1.9269870826974511e-03" rms="4.8746687173843384e-01" purity="3.8875228166580200e-01" nType="-99"/>
        </Node>
      </Node>
    </BinaryTree>
    <BinaryTree type="DecisionTree" boostWeight="1.0000000000000000e+00" itree="28">
      <Node pos="s" depth="0" NCoef="0" IVar="9" Cut="1.0693251037597656e+02" cType="1" res="2.5640681385993958e-02" rms="4.6245956420898438e-01" purity="5.0000000000000000e-01" nType="0">
        <Node pos="l" depth="1" NCoef="0" IVar="9" Cut="9.2112289428710938e+01" cType="1" res="-1.2075126916170120e-01" rms="4.3061536550521851e-01" purity="2.8909045457839966e-01" nType="0">
          <Node pos="l" depth="2" NCoef="0" IVar="5" Cut="-1.9185928106307983e+00" cType="1" res="-1.9089697301387787e-01" rms="3.6009776592254639e-01" purity="1.6740092635154724e-01" nType="0">
            <Node pos="l" depth="3" NCoef="0" IVar="-1" Cut="0.0000000000000000e+00" cType="1" res="-1.1758920736610889e-02" rms="2.9375562071800232e-01" purity="9.9873349070549011e-02" nType="-99"/>
            <Node pos="r" depth="3" NCoef="0" IVar="-1" Cut="0.0000000000000000e+00" cType="1" res="-3.8320301100611687e-03" rms="4.4572275876998901e-01" purity="2.9019585251808167e-01" nType="-99"/>
          </Node>
          <Node pos="r" depth="2" NCoef="0" IVar="6" Cut="7.5221794128417969e+01" cType="1" res="-3.5447847098112106e-02" rms="4.8987489938735962e-01" purity="4.3707576394081116e-01" nType="0">
            <Node pos="l" depth="3" NCoef="0" IVar="-1" Cut="0.0000000000000000e+00" cType="1" res="-1.9559210631996393e-03" rms="4.8482823371887207e-01" purity="3.9702036976814270e-01" nType="-99"/>
            <Node pos="r" depth="3" NCoef="0" IVar="-1" Cut="0.0000000000000000e+00" cType="1" res="1.7583734588697553e-03" rms="4.8846954107284546e-01" purity="5.6472629308700562e-01" nType="-99"/>
          </Node>
        </Node>
        <Node pos="r" depth="1" NCoef="0" IVar="9" Cut="1.5853077697753906e+02" cType="1" res="1.7140734195709229e-01" rms="4.4676575064659119e-01" purity="7.1000868082046509e-01" nType="0">
          <Node pos="l" depth="2" NCoef="0" IVar="2" Cut="4.7100753784179688e+01" cType="1" res="1.9990257918834686e-01" rms="4.3278795480728149e-01" purity="7.4631237983703613e-01" nType="0">
            <Node pos="l" depth="3" NCoef="0" IVar="-1" Cut="0.0000000000000000e+00" cType="1" res="2.4748351424932480e-03" rms="4.5974916219711304e-01" purity="6.9243806600570679e-01" nType="-99"/>
            <Node pos="r" depth="3" NCoef="0" IVar="-1" Cut="0.0000000000000000e+00" cType="1" res="4.3541220948100090e-03" rms="3.5532230138778687e-01" purity="8.5106801986694336e-01" nType="-99"/>
          </Node>
          <Node pos="r" depth="2" NCoef="0" IVar="-1" Cut="0.0000000000000000e+00" cType="1" res="-1.9047878449782729e-03" rms="4.8746687173843384e-01" purity="3.8875228166580200e-01" nType="-99"/>
        </Node>
      </Node>
    </BinaryTree>
    <BinaryTree type="DecisionTree" boostWeight="1.0000000000000000e+00" itree="29">
      <Node pos="s" depth="0" NCoef="0" IVar="9" Cut="1.0693251037597656e+02" cType="1" res="2.6209354400634766e-02" rms="4.6155899763107300e-01" purity="5.0000000000000000e-01" nType="0">
        <Node pos="l" depth="1" NCoef="0" IVar="9" Cut="8.3735717773437500e+01" cType="1" res="-1.1831771582365036e-01" rms="4.3014669418334961e-01" purity="2.8909045457839966e-01" nType="0">
          <Node pos="l" depth="2" NCoef="0" IVar="7" Cut="2.2310061454772949e+00" cType="1" res="-2.2722446918487549e-01" rms="2.9360052943229675e-01" purity="1.0187497735023499e-01" nType="0">
            <Node pos="l" depth="3" NCoef="0" IVar="-1" Cut="0.0000000000000000e+00" cType="1" res="-1.2069576419889927e-02" rms="2.1674837172031403e-01" purity="5.0661459565162659e-02" nType="-99"/>
            <Node pos="r" depth="3" NCoef="0" IVar="-1" Cut="0.0000000000000000e+00" cType="1" res="-8.3396937698125839e-03" rms="3.5700103640556335e-01" purity="1.6132612526416779e-01" nType="-99"/>
          </Node>
          <Node pos="r" depth="2" NCoef="0" IVar="8" Cut="3.8502004146575928e+00" cType="1" res="-6.5183959901332855e-02" rms="4.7395291924476624e-01" purity="3.8042971491813660e-01" nType="0">
            <Node pos="l" depth="3" NCoef="0" IVar="-1" Cut="0.0000000000000000e+00" cType="1" res="-3.2619589474052191e-03" rms="4.6213909983634949e-01" purity="3.3990633487701416e-01" nType="-99"/>
            <Node pos="r" depth="3" NCoef="0" IVar="-1" Cut="0.0000000000000000e+00" cType="1" res="6.2509981216862798e-04" rms="4.9109581112861633e-01" purity="4.8335242271423340e-01" nType="-99"/>
          </Node>
        </Node>
        <Node pos="r" depth="1" NCoef="0" IVar="9" Cut="1.5853077697753906e+02" cType="1" res="1.7011909186840057e-01" rms="4.4656324386596680e-01" purity="7.1000868082046509e-01" nType="0">
          <Node pos="l" depth="2" NCoef="0" IVar="2" Cut="2.9232658386230469e+01" cType="1" res="1.9836154580116272e-01" rms="4.3271851539611816e-01" purity="7.4631237983703613e-01" nType="0">
            <Node pos="l" depth="3" NCoef="0" IVar="-1" Cut="0.0000000000000000e+00" cType="1" res="1.0323534952476621e-03" rms="4.8974442481994629e-01" purity="5.9633916616439819e-01" nType="-99"/>
            <Node pos="r" depth="3" NCoef="0" IVar="-1" Cut="0.0000000000000000e+00" cType="1" res="3.5926525015383959e-03" rms="4.1036987304687500e-01" purity="7.8302276134490967e-01" nType="-99"/>
          </Node>
          <Node pos="r" depth="2" NCoef="0" IVar="-1" Cut="0.0000000000000000e+00" cType="1" res="-1.8828531028702855e-03" rms="4.8746687173843384e-01" purity="3.8875228166580200e-01" nType="-99"/>
        </Node>
      </Node>
    </BinaryTree>
    <BinaryTree type="DecisionTree" boostWeight="1.0000000000000000e+00" itree="30">
      <Node pos="s" depth="0" NCoef="0" IVar="9" Cut="1.0693251037597656e+02" cType="1" res="2.6660479605197906e-02" rms="4.6074455976486206e-01" purity="5.0000000000000000e-01" nType="0">
        <Node pos="l" depth="1" NCoef="0" IVar="9" Cut="9.6254554748535156e+01" cType="1" res="-1.1613016575574875e-01" rms="4.2977121472358704e-01" purity="2.8909045457839966e-01" nType="0">
          <Node pos="l" depth="2" NCoef="0" IVar="5" Cut="-1.9185928106307983e+00" cType="1" res="-1.6870842874050140e-01" rms="3.8235229253768921e-01" purity="1.9697496294975281e-01" nType="0">
            <Node pos="l" depth="3" NCoef="0" IVar="-1" Cut="0.0000000000000000e+00" cType="1" res="-1.0396296158432961e-02" rms="3.2359308004379272e-01" purity="1.2749974429607391e-01" nType="-99"/>
            <Node pos="r" depth="3" NCoef="0" IVar="-1" Cut="0.0000000000000000e+00" cType="1" res="-2.9307818040251732e-03" rms="4.5667168498039246e-01" purity="3.1835329532623291e-01" nType="-99"/>
          </Node>
          <Node pos="r" depth="2" NCoef="0" IVar="6" Cut="6.5060707092285156e+01" cType="1" res="-8.6510032415390015e-03" rms="4.9620729684829712e-01" purity="4.7739064693450928e-01" nType="0">
            <Node pos="l" depth="3" NCoef="0" IVar="-1" Cut="0.0000000000000000e+00" cType="1" res="-1.2876202818006277e-03" rms="4.9300271272659302e-01" purity="4.2852526903152466e-01" nType="-99"/>
            <Node pos="r" depth="3" NCoef="0" IVar="-1" Cut="0.0000000000000000e+00" cType="1" res="1.6201015096157789e-03" rms="4.9196562170982361e-01" purity="5.7347971200942993e-01" nType="-99"/>
          </Node>
        </Node>
        <Node pos="r" depth="1" NCoef="0" IVar="9" Cut="1.5853077697753906e+02" cType="1" res="1.6884121298789978e-01" rms="4.4635474681854248e-01" purity="7.1000868082046509e-01" nType="0">
          <Node pos="l" depth="2" NCoef="0" IVar="2" Cut="4.7100753784179688e+01" cType="1" res="1.9683329761028290e-01" rms="4.3263930082321167e-01" purity="7.4631237983703613e-01" nType="0">
            <Node pos="l" depth="3" NCoef="0" IVar="-1" Cut="0.0000000000000000e+00" cType="1" res="2.4338164366781712e-03" rms="4.5967659354209900e-01" purity="6.9243806600570679e-01" nType="-99"/>
            <Node pos="r" depth="3" NCoef="0" IVar="-1" Cut="0.0000000000000000e+00" cType="1" res="4.3043144978582859e-03" rms="3.5532331466674805e-01" purity="8.5106801986694336e-01" nType="-99"/>
          </Node>
          <Node pos="r" depth="2" NCoef="0" IVar="-1" Cut="0.0000000000000000e+00" cType="1" res="-1.8611786654219031e-03" rms="4.8746684193611145e-01" purity="3.8875228166580200e-01" nType="-99"/>
        </Node>
      </Node>
    </BinaryTree>
    <BinaryTree type="DecisionTree" boostWeight="1.0000000000000000e+00" itree="31">
      <Node pos="s" depth="0" NCoef="0" IVar="9" Cut="1.0693251037597656e+02" cType="1" res="2.7205083519220352e-02" rms="4.5989054441452026e-01" purity="5.0000000000000000e-01" nType="0">
        <Node pos="l" depth="1" NCoef="0" IVar="9" Cut="8.3735717773437500e+01" cType="1" res="-1.1376411467790604e-01" rms="4.2934268712997437e-01" purity="2.8909045457839966e-01" nType="0">
          <Node pos="l" depth="2" NCoef="0" IVar="8" Cut="3.6227047443389893e+00" cType="1" res="-2.1928161382675171e-01" rms="2.9334262013435364e-01" purity="1.0187497735023499e-01" nType="0">
            <Node pos="l" depth="3" NCoef="0" IVar="-1" Cut="0.0000000000000000e+00" cType="1" res="-1.4121226966381073e-02" rms="2.3301373422145844e-01" purity="5.9300683438777924e-02" nType="-99"/>
            <Node pos="r" depth="3" NCoef="0" IVar="-1" Cut="0.0000000000000000e+00" cType="1" res="-5.2044354379177094e-03" rms="3.8302788138389587e-01" purity="1.9123229384422302e-01" nType="-99"/>
          </Node>
          <Node pos="r" depth="2" NCoef="0" IVar="8" Cut="3.8502004146575928e+00" cType="1" res="-6.2283925712108612e-02" rms="4.7350242733955383e-01" purity="3.8042971491813660e-01" nType="0">
            <Node pos="l" depth="3" NCoef="0" IVar="-1" Cut="0.0000000000000000e+00" cType="1" res="-3.1556119211018085e-03" rms="4.6177095174789429e-01" purity="3.3990633487701416e-01" nType="-99"/>
            <Node pos="r" depth="3" NCoef="0" IVar="-1" Cut="0.0000000000000000e+00" cType="1" res="6.6193850943818688e-04" rms="4.9079617857933044e-01" purity="4.8335242271423340e-01" nType="-99"/>
          </Node>
        </Node>
        <Node pos="r" depth="1" NCoef="0" IVar="9" Cut="1.5853077697753906e+02" cType="1" res="1.6757215559482574e-01" rms="4.4615817070007324e-01" purity="7.1000868082046509e-01" nType="0">
          <Node pos="l" depth="2" NCoef="0" IVar="2" Cut="2.9232658386230469e+01" cType="1" res="1.9531612098217010e-01" rms="4.3257102370262146e-01" purity="7.4631237983703613e-01" nType="0">
            <Node pos="l" depth="3" NCoef="0" IVar="-1" Cut="0.0000000000000000e+00" cType="1" res="1.0024841176345944e-03" rms="4.8974481225013733e-01" purity="5.9633916616439819e-01" nType="-99"/>
            <Node pos="r" depth="3" NCoef="0" IVar="-1" Cut="0.0000000000000000e+00" cType="1" res="3.5458272323012352e-03" rms="4.1031304001808167e-01" purity="7.8302276134490967e-01" nType="-99"/>
          </Node>
          <Node pos="r" depth="2" NCoef="0" IVar="-1" Cut="0.0000000000000000e+00" cType="1" res="-1.8397615058347583e-03" rms="4.8746687173843384e-01" purity="3.8875228166580200e-01" nType="-99"/>
        </Node>
      </Node>
    </BinaryTree>
    <BinaryTree type="DecisionTree" boostWeight="1.0000000000000000e+00" itree="32">
      <Node pos="s" depth="0" NCoef="0" IVar="9" Cut="1.0693251037597656e+02" cType="1" res="2.7697658166289330e-02" rms="4.5906078815460205e-01" purity="5.0000000000000000e-01" nType="0">
        <Node pos="l" depth="1" NCoef="0" IVar="9" Cut="9.6254554748535156e+01" cType="1" res="-1.1151257902383804e-01" rms="4.2891925573348999e-01" purity="2.8909045457839966e-01" nType="0">
          <Node pos="l" depth="2" NCoef="0" IVar="5" Cut="-1.9185928106307983e+00" cType="1" res="-1.6240768134593964e-01" rms="3.8171970844268799e-01" purity="1.9697496294975281e-01" nType="0">
            <Node pos="l" depth="3" NCoef="0" IVar="-1" Cut="0.0000000000000000e+00" cType="1" res="-1.0144149884581566e-02" rms="3.2333472371101379e-01" purity="1.2749974429607391e-01" nType="-99"/>
            <Node pos="r" depth="3" NCoef="0" IVar="-1" Cut="0.0000000000000000e+00" cType="1" res="-2.8048541862517595e-03" rms="4.5614802837371826e-01" purity="3.1835329532623291e-01" nType="-99"/>
          </Node>
          <Node pos="r" depth="2" NCoef="0" IVar="6" Cut="6.5060707092285156e+01" cType="1" res="-7.4740853160619736e-03" rms="4.9605086445808411e-01" purity="4.7739064693450928e-01" nType="0">
            <Node pos="l" depth="3" NCoef="0" IVar="-1" Cut="0.0000000000000000e+00" cType="1" res="-1.2479505967348814e-03" rms="4.9291923642158508e-01" purity="4.2852526903152466e-01" nType="-99"/>
            <Node pos="r" depth="3" NCoef="0" IVar="-1" Cut="0.0000000000000000e+00" cType="1" res="1.6283682780340314e-03" rms="4.9186459183692932e-01" purity="5.7347971200942993e-01" nType="-99"/>
          </Node>
        </Node>
        <Node pos="r" depth="1" NCoef="0" IVar="9" Cut="1.5853077697753906e+02" cType="1" res="1.6631327569484711e-01" rms="4.4595578312873840e-01" purity="7.1000868082046509e-01" nType="0">
          <Node pos="l" depth="2" NCoef="0" IVar="2" Cut="4.7100753784179688e+01" cType="1" res="1.9381150603294373e-01" rms="4.3249329924583435e-01" purity="7.4631237983703613e-01" nType="0">
            <Node pos="l" depth="3" NCoef="0" IVar="-1" Cut="0.0000000000000000e+00" cType="1" res="2.3935402277857065e-03" rms="4.5960542559623718e-01" purity="6.9243806600570679e-01" nType="-99"/>
            <Node pos="r" depth="3" NCoef="0" IVar="-1" Cut="0.0000000000000000e+00" cType="1" res="4.2555476538836956e-03" rms="3.5532438755035400e-01" purity="8.5106801986694336e-01" nType="-99"/>
          </Node>
          <Node pos="r" depth="2" NCoef="0" IVar="-1" Cut="0.0000000000000000e+00" cType="1" res="-1.8185982480645180e-03" rms="4.8746684193611145e-01" purity="3.8875228166580200e-01" nType="-99"/>
        </Node>
      </Node>
    </BinaryTree>
    <BinaryTree type="DecisionTree" boostWeight="1.0000000000000000e+00" itree="33">
      <Node pos="s" depth="0" NCoef="0" IVar="9" Cut="1.0693251037597656e+02" cType="1" res="2.8206152841448784e-02" rms="4.5824983716011047e-01" purity="5.0000000000000000e-01" nType="0">
        <Node pos="l" depth="1" NCoef="0" IVar="9" Cut="9.6254554748535156e+01" cType="1" res="-1.0923788696527481e-01" rms="4.2851695418357849e-01" purity="2.8909045457839966e-01" nType="0">
          <Node pos="l" depth="2" NCoef="0" IVar="8" Cut="3.6815736293792725e+00" cType="1" res="-1.5908773243427277e-01" rms="3.8151735067367554e-01" purity="1.9697496294975281e-01" nType="0">
            <Node pos="l" depth="3" NCoef="0" IVar="-1" Cut="0.0000000000000000e+00" cType="1" res="-1.0149557143449783e-02" rms="3.3832806348800659e-01" purity="1.4399474859237671e-01" nType="-99"/>
            <Node pos="r" depth="3" NCoef="0" IVar="-1" Cut="0.0000000000000000e+00" cType="1" res="-2.2150469012558460e-03" rms="4.4869166612625122e-01" purity="3.1061488389968872e-01" nType="-99"/>
          </Node>
          <Node pos="r" depth="2" NCoef="0" IVar="6" Cut="6.5060707092285156e+01" cType="1" res="-7.3360749520361423e-03" rms="4.9597117304801941e-01" purity="4.7739064693450928e-01" nType="0">
            <Node pos="l" depth="3" NCoef="0" IVar="-1" Cut="0.0000000000000000e+00" cType="1" res="-1.2323583941906691e-03" rms="4.9291938543319702e-01" purity="4.2852526903152466e-01" nType="-99"/>
            <Node pos="r" depth="3" NCoef="0" IVar="-1" Cut="0.0000000000000000e+00" cType="1" res="1.6107031842693686e-03" rms="4.9186453223228455e-01" purity="5.7347971200942993e-01" nType="-99"/>
          </Node>
        </Node>
        <Node pos="r" depth="1" NCoef="0" IVar="9" Cut="1.5853077697753906e+02" cType="1" res="1.6506311297416687e-01" rms="4.4576495885848999e-01" purity="7.1000868082046509e-01" nType="0">
          <Node pos="l" depth="2" NCoef="0" IVar="2" Cut="3.6082092285156250e+01" cType="1" res="1.9231781363487244e-01" rms="4.3242618441581726e-01" purity="7.4631237983703613e-01" nType="0">
            <Node pos="l" depth="3" NCoef="0" IVar="-1" Cut="0.0000000000000000e+00" cType="1" res="1.8341623945161700e-03" rms="4.7517752647399902e-01" purity="6.5145319700241089e-01" nType="-99"/>
            <Node pos="r" depth="3" NCoef="0" IVar="-1" Cut="0.0000000000000000e+00" cType="1" res="3.7628985010087490e-03" rms="3.9269930124282837e-01" purity="8.0783981084823608e-01" nType="-99"/>
          </Node>
          <Node pos="r" depth="2" NCoef="0" IVar="-1" Cut="0.0000000000000000e+00" cType="1" res="-1.7976853996515274e-03" rms="4.8746684193611145e-01" purity="3.8875228166580200e-01" nType="-99"/>
        </Node>
      </Node>
